SNNS network definition file V1.4-3D
generated at Mon Mar 19 23:18:22 2007

network name : Proyecto
source files :
no. of units : 77
no. of connections : 1350
no. of unit types : 0
no. of site types : 0


learning function : Std_Backpropagation
update function   : Topological_Order


unit default section :

act      | bias     | st | subnet | layer | act func     | out func
---------|----------|----|--------|-------|--------------|-------------
 0.00000 |  0.00000 | h  |      0 |     1 | Act_Logistic | Out_Identity 
---------|----------|----|--------|-------|--------------|-------------


unit definition section :

no. | typeName | unitName | act      | bias     | st | position | act func | out func | sites
----|----------|----------|----------|----------|----|----------|----------|----------|-------
  1 |          | noName   |  4.00000 | -1.00000 | i  |  1, 1, 1 |||
  2 |          | noName   |  7.00000 | -0.99803 | i  |  1, 2, 1 |||
  3 |          | noName   |  3.00000 | -0.91674 | i  |  1, 3, 1 |||
  4 |          | noName   |  7.00000 | -0.64671 | i  |  1, 4, 1 |||
  5 |          | noName   |  8.00000 | -0.27080 | i  |  1, 5, 1 |||
  6 |          | noName   |  5.00000 | -0.81734 | i  |  1, 6, 1 |||
  7 |          | noName   |  8.00000 | -0.81540 | i  |  1, 7, 1 |||
  8 |          | noName   |  7.00000 | -0.02557 | i  |  1, 8, 1 |||
  9 |          | noName   |  0.00000 |  0.05350 | i  |  1, 9, 1 |||
 10 |          | noName   |  2.00000 | -0.09113 | i  |  1,10, 1 |||
 11 |          | noName   |  4.00000 | -0.53364 | i  |  1,11, 1 |||
 12 |          | noName   |  6.00000 |  0.66258 | i  |  1,12, 1 |||
 13 |          | noName   |  2.00000 |  0.86346 | i  |  1,13, 1 |||
 14 |          | noName   |  4.00000 |  0.13612 | i  |  1,14, 1 |||
 15 |          | noName   |  7.00000 |  0.11219 | i  |  1,15, 1 |||
 16 |          | noName   |  1.00000 | -0.89834 | i  |  1,16, 1 |||
 17 |          | noName   |  0.00000 |  0.53410 | i  |  1,17, 1 |||
 18 |          | noName   |  0.00000 | -0.96217 | i  |  1,18, 1 |||
 19 |          | noName   |  2.00000 | -0.49528 | i  |  1,19, 1 |||
 20 |          | noName   |  9.00000 | -0.40361 | i  |  1,20, 1 |||
 21 |          | noName   |  0.00000 |  0.75196 | i  |  1,21, 1 |||
 22 |          | noName   |  1.00000 | -2.14174 | h  |  4, 2, 1 |||
 23 |          | noName   |  0.00000 | -2.38039 | h  |  5, 2, 1 |||
 24 |          | noName   |  1.00000 | -5.34811 | h  |  6, 2, 1 |||
 25 |          | noName   |  0.00000 | -4.17241 | h  |  7, 2, 1 |||
 26 |          | noName   |  0.00000 | -2.64417 | h  |  8, 2, 1 |||
 27 |          | noName   |  1.00000 | -2.27512 | h  |  4, 3, 1 |||
 28 |          | noName   |  0.00000 |  4.20819 | h  |  5, 3, 1 |||
 29 |          | noName   |  1.00000 | -4.23680 | h  |  6, 3, 1 |||
 30 |          | noName   |  0.00000 | -3.62425 | h  |  7, 3, 1 |||
 31 |          | noName   |  1.00000 |  3.91420 | h  |  8, 3, 1 |||
 32 |          | noName   |  0.00000 | -2.38786 | h  |  4, 4, 1 |||
 33 |          | noName   |  1.00000 |  9.69954 | h  |  5, 4, 1 |||
 34 |          | noName   |  1.00000 | -2.44510 | h  |  6, 4, 1 |||
 35 |          | noName   |  1.00000 | -4.37290 | h  |  7, 4, 1 |||
 36 |          | noName   |  1.00000 | -3.68025 | h  |  8, 4, 1 |||
 37 |          | noName   |  1.00000 | -5.10332 | h  |  4, 5, 1 |||
 38 |          | noName   |  1.00000 | -2.79492 | h  |  5, 5, 1 |||
 39 |          | noName   |  1.00000 | -9.74537 | h  |  6, 5, 1 |||
 40 |          | noName   |  1.00000 | -5.54025 | h  |  7, 5, 1 |||
 41 |          | noName   |  1.00000 |  3.72424 | h  |  8, 5, 1 |||
 42 |          | noName   |  0.00000 | -3.62634 | h  |  4, 6, 1 |||
 43 |          | noName   |  0.00000 | -2.92229 | h  |  5, 6, 1 |||
 44 |          | noName   |  0.00000 | -2.41492 | h  |  6, 6, 1 |||
 45 |          | noName   |  0.00000 | -2.36817 | h  |  7, 6, 1 |||
 46 |          | noName   |  0.00000 | -3.91868 | h  |  8, 6, 1 |||
 47 |          | noName   |  0.00000 | -2.33432 | h  |  4, 7, 1 |||
 48 |          | noName   |  1.00000 | -2.15294 | h  |  5, 7, 1 |||
 49 |          | noName   |  0.00000 | -2.48744 | h  |  6, 7, 1 |||
 50 |          | noName   |  1.00000 | -3.17995 | h  |  7, 7, 1 |||
 51 |          | noName   |  1.00000 | -2.27369 | h  |  8, 7, 1 |||
 52 |          | noName   |  1.00000 | -4.12622 | h  |  4, 8, 1 |||
 53 |          | noName   |  1.00000 | -5.92875 | h  |  5, 8, 1 |||
 54 |          | noName   |  0.00000 | -2.56638 | h  |  6, 8, 1 |||
 55 |          | noName   |  1.00000 | -2.73586 | h  |  7, 8, 1 |||
 56 |          | noName   |  1.00000 | -4.17917 | h  |  8, 8, 1 |||
 57 |          | noName   |  0.00000 | -3.24751 | h  |  4, 9, 1 |||
 58 |          | noName   |  0.00000 | -5.70090 | h  |  5, 9, 1 |||
 59 |          | noName   |  1.00000 | -2.07592 | h  |  6, 9, 1 |||
 60 |          | noName   |  0.00000 | -2.25219 | h  |  7, 9, 1 |||
 61 |          | noName   |  1.00000 | -2.19381 | h  |  8, 9, 1 |||
 62 |          | noName   |  1.00000 |  3.95371 | h  |  4,10, 1 |||
 63 |          | noName   |  0.00000 | -0.07305 | h  |  5,10, 1 |||
 64 |          | noName   |  0.00000 | -2.66195 | h  |  6,10, 1 |||
 65 |          | noName   |  1.00000 | -3.97814 | h  |  7,10, 1 |||
 66 |          | noName   |  1.00000 | -2.70491 | h  |  8,10, 1 |||
 67 |          | noName   |  0.00000 | -2.44533 | h  |  4,11, 1 |||
 68 |          | noName   |  1.00000 | -4.47585 | h  |  5,11, 1 |||
 69 |          | noName   |  0.00000 | -2.51353 | h  |  6,11, 1 |||
 70 |          | noName   |  1.00000 | -2.61712 | h  |  7,11, 1 |||
 71 |          | noName   |  0.00000 | -3.74436 | h  |  8,11, 1 |||
 72 |          | noName   |  0.99911 | -1.55876 | o  | 10, 4, 1 |||
 73 |          | noName   |  0.00315 |  1.81155 | o  | 10, 5, 1 |||
 74 |          | noName   |  0.13064 |  0.28829 | o  | 10, 6, 1 |||
 75 |          | noName   |  0.05341 |  4.82217 | o  | 10, 7, 1 |||
 76 |          | noName   |  0.06097 | -2.24494 | o  | 10, 8, 1 |||
 77 |          | noName   |  0.00003 |  4.60696 | o  | 10, 9, 1 |||
----|----------|----------|----------|----------|----|----------|----------|----------|-------


connection definition section :

target | site | source:weight
-------|------|---------------------------------------------------------------------------------------------------------------------
    22 |      |  1: 1.04710,  2: 0.63942,  3: 0.99582,  4: 0.04026,  5: 1.32349,  6: 0.72160,  7:-0.56510,  8: 1.06778,  9: 0.97980,
                10:-0.55439, 11: 1.06352, 12: 1.31267, 13:-0.38740, 14:-0.12759, 15:-0.19624, 16: 0.33191, 17: 0.30968, 18: 0.36185,
                19: 1.16721, 20:-0.20125, 21: 0.24881
    23 |      |  1:-0.30106,  2:-1.26230,  3:-2.85155,  4: 0.06626,  5:-0.34726,  6:-1.09049,  7: 1.66975,  8:-1.66111,  9: 0.73175,
                10:-0.47152, 11:-1.76718, 12:-3.00544, 13: 1.89998, 14: 0.71464, 15:-0.81996, 16: 0.08367, 17: 0.43686, 18: 0.53844,
                19:-1.69255, 20: 0.95158, 21:-0.33143
    24 |      |  1: 0.37085,  2:-14.36271,  3: 5.35960,  4:12.40709,  5:15.35365,  6: 3.97834,  7:-1.87481,  8: 5.69539,  9:-0.23488,
                10: 6.06923, 11:-0.49229, 12: 0.49624, 13:-5.32152, 14:-5.54607, 15:-8.93646, 16: 1.06553, 17: 0.52477, 18: 0.62234,
                19:15.14318, 20:-3.16444, 21:-0.72217
    25 |      |  1:-6.95827,  2:-0.72928,  3:-3.48752,  4: 1.12015,  5: 8.34766,  6:-3.72837,  7:-10.23591,  8: 3.45665,  9: 0.47160,
                10: 0.36024, 11: 1.54371, 12:-1.86644, 13: 6.53529, 14:-2.83055, 15:-4.17446, 16: 5.37021, 17: 4.24400, 18:-0.60601,
                19:-11.96736, 20:-0.23031, 21: 0.93219
    26 |      |  1:-1.60463,  2:-4.12023,  3:-1.78610,  4:-3.70301,  5: 4.73467,  6: 0.65760,  7:-0.26512,  8:-3.52625,  9:-1.16090,
                10:-2.06776, 11: 0.87466, 12:-0.54743, 13:-3.32368, 14:-2.14728, 15: 3.17882, 16:-2.47919, 17: 0.13550, 18:-0.15037,
                19:-1.76498, 20:-10.09853, 21: 0.21686
    27 |      |  1:-0.21477,  2:-0.10188,  3: 1.38048,  4:-0.04932,  5: 1.05492,  6:-0.61163,  7: 0.74402,  8: 0.90370,  9:-0.32463,
                10:-0.15030, 11: 0.16777, 12: 1.21929, 13: 0.29304, 14: 0.27105, 15:-0.19354, 16: 0.62862, 17:-1.51758, 18:-0.96046,
                19:-0.14050, 20:-0.64987, 21:-0.24354
    28 |      |  1:-0.22039,  2:-0.59852,  3: 2.73906,  4:-3.85614,  5:-1.49116,  6:-4.04500,  7:-0.98549,  8: 3.28863,  9:-0.15454,
                10:-0.18334, 11:-1.35950, 12: 2.40650, 13:-10.05426, 14: 1.00108, 15: 4.04001, 16: 1.33446, 17:-5.93987, 18: 0.17030,
                19:-11.22563, 20:-2.17696, 21:-0.19368
    29 |      |  1:-0.51920,  2:-0.36335,  3:-1.15152,  4: 1.18095,  5:-2.19116,  6: 2.79935,  7: 1.61271,  8: 2.49271,  9: 1.06742,
                10:-0.75900, 11:-4.22763, 12: 2.68933, 13: 0.39916, 14: 3.58273, 15: 7.95000, 16: 2.30450, 17: 0.71168, 18:-0.16999,
                19: 1.22888, 20: 2.59437, 21:-0.45138
    30 |      |  1:-0.35842,  2:-4.96371,  3:-0.41530,  4:-1.59986,  5:-0.56634,  6:-2.96083,  7:-0.99538,  8: 2.41382,  9:-0.21349,
                10:-4.72199, 11:-2.04914, 12:-2.63034, 13:-2.97090, 14: 1.17927, 15:-4.27379, 16:-2.21219, 17: 1.18116, 18: 0.98151,
                19: 0.62131, 20: 4.86393, 21: 0.87130
    31 |      |  1: 1.12983,  2: 0.64604,  3: 0.12588,  4:-0.78509,  5: 0.70080,  6: 1.15236,  7:-0.16669,  8: 3.21832,  9: 0.05294,
                10:-1.53153, 11:-0.80804, 12: 0.94220, 13: 1.34715, 14:-1.05078, 15: 0.50018, 16:-3.41162, 17: 1.33041, 18:-0.81679,
                19: 0.81431, 20: 5.25191, 21: 0.84257
    32 |      |  1:-0.68272,  2:-1.24617,  3:-1.86534,  4:-1.96033,  5:-1.52055,  6: 0.14484,  7:-1.56739,  8:-1.06523,  9: 1.05033,
                10:-0.47266, 11: 0.45158, 12: 0.86405, 13:-0.52369, 14: 1.38111, 15: 0.54198, 16:-2.08383, 17:-2.98347, 18: 0.05334,
                19: 1.39264, 20:-0.56991, 21: 0.09179
    33 |      |  1:13.99697,  2:11.50782,  3: 1.33392,  4:-11.28630,  5: 3.49886,  6: 8.21452,  7:-5.97017,  8:-0.47586,  9: 6.05425,
                10:-2.91223, 11:11.63650, 12: 6.23367, 13:-19.68021, 14:-7.50897, 15:10.89624, 16: 4.97057, 17:10.93635, 18:-0.44667,
                19:-2.26596, 20:-7.04934, 21:-0.69775
    34 |      |  1: 1.05786,  2: 0.99029,  3: 2.07769,  4:-0.88219,  5: 1.75753,  6: 0.45356,  7:-0.20052,  8: 0.70094,  9: 0.65463,
                10:-0.17735, 11:-0.14094, 12: 0.66154, 13: 0.82753, 14:-1.74196, 15: 1.71715, 16:-0.29207, 17: 0.28011, 18:-0.14792,
                19: 0.99523, 20:-0.12867, 21: 0.96105
    35 |      |  1: 0.27539,  2: 0.29021,  3: 1.23292,  4: 1.02315,  5:-0.12227,  6: 1.73377,  7:-2.64317,  8: 0.98178,  9:-0.59428,
                10: 0.40882, 11:-0.31222, 12: 3.79600, 13: 0.22341, 14:-0.30254, 15:-1.93453, 16: 3.01494, 17:-3.28429, 18:-0.48795,
                19: 2.47988, 20: 3.83991, 21:-0.29301
    36 |      |  1: 2.87752,  2: 3.10585,  3: 4.41842,  4: 0.87632,  5: 2.63797,  6: 0.35320,  7:-6.04082,  8: 0.98944,  9: 0.83511,
                10: 0.17604, 11: 0.87606, 12: 1.52458, 13:-1.58816, 14: 1.24186, 15:-0.43159, 16: 2.64351, 17: 1.58398, 18:-0.72631,
                19: 1.06213, 20:-0.44666, 21: 0.78615
    37 |      |  1:-9.94158,  2:-4.72753,  3:-1.89451,  4: 1.61921,  5: 3.67903,  6:11.05713,  7:10.22568,  8:-1.46935,  9: 3.57249,
                10:-9.86523, 11:-3.05831, 12: 4.59974, 13: 2.40212, 14:-16.15559, 15:10.87616, 16:11.79805, 17:-3.42506, 18: 0.04225,
                19:-6.97182, 20: 8.15586, 21: 0.73782
    38 |      |  1: 2.06435,  2: 0.51710,  3:-0.40521,  4: 4.94903,  5: 4.94274,  6: 0.74986,  7: 3.86637,  8:-0.91657,  9: 0.00419,
                10: 2.86547, 11: 2.45144, 12:-0.67152, 13: 6.35971, 14:-3.38530, 15:-6.16520, 16: 1.89961, 17:-0.27424, 18: 0.08472,
                19: 1.78364, 20: 1.59048, 21:-0.85286
    39 |      |  1:30.01757,  2:-1.66667,  3:23.76837,  4: 7.83822,  5: 7.43918,  6:-31.04456,  7: 1.53955,  8:-15.28879,  9:-4.97786,
                10: 4.28559, 11:21.34086, 12:-6.21219, 13:10.39327, 14:-7.23770, 15:32.31664, 16:-18.87286, 17:-13.89295, 18: 0.85443,
                19:-18.79945, 20:-7.19269, 21:-0.53954
    40 |      |  1: 8.60831,  2: 2.63449,  3:-5.11567,  4: 5.26890,  5:-2.39191,  6:13.42233,  7: 2.62450,  8:-5.24468,  9: 0.10523,
                10: 8.81371, 11: 2.56293, 12:-3.52863, 13:-13.67624, 14: 4.24127, 15:-3.11949, 16: 2.21827, 17:-0.66165, 18:-0.26699,
                19:20.06792, 20: 1.23178, 21: 0.72354
    41 |      |  1:-2.75272,  2:-4.65330,  3:-0.55353,  4: 6.05776,  5: 4.36879,  6: 8.28904,  7: 3.58258,  8: 3.40837,  9: 0.17347,
                10: 4.32725, 11: 3.19469, 12:-3.97311, 13:-0.59487, 14: 6.84520, 15:-3.21459, 16:-2.36991, 17:-1.21549, 18: 0.15174,
                19:-1.15498, 20:-2.14684, 21: 0.65731
    42 |      |  1: 0.55811,  2: 5.55882,  3:-13.45599,  4:-4.73049,  5: 4.90452,  6:-3.20392,  7:-1.91605,  8: 0.67623,  9:-3.35081,
                10: 3.30343, 11:-3.16159, 12:-2.47813, 13:-3.83170, 14: 0.58094, 15:-7.27272, 16: 2.84564, 17: 3.51000, 18:-0.29417,
                19: 4.13537, 20: 3.17568, 21: 0.37338
    43 |      |  1:-3.47097,  2:-5.62970,  3: 1.26904,  4:-0.40299,  5:-0.29939,  6: 0.69815,  7:-0.17245,  8:-2.82640,  9: 0.22058,
                10:-0.66166, 11:-3.76658, 12:-2.11286, 13:-2.20875, 14: 1.23920, 15: 2.86125, 16: 0.94242, 17: 0.62838, 18:-0.32767,
                19:-1.78986, 20:-1.25579, 21: 0.32511
    44 |      |  1: 0.38157,  2: 3.15269,  3:-2.44634,  4:-0.29265,  5:-8.24762,  6: 7.21617,  7:-6.23159,  8:-3.99157,  9:-1.58321,
                10:-11.16064, 11:-1.16886, 12:-6.98575, 13:-8.03575, 14:-1.71835, 15:-4.51373, 16: 3.02001, 17: 1.62139, 18: 0.26397,
                19: 3.10889, 20:-0.54935, 21:-0.66259
    45 |      |  1:-0.67167,  2:-0.98457,  3:-0.93224,  4:-0.28713,  5:-0.72659,  6: 0.58414,  7:-0.30126,  8:-0.97270,  9:-0.69329,
                10:-0.05434, 11: 0.30192, 12: 0.48868, 13: 0.67653, 14:-0.47616, 15:-0.45438, 16: 0.21958, 17:-0.95755, 18:-0.75045,
                19:-0.70804, 20: 0.24298, 21: 0.67498
    46 |      |  1:-0.98280,  2:-13.94671,  3:-18.62819,  4: 0.17637,  5:-5.21938,  6:-0.00843,  7: 2.00836,  8:-7.77638,  9:-0.43597,
                10:-8.16563, 11:-15.81858, 12:-9.53183, 13:19.41466, 14:14.78967, 15: 6.55275, 16:-0.48092, 17:-12.10022, 18: 0.74775,
                19:-6.80959, 20: 9.55750, 21:-0.56648
    47 |      |  1:-0.80705,  2:-0.67273,  3:-0.66387,  4:-0.66978,  5:-0.47221,  6: 0.59396,  7:-0.78322,  8:-0.55632,  9: 0.75921,
                10:-0.56845, 11: 0.27959, 12: 0.21502, 13: 0.58023, 14:-0.33780, 15: 0.12984, 16:-0.50542, 17:-0.92376, 18: 0.61399,
                19:-0.19549, 20:-0.11878, 21: 0.51269
    48 |      |  1: 0.07091,  2: 0.77610,  3: 0.41050,  4:-0.74480,  5: 0.26377,  6: 1.14468,  7: 0.53091,  8: 1.03012,  9: 0.51565,
                10: 0.25417, 11: 0.88304, 12: 0.19627, 13:-0.05065, 14: 0.60553, 15:-0.15622, 16: 0.38109, 17: 0.77702, 18: 0.40825,
                19:-0.49151, 20: 0.76326, 21:-0.93381
    49 |      |  1: 0.74298,  2:-0.35168,  3:-1.27401,  4: 0.21032,  5: 0.53032,  6:-1.25676,  7: 1.53585,  8:-0.65519,  9:-0.02541,
                10:-0.63848, 11: 0.22688, 12:-3.31353, 13: 1.02318, 14:-0.01485, 15: 0.69049, 16:-3.45730, 17: 1.13957, 18:-0.87341,
                19: 0.06710, 20:-1.94194, 21:-0.17570
    50 |      |  1: 7.59288,  2: 1.86576,  3:-2.46876,  4:17.20779,  5: 2.09840,  6:-0.73005,  7:-6.48557,  8:-10.38036,  9:-3.22668,
                10: 6.34168, 11: 1.56338, 12:-1.17595, 13:10.36329, 14: 2.21177, 15:-18.93900, 16:11.21298, 17: 5.87622, 18:-0.86810,
                19: 3.86945, 20:12.36233, 21: 0.23506
    51 |      |  1: 0.72038,  2:-0.18805,  3:-0.06632,  4:-0.04898,  5: 4.54869,  6:-0.81151,  7:-1.61577,  8: 1.45501,  9:-1.15055,
                10:-1.27090, 11: 0.22110, 12: 3.28118, 13: 1.57029, 14: 0.14393, 15: 2.76182, 16: 0.68415, 17: 0.75468, 18: 0.82913,
                19: 0.75983, 20:-0.45873, 21: 0.34962
    52 |      |  1: 4.88002,  2:-6.94205,  3: 1.51046,  4: 3.84638,  5:-7.16486,  6:-0.03396,  7: 2.97376,  8: 0.38648,  9: 4.11478,
                10: 4.25223, 11:-0.45686, 12: 1.81669, 13: 3.98798, 14:15.17980, 15: 1.00005, 16: 2.85748, 17:-0.28089, 18: 0.86052,
                19: 4.48600, 20: 8.98332, 21: 0.88527
    53 |      |  1:-5.56331,  2: 0.97569,  3:-0.70827,  4: 1.49006,  5:11.75178,  6: 5.82935,  7: 1.46613,  8:-5.66795,  9:-0.14746,
                10:-3.13658, 11:-3.07985, 12: 9.19525, 13:-2.87153, 14:-0.00436, 15: 1.94266, 16: 4.78239, 17: 4.46748, 18:-0.77493,
                19: 6.68104, 20:-1.81748, 21: 0.71449
    54 |      |  1: 0.28294,  2:-6.42154,  3:-1.27832,  4:-2.68816,  5:-1.63437,  6:-2.53461,  7:-4.98680,  8: 2.40878,  9: 0.15549,
                10:-1.62179, 11:-0.72120, 12:-3.00876, 13:-1.78042, 14:-2.56016, 15:-3.05625, 16:-1.03817, 17: 0.47720, 18: 0.91670,
                19: 1.78113, 20: 1.35610, 21:-0.22969
    55 |      |  1:-2.35702,  2:-5.49392,  3: 1.28424,  4: 0.67834,  5: 2.13256,  6: 2.11144,  7:-1.53699,  8: 3.95385,  9: 1.79789,
                10:-1.44789, 11:-1.44895, 12:-0.95670, 13:-3.18961, 14: 6.33564, 15:-0.22807, 16: 0.64775, 17: 1.11472, 18: 0.99712,
                19:-0.83368, 20: 4.65399, 21:-0.14516
    56 |      |  1: 1.28165,  2: 4.07104,  3: 0.49167,  4: 0.58538,  5:-5.34945,  6: 0.61024,  7:-0.14979,  8: 2.54940,  9:-0.43669,
                10: 0.25203, 11: 0.18386, 12:-2.58768, 13: 3.12760, 14: 0.23948, 15: 4.49734, 16: 0.73556, 17:-1.50699, 18:-0.12501,
                19: 0.10001, 20: 3.24869, 21: 0.33220
    57 |      |  1:12.56714,  2:-10.12440,  3:-16.51936,  4: 1.19979,  5:-7.05334,  6:-6.72596,  7:-13.80579,  8:15.61424,  9: 2.14341,
                10:-26.34466, 11:-13.57206, 12:20.94550, 13:-26.70229, 14:12.85565, 15: 5.48959, 16:-14.12855, 17: 2.94207, 18:-0.78640,
                19:20.33745, 20:-4.76982, 21:-0.23966
    58 |      |  1:-2.63387,  2: 9.48540,  3:-2.32353,  4: 0.49941,  5: 3.33593,  6:10.57106,  7:-10.26408,  8:-13.18447,  9: 1.69476,
                10:-7.89600, 11: 3.50180, 12:20.37647, 13:-12.90572, 14:-15.35653, 15: 3.98858, 16:30.34453, 17: 8.95323, 18:-0.28430,
                19:-6.65706, 20:-12.61788, 21: 0.25171
    59 |      |  1:-1.95892,  2: 0.96516,  3:-0.64115,  4: 3.74997,  5: 2.41567,  6: 7.29787,  7:-4.76631,  8:-1.39474,  9: 0.73908,
                10: 5.89798, 11: 5.04706, 12:11.83868, 13: 0.68646, 14: 3.07756, 15:-8.04124, 16:-1.81493, 17:-1.44492, 18:-0.90146,
                19:-5.17111, 20: 3.52060, 21:-0.52945
    60 |      |  1: 0.26169,  2: 7.98304,  3:-1.15491,  4:-5.07577,  5: 2.42047,  6:-3.00945,  7:-3.84061,  8: 0.05232,  9: 1.11711,
                10:-7.36055, 11: 1.78248, 12:-1.68155, 13: 6.14180, 14: 2.52497, 15:-4.58018, 16: 3.69311, 17:12.53325, 18: 0.49555,
                19:14.77593, 20:-3.24687, 21: 0.55767
    61 |      |  1: 1.19114,  2: 0.59436,  3: 0.49047,  4: 0.31420,  5: 0.14165,  6: 0.24084,  7: 0.96383,  8: 0.49202,  9: 0.48392,
                10: 1.41682, 11: 0.44931, 12:-0.59372, 13: 0.64125, 14: 1.31763, 15: 0.55941, 16: 0.04161, 17:-1.15848, 18: 0.11273,
                19: 1.64513, 20: 0.61427, 21: 0.47135
    62 |      |  1: 2.67692,  2:14.22459,  3:-4.25932,  4: 3.04229,  5: 9.12424,  6:-2.01530,  7:13.37921,  8:-5.52383,  9:-0.84565,
                10:-1.12783, 11:-1.67740, 12: 4.67148, 13: 7.03789, 14: 5.12319, 15: 5.12836, 16:-1.60011, 17: 3.01716, 18: 0.99945,
                19:-4.30783, 20: 1.28205, 21:-0.74595
    63 |      |  1: 3.71881,  2: 7.85229,  3: 1.91089,  4:-2.10254,  5:-2.15379,  6:-2.70606,  7:-2.81660,  8:-1.79832,  9: 1.27751,
                10: 3.53616, 11: 0.24157, 12:-6.34049, 13:-6.64193, 14:-8.36287, 15:-2.39034, 16:-1.15217, 17:-0.35794, 18: 0.72823,
                19:-9.51055, 20: 4.59971, 21:-0.42230
    64 |      |  1: 1.31112,  2:-2.37992,  3:-0.80603,  4:-2.60524,  5:-0.82244,  6:-1.24835,  7:-0.09524,  8:-0.65703,  9:-0.03682,
                10:-2.88196, 11:-2.42502, 12:-2.36740, 13:-2.26521, 14: 1.49141, 15: 3.23754, 16: 1.63120, 17: 0.22010, 18: 0.22252,
                19: 0.55632, 20:-2.67676, 21:-0.96163
    65 |      |  1:-5.22873,  2:-2.98856,  3:-1.56862,  4: 5.19733,  5: 0.22591,  6: 1.33065,  7: 6.03228,  8:-1.96880,  9: 0.89319,
                10: 2.46613, 11: 1.33934, 12:-1.04130, 13: 3.76999, 14: 4.65361, 15:-4.84050, 16: 4.85144, 17:-3.68107, 18: 0.03552,
                19: 6.10086, 20: 0.00036, 21: 0.68688
    66 |      |  1:-2.23212,  2: 1.83548,  3:-1.90126,  4: 1.78685,  5: 6.75416,  6:-4.50140,  7: 0.60258,  8: 1.29778,  9:-1.01578,
                10:-0.30138, 11: 1.86917, 12: 7.01650, 13:-6.50056, 14: 3.30008, 15: 4.59677, 16:-1.15716, 17:-0.61112, 18: 0.09039,
                19:-2.10713, 20: 2.52790, 21: 0.02775
    67 |      |  1: 0.85694,  2:-1.26942,  3:-0.47957,  4:-0.10427,  5:-0.75859,  6:-0.27278,  7:-0.64127,  8:-1.48800,  9:-0.79663,
                10:-0.86772, 11:-0.03626, 12:-0.33358, 13:-0.05651, 14:-2.77114, 15: 1.20537, 16: 0.19083, 17:-0.94177, 18: 0.20287,
                19:-1.02132, 20: 0.42485, 21: 0.79709
    68 |      |  1:-0.36211,  2:-4.02198,  3: 4.65737,  4: 2.81202,  5: 5.85307,  6:-2.41872,  7: 2.10641,  8: 1.55778,  9:-0.66602,
                10:-1.96674, 11: 1.50988, 12: 2.94704, 13: 2.69119, 14: 1.10047, 15: 0.85133, 16: 2.23806, 17: 3.80729, 18: 0.66836,
                19:-0.48565, 20: 3.32552, 21:-0.37088
    69 |      |  1:-4.63518,  2: 6.03920,  3: 3.54510,  4: 1.16818,  5:-0.93297,  6:-6.21252,  7: 5.33180,  8:-2.11577,  9:-1.53334,
                10:-5.19818, 11: 0.13245, 12:-8.45083, 13:-5.79546, 14: 5.95442, 15:-4.51962, 16: 2.08272, 17: 2.80878, 18:-0.84344,
                19: 1.77100, 20:-7.24566, 21:-0.01801
    70 |      |  1:-1.79900,  2: 4.15807,  3: 3.24689,  4:-1.33996,  5: 5.68255,  6: 0.78610,  7: 2.72511,  8: 0.55474,  9: 0.12943,
                10: 0.07041, 11: 4.74014, 12: 3.34927, 13:-5.17767, 14: 4.35417, 15: 5.97289, 16: 0.54561, 17: 0.90994, 18:-0.05683,
                19:-1.87309, 20: 1.78362, 21: 0.40769
    71 |      |  1: 6.00188,  2: 1.38482,  3:-0.89674,  4:-4.27993,  5:-0.40802,  6:-6.90069,  7:-0.90114,  8: 3.74958,  9:-0.16471,
                10:-0.23587, 11: 1.15688, 12:-1.15836, 13:-8.60529, 14: 3.43711, 15: 0.44528, 16:-4.74922, 17:-0.42071, 18:-0.14122,
                19:-0.37419, 20:-3.65012, 21:-0.11634
    72 |      | 22:-0.61906, 23:-0.56302, 24: 8.18490, 25: 7.99744, 26:-7.32636, 27:-0.09849, 28:13.50330, 29:-0.54495, 30:-13.70101,
                31: 1.72839, 32:-1.01454, 33: 0.83728, 34: 2.89344, 35:-2.61219, 36:-1.73970, 37: 2.54629, 38:12.74958, 39:-4.01512,
                40: 5.08870, 41:16.17504, 42: 1.96915, 43: 0.16494, 44:-13.17949, 45:-0.58120, 46:-3.94269, 47: 0.43625, 48:-1.00331,
                49:-0.22669, 50: 0.94232, 51:-2.39821, 52:-9.87536, 53:-9.23113, 54:-6.73774, 55:-4.42508, 56:16.20440, 57:-0.55349,
                58: 0.00015, 59:-7.67842, 60:-8.91548, 61:-0.98842, 62:13.42180, 63:16.80399, 64: 1.35116, 65:-12.04253, 66:-5.75922,
                67:-1.08573, 68:-8.75413, 69: 1.95172, 70:-0.40029, 71:11.15635
    73 |      | 22: 1.37852, 23: 2.40481, 24: 7.57471, 25:-3.19962, 26: 6.03949, 27: 2.81281, 28:11.28383, 29: 5.51433, 30:11.62642,
                31:-1.62882, 32: 1.11997, 33: 4.75111, 34: 2.17069, 35:11.83798, 36: 3.02350, 37:-9.18554, 38:-15.42872, 39:-1.32372,
                40: 0.89408, 41:-3.23278, 42: 8.96385, 43:-0.32109, 44:-4.64007, 45:-0.89946, 46: 6.16389, 47:-0.97304, 48: 2.84016,
                49:-4.17815, 50:-3.10823, 51: 0.51846, 52:-0.12040, 53: 5.46350, 54: 4.75494, 55: 8.98470, 56: 8.89709, 57:-7.42681,
                58:-1.86541, 59:-4.50211, 60: 6.36883, 61: 3.63753, 62:-17.99917, 63:-6.70882, 64: 2.81924, 65: 5.60375, 66:-14.74842,
                67: 0.34671, 68:-4.24398, 69:-4.09741, 70:-7.94847, 71:-3.14744
    74 |      | 22:-3.49540, 23: 1.63979, 24:-15.57459, 25:-12.79458, 26:-3.68654, 27:-4.17372, 28:-9.07726, 29:-3.95758, 30:-4.42898,
                31: 0.73477, 32: 0.34026, 33:-11.09687, 34:-6.42544, 35:-3.20553, 36:-7.44377, 37:16.09573, 38: 4.44503, 39:-8.29793,
                40:-3.64315, 41: 8.50728, 42: 5.87474, 43: 2.17172, 44: 8.92050, 45: 0.58290, 46: 5.54731, 47:-0.11652, 48:-2.82071,
                49: 1.50889, 50:-1.96023, 51:-6.24065, 52: 4.06910, 53:11.52669, 54:-2.37016, 55:-4.10652, 56:11.36467, 57: 6.02702,
                58: 2.15504, 59: 0.16355, 60:-10.29572, 61:-2.87910, 62:13.59533, 63:-1.79953, 64:-1.46437, 65: 6.61900, 66: 2.07239,
                67: 2.07023, 68: 3.14873, 69: 2.70993, 70: 0.79535, 71:-2.23322
    75 |      | 22: 0.80584, 23:-0.14256, 24: 4.05624, 25: 9.08085, 26:-4.25834, 27: 1.32975, 28:-1.58326, 29:-5.89371, 30:14.85107,
                31: 5.29715, 32: 1.12581, 33: 2.43258, 34:-0.29182, 35:-10.38173, 36: 0.55233, 37: 5.62715, 38:-14.88453, 39:-0.71914,
                40: 7.45124, 41:-17.33136, 42:-5.89351, 43: 1.91136, 44:-6.76480, 45:-0.15168, 46: 1.81900, 47: 0.32034, 48: 0.52430,
                49: 1.98861, 50: 3.13443, 51: 2.11157, 52: 3.87062, 53:-16.97999, 54: 5.04076, 55:12.84727, 56: 9.09379, 57: 6.12861,
                58:-4.17142, 59: 5.33560, 60: 3.30235, 61: 0.31448, 62:-5.45896, 63:19.02209, 64:-1.64162, 65: 0.62839, 66: 2.79201,
                67:-1.05177, 68:-5.79908, 69: 0.76840, 70: 1.83848, 71: 1.38081
    76 |      | 22:-3.23195, 23: 0.73595, 24: 7.34462, 25: 7.63768, 26:-2.39624, 27:-4.16071, 28:10.31042, 29: 0.10871, 30:10.23314,
                31:-3.50182, 32:-1.21089, 33:-2.25939, 34:-2.63230, 35:-6.09843, 36:-0.60761, 37: 3.48460, 38:15.41169, 39:-0.24820,
                40:-4.86058, 41: 3.83882, 42: 0.93756, 43:-3.33562, 44:15.38015, 45: 1.19954, 46: 0.02120, 47: 0.21295, 48:-1.89297,
                49: 3.19975, 50: 3.39156, 51:-1.69625, 52:-3.11176, 53: 0.62037, 54: 0.41951, 55:10.52151, 56:-8.74342, 57:-0.41975,
                58: 2.93732, 59:10.80392, 60: 0.97623, 61:-2.68373, 62: 3.93363, 63:-10.74606, 64:-2.68932, 65:-8.36594, 66:-4.36142,
                67:-3.60262, 68: 2.81665, 69:11.34720, 70:-4.30915, 71:-2.09339
    77 |      | 22: 2.10446, 23:-0.14492, 24:15.79592, 25: 0.52248, 26: 8.24220, 27: 2.00657, 28:-4.33405, 29:-1.32595, 30:-7.19713,
                31: 7.12059, 32:-0.20479, 33: 1.72693, 34: 7.16974, 35: 2.50792, 36: 1.59690, 37:-0.79972, 38: 9.81550, 39:-4.68101,
                40:-9.40465, 41:-7.32039, 42:13.99147, 43:-0.31108, 44: 2.31107, 45: 0.48085, 46: 1.16940, 47: 0.65087, 48: 1.48619,
                49:-1.14057, 50:-5.43672, 51: 3.39975, 52:-3.44912, 53:-10.84164, 54:-1.41278, 55:-9.01597, 56:-4.45236, 57:-0.08043,
                58:-1.65198, 59:-5.06694, 60: 7.73872, 61: 1.70233, 62: 3.10322, 63:-15.03819, 64: 5.31623, 65:-1.17296, 66:-1.43695,
                67: 0.23680, 68:-8.99123, 69:-2.13837, 70:-1.01315, 71:-7.69942
-------|------|---------------------------------------------------------------------------------------------------------------------


layer definition section :

layer | unitNo.
------|----------------------------------------------------------------------------------------------------------------------------
    2 | 22, 23, 24, 25, 26, 27, 28, 29, 30, 31, 32, 33, 34, 35, 36, 37, 38, 39, 40, 41, 42, 43, 44, 45, 46, 47, 48, 49, 50, 51, 52,
        53, 54, 55, 56, 57, 58, 59, 60, 61, 62, 63, 64, 65, 66, 67, 68, 69, 70, 71
    3 | 72, 73, 74, 75, 76, 77
------|----------------------------------------------------------------------------------------------------------------------------
