SNNS network definition file V1.4-3D
generated at Mon Mar 19 22:21:19 2007

network name : Proyecto IA
source files :
no. of units : 77
no. of connections : 1350
no. of unit types : 0
no. of site types : 0


learning function : Std_Backpropagation
update function   : Topological_Order


unit default section :

act      | bias     | st | subnet | layer | act func     | out func
---------|----------|----|--------|-------|--------------|-------------
 0.00000 |  0.00000 | h  |      0 |     1 | Act_Logistic | Out_Identity 
---------|----------|----|--------|-------|--------------|-------------


unit definition section :

no. | typeName | unitName | act      | bias     | st | position | act func | out func | sites
----|----------|----------|----------|----------|----|----------|----------|----------|-------
  1 |          | noName   |  4.00000 |  0.88607 | i  |  1, 1, 1 |||
  2 |          | noName   |  4.00000 |  0.36569 | i  |  1, 2, 1 |||
  3 |          | noName   |  7.00000 | -0.96075 | i  |  1, 3, 1 |||
  4 |          | noName   |  7.00000 | -0.67376 | i  |  1, 4, 1 |||
  5 |          | noName   |  3.00000 |  0.97149 | i  |  1, 5, 1 |||
  6 |          | noName   |  7.00000 |  0.40707 | i  |  1, 6, 1 |||
  7 |          | noName   |  9.00000 |  0.45773 | i  |  1, 7, 1 |||
  8 |          | noName   |  3.00000 | -0.80478 | i  |  1, 8, 1 |||
  9 |          | noName   |  0.00000 | -0.38099 | i  |  1, 9, 1 |||
 10 |          | noName   |  0.00000 | -0.63649 | i  |  1,10, 1 |||
 11 |          | noName   |  0.00000 | -0.72296 | i  |  1,11, 1 |||
 12 |          | noName   |  6.00000 | -0.52325 | i  |  1,12, 1 |||
 13 |          | noName   |  6.00000 | -0.73455 | i  |  1,13, 1 |||
 14 |          | noName   |  7.00000 |  0.92296 | i  |  1,14, 1 |||
 15 |          | noName   |  9.00000 | -0.74477 | i  |  1,15, 1 |||
 16 |          | noName   |  1.00000 | -0.91130 | i  |  1,16, 1 |||
 17 |          | noName   |  3.00000 |  0.82462 | i  |  1,17, 1 |||
 18 |          | noName   |  0.00000 | -0.89322 | i  |  1,18, 1 |||
 19 |          | noName   | 11.00000 |  0.09909 | i  |  1,19, 1 |||
 20 |          | noName   |  7.00000 |  0.37472 | i  |  1,20, 1 |||
 21 |          | noName   |  0.00000 | -0.89246 | i  |  1,21, 1 |||
 22 |          | noName   |  1.00000 | -4.63164 | h  |  4, 2, 1 |||
 23 |          | noName   |  1.00000 | -0.39490 | h  |  5, 2, 1 |||
 24 |          | noName   |  1.00000 | -3.17514 | h  |  6, 2, 1 |||
 25 |          | noName   |  1.00000 | -3.53172 | h  |  7, 2, 1 |||
 26 |          | noName   |  0.00000 | -1.95366 | h  |  8, 2, 1 |||
 27 |          | noName   |  0.00000 | -2.35414 | h  |  4, 3, 1 |||
 28 |          | noName   |  0.00000 | -4.93029 | h  |  5, 3, 1 |||
 29 |          | noName   |  0.00000 | -2.13029 | h  |  6, 3, 1 |||
 30 |          | noName   |  0.00000 | -4.20472 | h  |  7, 3, 1 |||
 31 |          | noName   |  1.00000 | -4.54861 | h  |  8, 3, 1 |||
 32 |          | noName   |  0.00000 | -5.57483 | h  |  4, 4, 1 |||
 33 |          | noName   |  0.00000 | -2.81273 | h  |  5, 4, 1 |||
 34 |          | noName   |  1.00000 | -3.33379 | h  |  6, 4, 1 |||
 35 |          | noName   |  1.00000 | -8.41539 | h  |  7, 4, 1 |||
 36 |          | noName   |  1.00000 | -5.03720 | h  |  8, 4, 1 |||
 37 |          | noName   |  0.00000 | -1.19258 | h  |  4, 5, 1 |||
 38 |          | noName   |  1.00000 | -13.46276 | h  |  5, 5, 1 |||
 39 |          | noName   |  0.00000 |  4.02729 | h  |  6, 5, 1 |||
 40 |          | noName   |  0.99998 | -1.98217 | h  |  7, 5, 1 |||
 41 |          | noName   |  0.00000 |  3.29451 | h  |  8, 5, 1 |||
 42 |          | noName   |  0.00000 | -2.76158 | h  |  4, 6, 1 |||
 43 |          | noName   |  1.00000 | -2.39946 | h  |  5, 6, 1 |||
 44 |          | noName   |  0.00000 |  2.41593 | h  |  6, 6, 1 |||
 45 |          | noName   |  0.00000 | -3.54291 | h  |  7, 6, 1 |||
 46 |          | noName   |  0.00000 | -4.11491 | h  |  8, 6, 1 |||
 47 |          | noName   |  1.00000 | -3.40462 | h  |  4, 7, 1 |||
 48 |          | noName   |  0.00000 |  0.26325 | h  |  5, 7, 1 |||
 49 |          | noName   |  0.99988 |  1.03735 | h  |  6, 7, 1 |||
 50 |          | noName   |  0.00000 | -4.61958 | h  |  7, 7, 1 |||
 51 |          | noName   |  0.00000 | -4.34537 | h  |  8, 7, 1 |||
 52 |          | noName   |  1.00000 | -3.86619 | h  |  4, 8, 1 |||
 53 |          | noName   |  1.00000 | -3.31829 | h  |  5, 8, 1 |||
 54 |          | noName   |  0.00000 |  2.84658 | h  |  6, 8, 1 |||
 55 |          | noName   |  1.00000 | -2.21634 | h  |  7, 8, 1 |||
 56 |          | noName   |  1.00000 | -4.45474 | h  |  8, 8, 1 |||
 57 |          | noName   |  1.00000 | -2.87270 | h  |  4, 9, 1 |||
 58 |          | noName   |  1.00000 | -3.57839 | h  |  5, 9, 1 |||
 59 |          | noName   |  1.00000 | -4.57590 | h  |  6, 9, 1 |||
 60 |          | noName   |  1.00000 | -8.35588 | h  |  7, 9, 1 |||
 61 |          | noName   |  0.00000 | -1.13574 | h  |  8, 9, 1 |||
 62 |          | noName   |  0.00000 | -3.65716 | h  |  4,10, 1 |||
 63 |          | noName   |  0.00000 | -1.46936 | h  |  5,10, 1 |||
 64 |          | noName   |  1.00000 | -3.96025 | h  |  6,10, 1 |||
 65 |          | noName   |  1.00000 | -3.54845 | h  |  7,10, 1 |||
 66 |          | noName   |  0.00000 | -4.00880 | h  |  8,10, 1 |||
 67 |          | noName   |  0.00000 | -1.49043 | h  |  4,11, 1 |||
 68 |          | noName   |  0.00000 |  0.45499 | h  |  5,11, 1 |||
 69 |          | noName   |  1.00000 | -3.01065 | h  |  6,11, 1 |||
 70 |          | noName   |  1.00000 | -3.24966 | h  |  7,11, 1 |||
 71 |          | noName   |  0.00000 | -4.35562 | h  |  8,11, 1 |||
 72 |          | noName   |  0.00043 |  0.01771 | o  | 10, 4, 1 |||
 73 |          | noName   |  0.99590 |  0.77467 | o  | 10, 5, 1 |||
 74 |          | noName   |  0.99929 | -0.17619 | o  | 10, 6, 1 |||
 75 |          | noName   |  0.01394 | -3.20245 | o  | 10, 7, 1 |||
 76 |          | noName   |  0.96887 |  3.99753 | o  | 10, 8, 1 |||
 77 |          | noName   |  0.10526 | -2.74376 | o  | 10, 9, 1 |||
----|----------|----------|----------|----------|----|----------|----------|----------|-------


connection definition section :

target | site | source:weight
-------|------|---------------------------------------------------------------------------------------------------------------------
    22 |      | 21:-0.89887, 20:-4.22134, 19: 5.29963, 18: 0.66178, 17:-1.55295, 16:-1.33591, 15: 2.52124, 14: 2.51056, 13: 1.42150,
                12: 3.18278, 11: 1.78225, 10:-4.53587,  9:-0.27764,  8: 1.45756,  7: 5.47713,  6: 1.94537,  5: 2.16210,  4: 0.87342,
                 3: 0.98379,  2:-2.74365,  1:-2.54674
    23 |      | 21: 0.89767, 20: 3.97764, 19:-0.91843, 18:-0.61827, 17: 0.90605, 16: 0.63933, 15: 1.39572, 14: 3.07603, 13:-2.49045,
                12: 1.42356, 11:-0.59214, 10: 1.60845,  9:-0.01826,  8: 0.56152,  7: 0.33406,  6:-3.60725,  5: 3.48561,  4:-1.58013,
                 3: 1.54447,  2: 0.01795,  1: 1.68501
    24 |      | 21:-0.14785, 20: 0.52514, 19: 0.72352, 18:-0.45848, 17: 0.67700, 16: 0.29018, 15: 0.22907, 14: 2.21312, 13:-0.13925,
                12: 0.27370, 11: 0.35560, 10: 0.80265,  9: 0.05989,  8: 0.93064,  7:-0.59154,  6:-0.76831,  5: 0.19613,  4:-0.06260,
                 3: 1.25200,  2:-0.86159,  1: 0.76594
    25 |      | 21:-0.80259, 20:-2.42108, 19: 2.85777, 18: 0.97133, 17: 1.78669, 16: 0.82670, 15: 3.00657, 14:-1.04246, 13:-0.00873,
                12:-0.27804, 11:-0.05256, 10: 1.55210,  9:-0.34160,  8: 0.25223,  7: 2.37340,  6: 0.45648,  5: 1.67614,  4: 0.41398,
                 3: 1.97588,  2: 1.03776,  1: 0.32543
    26 |      | 21: 0.90740, 20: 0.68754, 19:-4.14867, 18:-0.02318, 17: 4.59673, 16:-8.08720, 15:-1.39738, 14: 7.28191, 13: 2.58811,
                12: 0.58173, 11:-0.35224, 10: 0.60943,  9:-0.82999,  8:-1.92724,  7:-4.65612,  6:-2.86332,  5:-2.90716,  4:-7.90577,
                 3:-1.32376,  2: 2.85322,  1:-0.00306
    27 |      | 21: 0.67077, 20:-0.85318, 19: 4.38629, 18:-0.85615, 17: 9.33077, 16: 8.05849, 15:-5.18845, 14:-1.12301, 13:-6.42866,
                12: 8.18295, 11:-9.09870, 10: 8.89519,  9: 0.25182,  8:25.01082,  7:-8.14816,  6: 1.94133,  5: 0.96106,  4:-7.91142,
                 3: 8.20409,  2:-19.35531,  1:-15.35430
    28 |      | 21:-0.70925, 20: 6.07403, 19: 1.72724, 18: 0.11405, 17:-1.85326, 16: 1.42248, 15: 0.30741, 14:-7.61279, 13: 3.13844,
                12: 0.08845, 11: 1.83598, 10:-3.02801,  9: 0.53023,  8:-0.12111,  7:-8.70072,  6:-3.92596,  5: 0.29027,  4:-4.20720,
                 3:-0.14356,  2:-6.75695,  1: 0.29755
    29 |      | 21: 0.00288, 20:-1.60016, 19: 4.85241, 18:-0.40305, 17: 9.97986, 16: 9.38205, 15:-2.56649, 14:-3.08267, 13:-1.96015,
                12:-2.85408, 11:-1.22515, 10: 0.04291,  9:-0.20571,  8: 7.40730,  7:-0.99521,  6: 2.58382,  5:-13.22940,  4:-23.38150,
                 3: 8.56403,  2:-5.53784,  1:-3.69847
    30 |      | 21: 0.11195, 20: 0.42115, 19:-1.54178, 18:-0.31356, 17:-4.17390, 16:-1.47751, 15:-1.27849, 14:-2.20054, 13: 0.40679,
                12:-1.36982, 11:-0.13846, 10:-0.83159,  9: 0.59159,  8:-3.19096,  7: 2.47467,  6:-4.78212,  5: 2.56594,  4:-4.45568,
                 3:-6.19931,  2: 1.17830,  1: 2.89635
    31 |      | 21:-0.09804, 20: 0.09819, 19:-0.86203, 18:-0.58588, 17:13.52895, 16:-4.23069, 15:12.14238, 14: 5.64201, 13:-6.55037,
                12:-1.35185, 11: 3.88506, 10:-6.11200,  9: 0.10720,  8: 0.56436,  7: 8.11335,  6: 0.13053,  5: 5.60589,  4:-5.76193,
                 3:13.43036,  2:-0.71939,  1: 1.18360
    32 |      | 21: 0.88765, 20: 6.66512, 19: 2.46890, 18: 0.79789, 17: 2.74181, 16:-1.11943, 15:-10.20789, 14: 6.07968, 13:-1.70057,
                12:-3.26196, 11: 8.93851, 10:-2.67168,  9: 0.21072,  8:-2.36486,  7:-11.09985,  6:-5.40541,  5:-8.15412,  4:-2.07541,
                 3: 6.40797,  2:-1.11026,  1:-0.29818
    33 |      | 21: 0.99704, 20: 0.64468, 19:-3.37282, 18:-0.13493, 17: 0.97309, 16: 0.08418, 15: 0.71778, 14: 0.16058, 13:-0.74331,
                12:-2.51564, 11:-1.31455, 10: 0.07578,  9: 0.71759,  8:-0.46131,  7:-2.57609,  6: 0.54790,  5:-3.59954,  4: 1.22419,
                 3:-4.68169,  2: 0.09710,  1: 1.05920
    34 |      | 21: 0.13748, 20: 8.26189, 19: 3.54758, 18:-0.91822, 17:-5.64912, 16:-22.67875, 15:-1.07809, 14: 0.25201, 13: 9.07098,
                12:-8.46221, 11:-11.90471, 10:-7.48641,  9:-0.45815,  8: 7.31878,  7:16.08821,  6:-10.34187,  5:-3.54703,  4:-1.28793,
                 3:-9.44159,  2:-2.94840,  1:-2.48517
    35 |      | 21:-0.89495, 20:-1.19380, 19: 2.41901, 18: 0.54225, 17: 3.25837, 16: 1.21434, 15: 4.78546, 14: 9.95539, 13:-3.81923,
                12:-3.04352, 11: 5.16890, 10:-3.13379,  9: 1.05763,  8: 1.11023,  7:-2.63101,  6: 2.89122,  5: 7.00244,  4: 0.67525,
                 3: 0.08391,  2:-7.14032,  1: 0.54800
    36 |      | 21: 0.07179, 20: 4.29121, 19:-9.70671, 18: 0.13648, 17: 0.82795, 16: 4.57767, 15:11.27179, 14:-8.94483, 13:10.40731,
                12:-4.16314, 11:11.01009, 10:-4.53163,  9:-0.00933,  8:-6.57205,  7:-2.23459,  6: 2.22595,  5:-2.54946,  4: 2.51331,
                 3: 6.45385,  2: 8.48650,  1: 4.37998
    37 |      | 21: 0.51375, 20: 3.35200, 19:-13.08410, 18: 0.53511, 17: 3.08242, 16: 3.15643, 15:-8.70761, 14: 6.14684, 13:-8.61530,
                12:13.45419, 11:12.37669, 10: 0.68524,  9: 0.37245,  8: 5.81293,  7:-5.69346,  6: 1.73780,  5:-10.74765,  4: 0.00616,
                 3: 6.20784,  2:-7.90081,  1:14.66457
    38 |      | 21:-0.25572, 20:-0.90318, 19: 5.52579, 18: 0.31885, 17:-0.07725, 16:-0.29824, 15: 1.97648, 14: 2.08748, 13: 0.81886,
                12:-1.42347, 11: 5.30874, 10: 5.18761,  9: 0.36278,  8: 1.14721,  7: 2.49464,  6: 6.80837,  5: 2.21475,  4: 4.58899,
                 3:-6.77677,  2:-5.04561,  1:-2.34684
    39 |      | 21: 0.53300, 20: 1.59618, 19:-4.63815, 18:-0.53516, 17: 4.00800, 16: 2.32820, 15:-1.75291, 14:-4.08339, 13: 3.45740,
                12:-4.01524, 11:-4.80249, 10: 0.92825,  9:-0.39498,  8:-1.15676,  7: 1.44788,  6:-7.99595,  5:-5.79251,  4:-4.98241,
                 3: 4.15100,  2: 5.63506,  1: 0.65452
    40 |      | 21: 0.10801, 20: 1.09554, 19:-1.88809, 18:-0.13382, 17: 1.20964, 16: 3.68138, 15: 0.30818, 14:-3.32696, 13: 6.94825,
                12: 0.16814, 11: 1.49636, 10: 6.70865,  9:-0.93575,  8: 2.92074,  7:-3.88480,  6:-0.43873,  5: 6.68300,  4:-0.45294,
                 3:-1.86317,  2: 3.47507,  1: 1.97277
    41 |      | 21: 0.49975, 20:-12.40644, 19: 7.11129, 18:-0.02150, 17:-0.32764, 16:-1.86422, 15: 0.72518, 14:-3.98177, 13:-5.39794,
                12: 1.63072, 11:-3.62938, 10: 5.48838,  9:-0.12283,  8:-1.29983,  7: 1.05565,  6:-2.71511,  5:-0.15352,  4:-5.19483,
                 3:-1.68779,  2:-7.73669,  1:-0.83009
    42 |      | 21:-0.60184, 20: 0.17335, 19:-15.78735, 18: 0.79968, 17:-2.21979, 16:-1.18340, 15: 4.51821, 14:-2.15195, 13:-2.76504,
                12:-2.13728, 11:-4.41356, 10: 2.19406,  9:-3.03761,  8: 9.87512,  7: 4.63972,  6:-1.36734,  5:-0.77809,  4: 2.74135,
                 3: 0.38406,  2:-6.58296,  1:-2.35216
    43 |      | 21:-0.04959, 20: 1.01181, 19:-2.12424, 18: 0.16474, 17:-0.82014, 16: 1.47334, 15:-0.24956, 14: 0.56088, 13: 1.64172,
                12: 2.34360, 11:-2.34186, 10: 2.29271,  9:-0.55452,  8:-0.09049,  7:-2.41887,  6: 1.33857,  5: 3.10485,  4: 3.03202,
                 3: 1.87764,  2:-1.80354,  1:-1.64236
    44 |      | 21:-0.58088, 20: 2.66290, 19: 1.40948, 18: 0.74178, 17:-3.47914, 16: 0.28072, 15: 0.80086, 14:-2.26885, 13: 1.14868,
                12:-1.64374, 11: 0.53020, 10: 3.05497,  9: 0.34115,  8:-0.29706,  7: 1.02555,  6:-4.81293,  5:-4.86668,  4:-2.57668,
                 3:-3.41094,  2: 2.98884,  1: 5.60848
    45 |      | 21:-0.84103, 20:-0.55716, 19:-1.01352, 18:-0.29657, 17: 2.81496, 16:-1.24498, 15:-1.03649, 14:-4.12807, 13:-1.13170,
                12: 1.30580, 11:-1.10440, 10: 2.50540,  9: 0.66886,  8:-1.11652,  7: 1.40095,  6:-0.69069,  5:-0.54900,  4: 2.41906,
                 3:-0.51574,  2:-1.23713,  1: 1.35335
    46 |      | 21: 0.23437, 20:-5.18594, 19: 0.42094, 18:-0.52081, 17:-6.58373, 16:-0.39101, 15: 0.76018, 14: 9.89374, 13:-9.75142,
                12:-3.47253, 11:-0.17527, 10: 4.47108,  9: 0.67857,  8: 2.97806,  7: 0.76928,  6: 2.03697,  5:-12.30565,  4:-1.96122,
                 3:-3.36114,  2: 2.36565,  1:-1.92155
    47 |      | 21:-0.36492, 20: 1.94244, 19: 4.40969, 18: 0.26802, 17:-2.64968, 16: 5.49995, 15:-1.86825, 14:-0.06762, 13: 2.49390,
                12:-0.53957, 11: 3.96365, 10:-1.18016,  9:-0.18556,  8:-0.32344,  7:-0.11419,  6: 1.95010,  5: 5.18672,  4: 2.54603,
                 3:-0.63911,  2: 0.88942,  1: 0.84359
    48 |      | 21: 0.88353, 20:-4.64819, 19: 1.85460, 18:-0.63726, 17:-0.03423, 16: 3.88079, 15:-1.59267, 14:-0.27731, 13:-0.81729,
                12: 0.43721, 11:-4.09194, 10: 4.29526,  9:-0.52149,  8:-0.90989,  7:-4.08921,  6:-3.83632,  5:-1.48750,  4: 2.00259,
                 3:-0.11893,  2:-2.23093,  1:-1.51511
    49 |      | 21:-0.46680, 20:-3.16736, 19:10.51846, 18: 0.60044, 17: 6.29535, 16:15.33413, 15:-19.88725, 14: 4.23292, 13:-2.07458,
                12:-10.32055, 11:-1.62286, 10:-8.24904,  9:-1.16587,  8:-11.92735,  7:-6.29969,  6:-6.13265,  5:20.38478,  4: 5.61939,
                 3:10.38662,  2: 1.72002,  1:14.82298
    50 |      | 21: 0.86559, 20: 7.64659, 19: 2.05010, 18: 0.21486, 17: 1.88086, 16:-9.76896, 15:-4.22818, 14:-13.23722, 13:-4.12462,
                12: 4.33378, 11:-3.70517, 10:-5.37625,  9:-3.27058,  8:-1.64759,  7:-6.73125,  6:10.80826,  5: 3.37420,  4: 1.63570,
                 3:-7.19227,  2:-0.38893,  1: 1.37797
    51 |      | 21: 0.88279, 20: 0.98224, 19:-2.17289, 18:-0.92009, 17: 0.05504, 16:-0.08031, 15: 4.57514, 14:-0.70442, 13:-2.05503,
                12: 0.00658, 11: 0.95472, 10: 1.36643,  9: 0.20804,  8: 0.13863,  7: 4.42621,  6:-3.71175,  5:-4.50941,  4:-7.21510,
                 3:-3.47386,  2: 1.79423,  1: 2.58941
    52 |      | 21: 0.85780, 20:-1.78746, 19: 4.03373, 18: 0.79396, 17:-0.63537, 16:-0.51057, 15:-3.71976, 14:-0.64660, 13:-0.51973,
                12: 3.80587, 11: 2.72049, 10: 1.51095,  9:-0.88842,  8: 0.85299,  7: 4.73904,  6:-2.35987,  5: 3.04413,  4:-1.48515,
                 3: 4.08682,  2: 0.20116,  1: 1.34090
    53 |      | 21: 0.84861, 20: 0.70938, 19: 2.10526, 18: 0.78487, 17:-0.51562, 16:-0.95670, 15:-0.89649, 14: 1.26904, 13: 1.17583,
                12: 3.05760, 11: 5.07767, 10: 5.41917,  9: 0.69847,  8: 2.63149,  7:-2.45249,  6: 4.02144,  5: 2.85361,  4: 2.33721,
                 3:-1.30291,  2:-4.79233,  1:-0.91643
    54 |      | 21:-0.54384, 20:-6.80208, 19: 0.20617, 18: 0.73934, 17:-4.67466, 16: 1.85199, 15:-14.29434, 14:-3.70227, 13: 2.90873,
                12:-8.10482, 11: 7.31335, 10: 6.66699,  9:-0.34609,  8: 2.89579,  7:10.47019,  6: 4.93442,  5:-1.40991,  4:-5.55645,
                 3:12.94410,  2:-0.70792,  1:-6.43748
    55 |      | 21: 0.19756, 20: 1.76550, 19:-3.10017, 18:-0.25443, 17:-0.46665, 16:-5.61787, 15: 3.02862, 14: 6.33722, 13:-0.28125,
                12: 3.84861, 11:-1.61237, 10:-0.54643,  9: 0.14552,  8:-4.40293,  7: 6.11130,  6: 1.39823,  5: 0.28785,  4: 4.68018,
                 3:-1.58138,  2: 0.14360,  1: 5.05817
    56 |      | 21: 0.44078, 20: 1.27647, 19: 3.71446, 18: 0.70656, 17: 1.73843, 16: 3.22816, 15:-0.46810, 14: 0.02487, 13: 5.30897,
                12:-1.48329, 11:-0.27090, 10:-0.97800,  9:-0.80424,  8:-0.14867,  7: 1.74928,  6: 0.27822,  5: 4.10005,  4: 2.07972,
                 3:-2.12417,  2: 1.98232,  1:-0.83799
    57 |      | 21:-0.78992, 20: 1.03270, 19:-1.05152, 18:-0.98352, 17:-1.25999, 16: 3.97607, 15: 2.41570, 14: 2.19451, 13:-1.24896,
                12: 4.72790, 11: 0.33688, 10:-1.00745,  9: 0.42119,  8:-1.81934,  7:-1.31595,  6:-3.58545,  5: 3.82322,  4: 4.19910,
                 3: 5.62416,  2: 2.15658,  1: 3.22882
    58 |      | 21: 0.34592, 20:-3.07468, 19: 0.42299, 18: 0.73634, 17:-3.12246, 16:-0.73498, 15: 3.67866, 14: 4.78149, 13: 2.92207,
                12: 1.69379, 11: 2.54711, 10: 8.91504,  9:-0.94789,  8:-3.91213,  7:-5.26671,  6: 6.55615,  5: 4.64249,  4: 5.72993,
                 3:-0.45397,  2: 3.35097,  1:-1.16593
    59 |      | 21:-0.55457, 20: 2.24441, 19: 6.80376, 18:-0.45601, 17:-1.06871, 16:-1.73673, 15: 4.68427, 14:-2.72292, 13:-1.41620,
                12:-3.82001, 11: 3.12988, 10: 0.48445,  9: 0.51602,  8: 0.02171,  7: 7.09859,  6:-4.72298,  5:-3.55420,  4: 5.88747,
                 3: 5.92617,  2:-3.66403,  1: 1.33313
    60 |      | 21: 0.95132, 20:-0.94171, 19: 1.83319, 18: 0.13346, 17: 9.33990, 16: 2.40741, 15:-1.92644, 14: 2.76533, 13:-1.26473,
                12: 3.30787, 11: 1.51648, 10: 1.35292,  9:-0.91117,  8:-1.69745,  7: 1.49666,  6: 2.86650,  5: 2.62702,  4: 0.86465,
                 3:-0.36697,  2:-0.58958,  1:-0.11840
    61 |      | 21:-0.83569, 20: 2.46759, 19: 1.18292, 18:-0.28312, 17: 1.21021, 16: 1.52457, 15:-0.39491, 14:-1.88959, 13:-2.25311,
                12:-1.72255, 11:-2.02961, 10: 0.63706,  9:-0.08389,  8: 0.45762,  7:-1.60914,  6: 0.99703,  5: 0.99795,  4:-1.79081,
                 3:-3.87493,  2: 0.45270,  1:-0.66645
    62 |      | 21: 0.05585, 20:-1.27700, 19: 5.72530, 18: 0.83805, 17:-2.23600, 16: 0.00210, 15: 3.06359, 14: 0.79159, 13:-2.76955,
                12: 8.67335, 11:-7.89578, 10:-6.32528,  9:-0.10894,  8: 0.29665,  7:-16.47546,  6:-5.86267,  5:13.63484,  4:-10.23027,
                 3:-6.26595,  2:-6.20621,  1: 5.95004
    63 |      | 21: 0.53297, 20: 0.52282, 19: 2.96982, 18:-0.41700, 17: 2.17280, 16: 3.19091, 15:-11.23919, 14: 1.64006, 13:-0.06210,
                12:-7.93901, 11: 2.16717, 10: 4.02581,  9:-0.01213,  8:-2.56932,  7: 0.78464,  6: 0.63173,  5: 0.84296,  4:-1.72691,
                 3:-1.99434,  2:-1.09242,  1:-0.08065
    64 |      | 21:-0.26617, 20: 3.08801, 19:-0.93660, 18:-0.25907, 17: 0.06365, 16: 1.49751, 15: 3.89767, 14:-2.77021, 13: 1.99553,
                12:-0.11567, 11: 0.39188, 10: 1.63918,  9:-0.79561,  8: 2.33095,  7:-1.34204,  6: 1.15809,  5:-1.14665,  4: 1.77024,
                 3: 1.82207,  2: 0.56988,  1: 1.06523
    65 |      | 21:-0.21997, 20: 6.87336, 19: 2.25359, 18: 0.58441, 17: 0.29383, 16: 1.75638, 15:-10.14445, 14:13.99240, 13:13.64463,
                12:-3.01954, 11:-10.41080, 10: 5.73606,  9: 0.26641,  8:-7.12598,  7: 9.09900,  6:-15.50046,  5:-2.63496,  4: 4.18737,
                 3: 3.64898,  2:-19.27602,  1:-6.64425
    66 |      | 21: 0.74403, 20: 3.35833, 19:-0.49541, 18: 0.13786, 17:-0.11187, 16:-3.73414, 15:-4.54808, 14:-0.20920, 13: 0.81290,
                12:-0.84828, 11: 0.16574, 10:-2.35465,  9: 0.22384,  8: 2.20896,  7:-0.66064,  6:-0.08492,  5:-2.47340,  4:-2.52704,
                 3:-1.20347,  2:-3.99184,  1:-0.42448
    67 |      | 21:-0.35752, 20:-0.78344, 19:-0.11770, 18: 0.36067, 17:-0.82862, 16:-0.91424, 15:-0.74114, 14:-0.97312, 13:-0.68387,
                12:-0.22620, 11: 0.71176, 10:-0.13466,  9:-0.46625,  8:-0.90237,  7:-0.63823,  6:-0.35578,  5:-0.34754,  4:-0.44617,
                 3:-0.71835,  2:-0.97053,  1: 0.72287
    68 |      | 21:-0.76359, 20: 0.27811, 19:-9.85676, 18: 0.76161, 17:-2.73058, 16:-1.40948, 15:-7.23984, 14:-1.71346, 13: 4.58052,
                12:-9.85702, 11: 0.92758, 10: 5.32515,  9: 3.68752,  8: 6.26907,  7: 2.41926,  6:-7.86288,  5: 1.71488,  4: 2.73142,
                 3: 5.88577,  2: 2.82249,  1:-2.47879
    69 |      | 21: 0.20778, 20:-0.56589, 19:-2.91209, 18:-0.27820, 17: 1.09609, 16: 0.92532, 15: 1.99383, 14: 4.69541, 13: 0.22847,
                12:-2.35682, 11: 5.06171, 10: 2.32675,  9:-0.09113,  8: 1.84424,  7:-0.01548,  6: 2.96150,  5:-0.68113,  4:-0.88162,
                 3: 1.87040,  2:-2.11533,  1: 1.17470
    70 |      | 21: 0.10434, 20: 0.36400, 19: 1.05233, 18:-0.97506, 17: 0.28937, 16: 1.16377, 15:-0.04872, 14: 1.77024, 13:-0.76869,
                12: 0.25513, 11:-0.24952, 10: 1.90095,  9:-0.93864,  8: 0.64940,  7:-0.70424,  6:-0.44502,  5: 2.33417,  4:-0.61572,
                 3: 2.27269,  2:-1.38393,  1: 0.03283
    71 |      | 21: 0.71394, 20:-6.86271, 19:-0.22637, 18: 0.79313, 17:-5.10982, 16:-4.32927, 15: 4.03351, 14: 3.97405, 13:-11.23219,
                12:-7.12696, 11: 2.01545, 10: 5.50001,  9:-0.10490,  8: 0.20110,  7:10.68082,  6: 0.89490,  5: 7.65743,  4:-11.46019,
                 3:-2.95194,  2: 3.62717,  1:-2.53186
    72 |      | 71: 1.74899, 70: 3.76458, 69:-2.09529, 68:-3.39897, 67: 0.50222, 66:-9.06484, 65:-3.15394, 64:-4.38226, 63: 2.30511,
                62:-7.75356, 61: 0.50059, 60:-9.90412, 59:-1.54203, 58:12.25765, 57:-0.88481, 56:-10.41347, 55:-4.87890, 54: 0.76366,
                53: 2.81486, 52: 7.74957, 51:-15.76010, 50: 5.56714, 49: 3.63290, 48: 7.37632, 47: 1.26907, 46: 9.22731, 45:-5.99721,
                44: 0.59320, 43:-6.06239, 42: 7.31628, 41:-8.50255, 40: 2.10303, 39: 0.46259, 38:-4.70069, 37: 0.71818, 36:10.88435,
                35:-7.92526, 34:-0.45542, 33:-4.28998, 32:-1.29201, 31:-0.12053, 30:-4.70903, 29:-5.69206, 28:-9.10869, 27: 7.85523,
                26: 4.31641, 25:-0.42819, 24: 1.72742, 23:13.42819, 22:-10.45902
    73 |      | 71: 6.41395, 70: 5.50349, 69:11.57571, 68: 1.47642, 67:-0.78826, 66:10.01475, 65: 3.51591, 64:19.44544, 63:-3.98334,
                62:-7.78579, 61: 4.15887, 60:-0.62364, 59:-14.67157, 58:-1.57412, 57: 1.22006, 56:-6.01711, 55:-4.24399, 54:-1.09126,
                53:-12.49911, 52: 8.92337, 51: 0.85885, 50:-4.69075, 49:-0.35864, 48:-1.57005, 47:-10.60140, 46: 7.92583, 45: 2.41384,
                44:-9.52233, 43: 2.19558, 42:-6.05357, 41: 6.07411, 40: 8.23894, 39:-15.65028, 38:-1.45843, 37:-3.08285, 36:-4.27478,
                35:-2.50121, 34: 3.51250, 33:-2.35753, 32: 6.83432, 31: 0.86711, 30: 4.84443, 29: 7.87141, 28: 3.65156, 27:-2.89629,
                26:-1.65819, 25: 2.32372, 24: 3.80736, 23:-7.97613, 22: 0.38876
    74 |      | 71:-10.13447, 70:-5.28937, 69:-3.64257, 68:-0.35037, 67: 2.35364, 66:-2.35442, 65: 8.68270, 64: 1.67214, 63:-4.76371,
                62:-4.76317, 61: 6.99148, 60:10.55129, 59: 5.18085, 58:-4.47800, 57:-3.68924, 56: 0.94060, 55: 2.25883, 54: 0.30327,
                53: 3.49431, 52:-9.82272, 51: 9.79373, 50: 4.32941, 49: 0.45673, 48:-0.98260, 47:-0.09682, 46:-6.75449, 45:-3.71478,
                44: 6.69787, 43:-5.73798, 42: 1.44655, 41:-12.59956, 40:-5.55914, 39: 5.39772, 38: 4.44328, 37: 0.64542, 36: 2.32684,
                35:10.33593, 34: 1.47234, 33: 3.52918, 32:-4.18132, 31:-5.04299, 30: 0.68521, 29:-6.57634, 28:-5.62614, 27: 3.83497,
                26:-4.51936, 25:-4.49604, 24:-3.50769, 23: 5.10911, 22: 1.85968
    75 |      | 71:-7.10166, 70:-0.30655, 69:-3.07442, 68: 4.83381, 67:-1.50892, 66: 5.69051, 65: 2.42875, 64: 7.72767, 63: 9.50250,
                62: 8.32026, 61:-2.84317, 60:-14.60668, 59:14.02077, 58:-1.54420, 57:-1.72243, 56: 2.66831, 55: 2.71982, 54:-3.23530,
                53:-6.06898, 52:12.51576, 51:-3.42867, 50: 2.14983, 49:-3.94909, 48: 7.25262, 47:-8.20690, 46:13.28732, 45:-2.80058,
                44:-2.08075, 43:-2.89021, 42:-5.54500, 41:-5.37216, 40:-7.33640, 39: 4.19364, 38:12.84153, 37: 3.49294, 36: 3.59537,
                35:-2.48281, 34:-0.21704, 33:-5.29616, 32:-5.27151, 31: 3.22384, 30:-8.03223, 29: 6.73654, 28: 9.94400, 27: 1.56331,
                26:10.18293, 25:-2.44061, 24:-2.55087, 23: 6.49055, 22:-11.89255
    76 |      | 71:-6.91914, 70: 2.53186, 69:-11.00080, 68: 8.76380, 67: 1.27694, 66: 6.22501, 65: 0.04930, 64:-13.24571, 63:12.65817,
                62: 1.04744, 61: 0.45957, 60: 1.99366, 59: 3.29609, 58:-0.18596, 57: 5.14377, 56:-9.73344, 55: 4.41299, 54: 0.06559,
                53: 7.33780, 52:-12.86999, 51:-5.98054, 50:-0.91380, 49: 4.14689, 48: 0.00181, 47:11.70632, 46:-2.51240, 45: 3.63297,
                44:-7.47858, 43: 0.98100, 42:-1.71567, 41:-2.96944, 40: 2.25093, 39: 1.37263, 38:-8.17234, 37: 3.64178, 36:-0.97139,
                35:19.25814, 34: 4.57811, 33: 4.35439, 32:-7.18275, 31:-6.01108, 30: 0.43120, 29:-5.19729, 28: 1.69256, 27: 1.00539,
                26: 3.30146, 25:-2.36200, 24: 2.53513, 23:-14.80527, 22: 8.57691
    77 |      | 71:-2.77420, 70:-3.41441, 69: 5.48058, 68:-6.43366, 67:-1.35402, 66: 9.23479, 65: 2.97141, 64:-0.85759, 63:-2.85797,
                62: 3.70295, 61:-2.39509, 60: 1.76154, 59:-6.15902, 58:-13.53171, 57:-0.74018, 56:10.91345, 55:-2.84235, 54: 5.86542,
                53: 5.78189, 52: 8.84399, 51: 2.11766, 50: 7.92238, 49:-0.32546, 48:-8.30992, 47: 5.74587, 46:11.64247, 45:-10.51713,
                44:-6.65406, 43: 6.01187, 42:-5.54478, 41: 5.34907, 40:11.72576, 39:12.56631, 38:-10.17294, 37:-3.24222, 36:-5.87530,
                35: 0.96236, 34:-3.21725, 33:-3.26082, 32:-6.50236, 31:-4.98071, 30:-5.57933, 29: 1.68660, 28:-7.20173, 27:-0.63603,
                26:-8.30582, 25:-4.36367, 24:-1.05901, 23:-9.55143, 22: 7.49615
-------|------|---------------------------------------------------------------------------------------------------------------------


layer definition section :

layer | unitNo.
------|----------------------------------------------------------------------------------------------------------------------------
    2 | 22, 23, 24, 25, 26, 27, 28, 29, 30, 31, 32, 33, 34, 35, 36, 37, 38, 39, 40, 41, 42, 43, 44, 45, 46, 47, 48, 49, 50, 51, 52,
        53, 54, 55, 56, 57, 58, 59, 60, 61, 62, 63, 64, 65, 66, 67, 68, 69, 70, 71
    3 | 72, 73, 74, 75, 76, 77
------|----------------------------------------------------------------------------------------------------------------------------
