SNNS network definition file V1.4-3D
generated at Thu Mar  8 08:15:16 2007

network name : Red Proyecto IA
source files :
no. of units : 37
no. of connections : 270
no. of unit types : 0
no. of site types : 0


learning function : Std_Backpropagation
update function   : Topological_Order


unit default section :

act      | bias     | st | subnet | layer | act func     | out func
---------|----------|----|--------|-------|--------------|-------------
 0.00000 |  0.00000 | h  |      0 |     1 | Act_Logistic | Out_Identity 
---------|----------|----|--------|-------|--------------|-------------


unit definition section :

no. | typeName | unitName | act      | bias     | st | position | act func | out func | sites
----|----------|----------|----------|----------|----|----------|----------|----------|-------
  1 |          | noName   |  0.00000 | -0.08617 | i  |  1, 2, 1 |||
  2 |          | noName   |  1.00000 | -0.74016 | i  |  1, 3, 1 |||
  3 |          | noName   |  2.00000 | -0.09388 | i  |  1, 4, 1 |||
  4 |          | noName   |  1.00000 | -0.78258 | i  |  1, 5, 1 |||
  5 |          | noName   |  1.00000 |  0.51763 | i  |  1, 6, 1 |||
  6 |          | noName   |  4.00000 | -0.37004 | i  |  1, 7, 1 |||
  7 |          | noName   |  1.00000 | -0.80948 | i  |  1, 8, 1 |||
  8 |          | noName   |  5.00000 |  0.40559 | i  |  1, 9, 1 |||
  9 |          | noName   |  0.00000 |  0.76067 | i  |  1,10, 1 |||
 10 |          | noName   |  0.00000 |  0.00763 | i  |  1,11, 1 |||
 11 |          | noName   |  1.00000 |  0.76581 | i  |  1,12, 1 |||
 12 |          | noName   |  0.00000 | -0.24308 | i  |  1,13, 1 |||
 13 |          | noName   |  4.00000 | -0.35011 | i  |  1,14, 1 |||
 14 |          | noName   |  4.00000 | -0.73437 | i  |  1,15, 1 |||
 15 |          | noName   |  4.00000 |  0.23624 | i  |  1,16, 1 |||
 16 |          | noName   |  3.00000 | -0.81318 | i  |  1,17, 1 |||
 17 |          | noName   |  3.00000 | -0.43407 | i  |  1,18, 1 |||
 18 |          | noName   |  0.00000 | -0.18594 | i  |  1,19, 1 |||
 19 |          | noName   |  1.00000 | -0.97507 | i  |  1,20, 1 |||
 20 |          | noName   |  7.00000 | -0.03828 | i  |  1,21, 1 |||
 21 |          | noName   |  0.00000 | -0.22307 | i  |  1,22, 1 |||
 22 |          | noName   |  0.00000 | -11.62366 | h  |  5, 2, 1 |||
 23 |          | noName   |  1.00000 |  2.80816 | h  |  5, 3, 1 |||
 24 |          | noName   |  0.00000 | -2.47576 | h  |  5, 4, 1 |||
 25 |          | noName   |  0.00000 |  3.10877 | h  |  5, 5, 1 |||
 26 |          | noName   |  0.00000 | 10.41504 | h  |  5, 6, 1 |||
 27 |          | noName   |  0.00000 |  1.43649 | h  |  5, 7, 1 |||
 28 |          | noName   |  0.00000 | -1.41500 | h  |  5, 8, 1 |||
 29 |          | noName   |  1.00000 |  0.78513 | h  |  5, 9, 1 |||
 30 |          | noName   |  0.00000 | 24.73624 | h  |  5,10, 1 |||
 31 |          | noName   |  0.00000 |  6.27282 | h  |  5,11, 1 |||
 32 |          | noName   |  0.11881 | -0.91646 | o  |  8, 4, 1 |||
 33 |          | noName   |  0.57853 |  3.88371 | o  |  8, 5, 1 |||
 34 |          | noName   |  0.99631 |  4.26779 | o  |  8, 6, 1 |||
 35 |          | noName   |  0.81550 | -8.51587 | o  |  8, 7, 1 |||
 36 |          | noName   |  0.40233 |  2.02647 | o  |  8, 8, 1 |||
 37 |          | noName   |  0.72281 |  3.22519 | o  |  8, 9, 1 |||
----|----------|----------|----------|----------|----|----------|----------|----------|-------


connection definition section :

target | site | source:weight
-------|------|---------------------------------------------------------------------------------------------------------------------
    22 |      | 21:-0.52409, 20:-22.98324, 19:19.51672, 18: 0.01666, 17: 6.66911, 16:-4.86250, 15: 6.53151, 14:-18.61074, 13: 8.38060,
                12:-3.79320, 11: 1.95772, 10:-6.74392,  9: 1.53535,  8:-15.10008,  7:10.72596,  6:-2.41219,  5: 4.07022,  4: 7.60466,
                 3:-1.94884,  2: 7.78365,  1: 1.61334
    23 |      | 21:-0.05743, 20:-3.17169, 19:-0.63642, 18: 0.07105, 17: 9.84095, 16: 6.58595, 15:-10.50557, 14:-5.07729, 13:12.64546,
                12:10.00110, 11:-16.39478, 10:-7.61036,  9: 2.12826,  8: 6.54010,  7: 6.86967,  6:-0.91448,  5:13.61234,  4: 6.38518,
                 3:-5.12646,  2:-11.25144,  1:10.39557
    24 |      | 21:-0.67264, 20:-2.10069, 19:-0.64306, 18:-0.72117, 17:-2.81765, 16:-1.47119, 15: 8.54207, 14:-3.80814, 13:-10.95528,
                12:11.11845, 11: 8.86394, 10: 5.83055,  9:-0.52124,  8: 2.14743,  7: 2.26888,  6:-8.96762,  5: 2.02418,  4:-1.98407,
                 3:-1.08090,  2:10.00415,  1: 0.90332
    25 |      | 21:-0.82621, 20:-5.45413, 19: 2.24932, 18:-0.63509, 17: 1.43829, 16: 3.85318, 15:-7.83211, 14: 3.51518, 13:-0.22212,
                12:-4.96251, 11:-2.13577, 10: 4.02020,  9:-0.70362,  8:-2.16832,  7: 2.26280,  6:-1.57987,  5:-2.30312,  4: 0.74844,
                 3:-0.19165,  2:-5.10185,  1:-1.35065
    26 |      | 21: 0.24753, 20: 0.04253, 19:-4.02133, 18: 0.89920, 17:-2.12639, 16:-1.26583, 15:-0.60663, 14:-9.34766, 13: 2.56797,
                12:-2.52928, 11:-3.13070, 10: 3.47299,  9: 0.81719,  8:-0.30258,  7: 0.97693,  6:-6.47316,  5:-2.71418,  4: 1.36487,
                 3: 0.15811,  2: 5.14275,  1: 1.27836
    27 |      | 21:-0.53712, 20: 1.25961, 19: 7.96032, 18: 0.40062, 17:-8.48854, 16:-9.17821, 15:-6.79679, 14: 0.64754, 13:11.08817,
                12:-7.42847, 11: 7.77669, 10: 1.59704,  9: 0.45052,  8:-6.26069,  7: 0.69615,  6:-9.17694,  5: 0.47280,  4: 2.51306,
                 3:-6.95611,  2:-9.81243,  1:10.26917
    28 |      | 21: 0.72504, 20:-2.12658, 19:-4.06553, 18: 0.61136, 17:-2.08278, 16:-0.35031, 15: 0.52389, 14: 0.94366, 13:-1.96068,
                12:-3.18071, 11: 2.21650, 10:-2.98773,  9:-0.03604,  8:-3.02986,  7: 0.12399,  6:-3.73002,  5: 0.31010,  4: 4.92516,
                 3: 2.48050,  2:-1.83195,  1:-0.49149
    29 |      | 21:-0.51162, 20: 6.41482, 19: 1.59843, 18:-0.13379, 17:-0.10001, 16:-3.50392, 15: 9.41388, 14: 0.30332, 13:-0.47112,
                12:-5.82051, 11: 2.74485, 10: 4.91079,  9: 0.24672,  8: 0.97331,  7: 2.51270,  6:-2.75190,  5:-4.31019,  4: 4.09779,
                 3: 5.36242,  2:-4.15737,  1: 5.34229
    30 |      | 21: 0.14716, 20:-4.54663, 19: 3.40746, 18:-0.87952, 17:-2.51675, 16:-0.61285, 15:-9.42068, 14:-5.47335, 13:-1.36902,
                12:-3.40368, 11:-1.43612, 10:-11.71998,  9:-0.17174,  8: 3.30959,  7:-16.04028,  6:-8.93364,  5: 7.34742,  4:-2.05571,
                 3:17.53136,  2: 1.85278,  1: 7.76315
    31 |      | 21:-0.13260, 20:-10.40358, 19:-22.03370, 18:-0.85370, 17:-4.36924, 16: 9.90313, 15:-4.97886, 14:-8.75308, 13:-1.84881,
                12:-3.08809, 11: 0.55052, 10: 0.03239,  9: 0.72905,  8:-4.29005,  7:-2.93971,  6:-0.97612,  5:18.55319,  4:17.59183,
                 3:12.97751,  2: 9.52132,  1: 2.29613
    32 |      | 31: 1.35673, 30:-0.06488, 29: 0.16106, 28:-2.37491, 27:-1.06370, 26: 2.10556, 25: 2.92499, 24: 0.90510, 23:-1.25585,
                22:-2.29348
    33 |      | 31:-1.35494, 30: 1.75957, 29:-0.76483, 28: 7.57664, 27: 2.32088, 26:-3.85385, 25:-7.43580, 24:-2.63089, 23:-2.88679,
                22: 1.34843
    34 |      | 31: 0.59042, 30:-6.96047, 29:-2.86610, 28:-1.73426, 27: 4.04592, 26:-0.23221, 25:-2.68704, 24:-3.68001, 23: 4.19542,
                22:-3.84639
    35 |      | 31:-3.58404, 30: 1.12604, 29: 7.96829, 28:-0.34806, 27:-3.34482, 26: 3.71606, 25: 2.85451, 24: 1.72033, 23: 1.96008,
                22:-2.79386
    36 |      | 31: 1.14156, 30: 2.68992, 29:-4.97961, 28: 6.43893, 27: 2.81020, 26:-6.31724, 25: 7.08679, 24:-1.56361, 23: 2.64361,
                22:-0.88879
    37 |      | 31:-1.13100, 30: 1.44408, 29:-3.68209, 28:-6.48827, 27:-0.45542, 26: 0.83942, 25:-1.14535, 24:-1.40474, 23: 1.32846,
                22: 1.30536
-------|------|---------------------------------------------------------------------------------------------------------------------


layer definition section :

layer | unitNo.
------|----------------------------------------------------------------------------------------------------------------------------
    2 | 22, 23, 24, 25, 26, 27, 28, 29, 30, 31
    3 | 32, 33, 34, 35, 36, 37
------|----------------------------------------------------------------------------------------------------------------------------
