<?xml version="1.0"?>
<opencv_storage>
<cascade>
  <stageType>BOOST</stageType>
  <featureType>HAAR</featureType>
  <height>45</height>
  <width>20</width>
  <stageParams>
    <boostType>GAB</boostType>
    <minHitRate>9.9500000476837158e-01</minHitRate>
    <maxFalseAlarm>5.0000000000000000e-01</maxFalseAlarm>
    <weightTrimRate>9.4999999999999996e-01</weightTrimRate>
    <maxDepth>1</maxDepth>
    <maxWeakCount>100</maxWeakCount></stageParams>
  <featureParams>
    <maxCatCount>0</maxCatCount>
    <featSize>1</featSize>
    <mode>BASIC</mode></featureParams>
  <stageNum>10</stageNum>
  <stages>
    <!-- stage 0 -->
    <_>
      <maxWeakCount>6</maxWeakCount>
      <stageThreshold>-2.9933151602745056e-01</stageThreshold>
      <weakClassifiers>
        <_>
          <internalNodes>
            0 -1 34 -2.3522280156612396e-02</internalNodes>
          <leafValues>
            -7.2549021244049072e-01 5.5020081996917725e-01</leafValues></_>
        <_>
          <internalNodes>
            0 -1 45 -4.3509425595402718e-03</internalNodes>
          <leafValues>
            -8.9367967844009399e-01 3.6629551649093628e-01</leafValues></_>
        <_>
          <internalNodes>
            0 -1 13 -1.3401556015014648e-01</internalNodes>
          <leafValues>
            -9.8045027256011963e-01 1.6802884638309479e-01</leafValues></_>
        <_>
          <internalNodes>
            0 -1 31 -9.5862153102643788e-05</internalNodes>
          <leafValues>
            -5.9679234027862549e-01 3.5239735245704651e-01</leafValues></_>
        <_>
          <internalNodes>
            0 -1 37 2.5205207057297230e-03</internalNodes>
          <leafValues>
            2.8133919835090637e-01 -6.5710043907165527e-01</leafValues></_>
        <_>
          <internalNodes>
            0 -1 54 -5.3287175251170993e-04</internalNodes>
          <leafValues>
            -7.5761806964874268e-01 3.3097237348556519e-01</leafValues></_></weakClassifiers></_>
    <!-- stage 1 -->
    <_>
      <maxWeakCount>6</maxWeakCount>
      <stageThreshold>-2.6986709237098694e-01</stageThreshold>
      <weakClassifiers>
        <_>
          <internalNodes>
            0 -1 46 -1.4410840230993927e-04</internalNodes>
          <leafValues>
            -5.0819671154022217e-01 5.4811716079711914e-01</leafValues></_>
        <_>
          <internalNodes>
            0 -1 6 2.2782962769269943e-03</internalNodes>
          <leafValues>
            -2.5388166308403015e-01 6.5933221578598022e-01</leafValues></_>
        <_>
          <internalNodes>
            0 -1 19 -1.9753394648432732e-02</internalNodes>
          <leafValues>
            9.1944330930709839e-01 -1.8636523187160492e-01</leafValues></_>
        <_>
          <internalNodes>
            0 -1 43 5.8904290199279785e-04</internalNodes>
          <leafValues>
            3.2883077859878540e-01 -7.5436192750930786e-01</leafValues></_>
        <_>
          <internalNodes>
            0 -1 63 -5.1161414012312889e-03</internalNodes>
          <leafValues>
            8.6173141002655029e-01 -2.5907376408576965e-01</leafValues></_>
        <_>
          <internalNodes>
            0 -1 65 2.4846813175827265e-04</internalNodes>
          <leafValues>
            -2.7751553058624268e-01 7.5516402721405029e-01</leafValues></_></weakClassifiers></_>
    <!-- stage 2 -->
    <_>
      <maxWeakCount>6</maxWeakCount>
      <stageThreshold>-7.2590655088424683e-01</stageThreshold>
      <weakClassifiers>
        <_>
          <internalNodes>
            0 -1 27 -5.5014587938785553e-02</internalNodes>
          <leafValues>
            -8.5000002384185791e-01 5.1538461446762085e-01</leafValues></_>
        <_>
          <internalNodes>
            0 -1 22 1.0144901275634766e-01</internalNodes>
          <leafValues>
            2.4796500802040100e-01 -9.5030450820922852e-01</leafValues></_>
        <_>
          <internalNodes>
            0 -1 4 -4.6380753628909588e-03</internalNodes>
          <leafValues>
            8.9309400320053101e-01 -2.9442408680915833e-01</leafValues></_>
        <_>
          <internalNodes>
            0 -1 64 5.1292998250573874e-04</internalNodes>
          <leafValues>
            -2.2167433798313141e-01 8.0297803878784180e-01</leafValues></_>
        <_>
          <internalNodes>
            0 -1 53 1.0859743633773178e-04</internalNodes>
          <leafValues>
            3.2104352116584778e-01 -7.1447378396987915e-01</leafValues></_>
        <_>
          <internalNodes>
            0 -1 32 -1.1954359943047166e-03</internalNodes>
          <leafValues>
            8.4567141532897949e-01 -2.5868391990661621e-01</leafValues></_></weakClassifiers></_>
    <!-- stage 3 -->
    <_>
      <maxWeakCount>9</maxWeakCount>
      <stageThreshold>-3.1715822219848633e-01</stageThreshold>
      <weakClassifiers>
        <_>
          <internalNodes>
            0 -1 21 -5.4020248353481293e-02</internalNodes>
          <leafValues>
            -7.6470589637756348e-01 4.7368422150611877e-01</leafValues></_>
        <_>
          <internalNodes>
            0 -1 33 7.6559148728847504e-02</internalNodes>
          <leafValues>
            2.0283962786197662e-01 -8.1468433141708374e-01</leafValues></_>
        <_>
          <internalNodes>
            0 -1 16 -2.5596031919121742e-02</internalNodes>
          <leafValues>
            -8.0574989318847656e-01 1.8787671625614166e-01</leafValues></_>
        <_>
          <internalNodes>
            0 -1 15 7.0674978196620941e-02</internalNodes>
          <leafValues>
            1.9088684022426605e-01 -9.0290683507919312e-01</leafValues></_>
        <_>
          <internalNodes>
            0 -1 2 -7.3985831113532186e-04</internalNodes>
          <leafValues>
            7.5815546512603760e-01 -2.5225442647933960e-01</leafValues></_>
        <_>
          <internalNodes>
            0 -1 17 -1.6472508432343602e-03</internalNodes>
          <leafValues>
            6.5336525440216064e-01 -2.1930345892906189e-01</leafValues></_>
        <_>
          <internalNodes>
            0 -1 57 -2.2186057642102242e-02</internalNodes>
          <leafValues>
            -7.1378165483474731e-01 2.3746266961097717e-01</leafValues></_>
        <_>
          <internalNodes>
            0 -1 62 1.5231946017593145e-03</internalNodes>
          <leafValues>
            -3.6978781223297119e-01 5.5153053998947144e-01</leafValues></_>
        <_>
          <internalNodes>
            0 -1 48 -1.0478103649802506e-04</internalNodes>
          <leafValues>
            -6.3331454992294312e-01 3.2753697037696838e-01</leafValues></_></weakClassifiers></_>
    <!-- stage 4 -->
    <_>
      <maxWeakCount>7</maxWeakCount>
      <stageThreshold>-2.7939656376838684e-01</stageThreshold>
      <weakClassifiers>
        <_>
          <internalNodes>
            0 -1 41 5.6382074952125549e-02</internalNodes>
          <leafValues>
            4.8262548446655273e-01 -6.0975611209869385e-01</leafValues></_>
        <_>
          <internalNodes>
            0 -1 61 -2.0929682068526745e-03</internalNodes>
          <leafValues>
            8.3252495527267456e-01 -1.7511439323425293e-01</leafValues></_>
        <_>
          <internalNodes>
            0 -1 70 9.6002296777442098e-04</internalNodes>
          <leafValues>
            -1.2586191296577454e-01 9.5078158378601074e-01</leafValues></_>
        <_>
          <internalNodes>
            0 -1 36 -3.8338947342708707e-04</internalNodes>
          <leafValues>
            -5.2077883481979370e-01 3.0051082372665405e-01</leafValues></_>
        <_>
          <internalNodes>
            0 -1 49 2.8004217892885208e-04</internalNodes>
          <leafValues>
            -2.6621940732002258e-01 7.9590260982513428e-01</leafValues></_>
        <_>
          <internalNodes>
            0 -1 14 2.9343080241233110e-03</internalNodes>
          <leafValues>
            -1.9427864253520966e-01 7.5567460060119629e-01</leafValues></_>
        <_>
          <internalNodes>
            0 -1 58 -1.8358469242230058e-03</internalNodes>
          <leafValues>
            6.4269703626632690e-01 -2.7079892158508301e-01</leafValues></_></weakClassifiers></_>
    <!-- stage 5 -->
    <_>
      <maxWeakCount>5</maxWeakCount>
      <stageThreshold>-1.1871104687452316e-01</stageThreshold>
      <weakClassifiers>
        <_>
          <internalNodes>
            0 -1 56 1.1288816313026473e-04</internalNodes>
          <leafValues>
            5.5844157934188843e-01 -4.2028984427452087e-01</leafValues></_>
        <_>
          <internalNodes>
            0 -1 47 -1.1629911605268717e-03</internalNodes>
          <leafValues>
            -6.9682508707046509e-01 3.6085125803947449e-01</leafValues></_>
        <_>
          <internalNodes>
            0 -1 12 7.6604455709457397e-02</internalNodes>
          <leafValues>
            2.7556377649307251e-01 -8.1622141599655151e-01</leafValues></_>
        <_>
          <internalNodes>
            0 -1 26 1.3329330086708069e-01</internalNodes>
          <leafValues>
            1.3657537102699280e-01 -9.5167475938796997e-01</leafValues></_>
        <_>
          <internalNodes>
            0 -1 51 -1.1603449238464236e-03</internalNodes>
          <leafValues>
            6.9931852817535400e-01 -2.9727238416671753e-01</leafValues></_></weakClassifiers></_>
    <!-- stage 6 -->
    <_>
      <maxWeakCount>8</maxWeakCount>
      <stageThreshold>-4.8792630434036255e-01</stageThreshold>
      <weakClassifiers>
        <_>
          <internalNodes>
            0 -1 35 4.7627929598093033e-03</internalNodes>
          <leafValues>
            4.4525548815727234e-01 -8.4615385532379150e-01</leafValues></_>
        <_>
          <internalNodes>
            0 -1 7 -4.8687658272683620e-03</internalNodes>
          <leafValues>
            8.4163814783096313e-01 -1.9313479959964752e-01</leafValues></_>
        <_>
          <internalNodes>
            0 -1 68 -1.7006583511829376e-03</internalNodes>
          <leafValues>
            8.3171868324279785e-01 -2.0788045227527618e-01</leafValues></_>
        <_>
          <internalNodes>
            0 -1 52 3.6057905526831746e-04</internalNodes>
          <leafValues>
            3.6328858137130737e-01 -5.3510606288909912e-01</leafValues></_>
        <_>
          <internalNodes>
            0 -1 3 -1.7193250358104706e-02</internalNodes>
          <leafValues>
            6.2239706516265869e-01 -3.1802234053611755e-01</leafValues></_>
        <_>
          <internalNodes>
            0 -1 1 -2.8990989085286856e-03</internalNodes>
          <leafValues>
            8.6778771877288818e-01 -2.4905121326446533e-01</leafValues></_>
        <_>
          <internalNodes>
            0 -1 30 -6.8886771798133850e-02</internalNodes>
          <leafValues>
            -8.9936876296997070e-01 2.5564840435981750e-01</leafValues></_>
        <_>
          <internalNodes>
            0 -1 50 1.2790589244104922e-04</internalNodes>
          <leafValues>
            -4.0945956110954285e-01 5.4065078496932983e-01</leafValues></_></weakClassifiers></_>
    <!-- stage 7 -->
    <_>
      <maxWeakCount>8</maxWeakCount>
      <stageThreshold>-1.5080024302005768e-01</stageThreshold>
      <weakClassifiers>
        <_>
          <internalNodes>
            0 -1 24 5.2124194800853729e-02</internalNodes>
          <leafValues>
            4.3682309985160828e-01 -9.1304349899291992e-01</leafValues></_>
        <_>
          <internalNodes>
            0 -1 5 -4.7049287240952253e-04</internalNodes>
          <leafValues>
            6.1306577920913696e-01 -2.6629304885864258e-01</leafValues></_>
        <_>
          <internalNodes>
            0 -1 59 -4.2744632810354233e-03</internalNodes>
          <leafValues>
            7.9361498355865479e-01 -2.3648735880851746e-01</leafValues></_>
        <_>
          <internalNodes>
            0 -1 60 -7.0012046489864588e-04</internalNodes>
          <leafValues>
            7.3211532831192017e-01 -2.3183923959732056e-01</leafValues></_>
        <_>
          <internalNodes>
            0 -1 28 4.2513449443504214e-04</internalNodes>
          <leafValues>
            -2.3827786743640900e-01 7.1376395225524902e-01</leafValues></_>
        <_>
          <internalNodes>
            0 -1 40 5.4820671677589417e-02</internalNodes>
          <leafValues>
            2.6602563261985779e-01 -8.2023102045059204e-01</leafValues></_>
        <_>
          <internalNodes>
            0 -1 66 -2.4348720908164978e-03</internalNodes>
          <leafValues>
            5.9909212589263916e-01 -3.6371070146560669e-01</leafValues></_>
        <_>
          <internalNodes>
            0 -1 67 3.9831269532442093e-03</internalNodes>
          <leafValues>
            -2.6218476891517639e-01 7.4159771203994751e-01</leafValues></_></weakClassifiers></_>
    <!-- stage 8 -->
    <_>
      <maxWeakCount>9</maxWeakCount>
      <stageThreshold>-3.9970663189888000e-01</stageThreshold>
      <weakClassifiers>
        <_>
          <internalNodes>
            0 -1 44 -8.5841820691712201e-05</internalNodes>
          <leafValues>
            -2.7500000596046448e-01 5.5454546213150024e-01</leafValues></_>
        <_>
          <internalNodes>
            0 -1 55 4.8209680244326591e-04</internalNodes>
          <leafValues>
            3.6851137876510620e-01 -4.2691859602928162e-01</leafValues></_>
        <_>
          <internalNodes>
            0 -1 9 -1.3567713089287281e-02</internalNodes>
          <leafValues>
            7.3861646652221680e-01 -2.0882438123226166e-01</leafValues></_>
        <_>
          <internalNodes>
            0 -1 11 1.0389667004346848e-03</internalNodes>
          <leafValues>
            -2.5799965858459473e-01 6.3984340429306030e-01</leafValues></_>
        <_>
          <internalNodes>
            0 -1 0 -2.0147899631410837e-03</internalNodes>
          <leafValues>
            -6.4580363035202026e-01 2.5908559560775757e-01</leafValues></_>
        <_>
          <internalNodes>
            0 -1 69 -3.4962713252753019e-03</internalNodes>
          <leafValues>
            -5.9552520513534546e-01 2.7771833539009094e-01</leafValues></_>
        <_>
          <internalNodes>
            0 -1 29 1.2413021177053452e-03</internalNodes>
          <leafValues>
            -2.9920530319213867e-01 6.2645709514617920e-01</leafValues></_>
        <_>
          <internalNodes>
            0 -1 8 3.0593904666602612e-03</internalNodes>
          <leafValues>
            -2.0883698761463165e-01 7.8523451089859009e-01</leafValues></_>
        <_>
          <internalNodes>
            0 -1 23 -3.0957076698541641e-02</internalNodes>
          <leafValues>
            -8.7765491008758545e-01 2.2521214187145233e-01</leafValues></_></weakClassifiers></_>
    <!-- stage 9 -->
    <_>
      <maxWeakCount>8</maxWeakCount>
      <stageThreshold>-8.6208969354629517e-01</stageThreshold>
      <weakClassifiers>
        <_>
          <internalNodes>
            0 -1 46 1.2037072156090289e-04</internalNodes>
          <leafValues>
            5.3648066520690918e-01 -3.7313431501388550e-01</leafValues></_>
        <_>
          <internalNodes>
            0 -1 39 -4.6696208301000297e-05</internalNodes>
          <leafValues>
            -5.0784730911254883e-01 3.1377646327018738e-01</leafValues></_>
        <_>
          <internalNodes>
            0 -1 18 6.6754119470715523e-03</internalNodes>
          <leafValues>
            -1.7283801734447479e-01 8.2434046268463135e-01</leafValues></_>
        <_>
          <internalNodes>
            0 -1 25 2.2937147878110409e-03</internalNodes>
          <leafValues>
            -2.5719538331031799e-01 7.9108268022537231e-01</leafValues></_>
        <_>
          <internalNodes>
            0 -1 10 -2.4376912042498589e-03</internalNodes>
          <leafValues>
            6.7580229043960571e-01 -2.3203159868717194e-01</leafValues></_>
        <_>
          <internalNodes>
            0 -1 38 -5.8308703592047095e-04</internalNodes>
          <leafValues>
            -8.3784490823745728e-01 2.4416497349739075e-01</leafValues></_>
        <_>
          <internalNodes>
            0 -1 42 3.0558924190700054e-03</internalNodes>
          <leafValues>
            -3.0651524662971497e-01 6.3035130500793457e-01</leafValues></_>
        <_>
          <internalNodes>
            0 -1 20 -2.0685441792011261e-02</internalNodes>
          <leafValues>
            6.6005605459213257e-01 -2.5387123227119446e-01</leafValues></_></weakClassifiers></_></stages>
  <features>
    <_>
      <rects>
        <_>
          0 21 16 3 -1.</_>
        <_>
          0 22 16 1 3.</_></rects>
      <tilted>0</tilted></_>
    <_>
      <rects>
        <_>
          0 23 3 5 -1.</_>
        <_>
          1 23 1 5 3.</_></rects>
      <tilted>0</tilted></_>
    <_>
      <rects>
        <_>
          1 7 2 4 -1.</_>
        <_>
          1 7 1 2 2.</_>
        <_>
          2 9 1 2 2.</_></rects>
      <tilted>0</tilted></_>
    <_>
      <rects>
        <_>
          1 9 6 28 -1.</_>
        <_>
          4 9 3 28 2.</_></rects>
      <tilted>0</tilted></_>
    <_>
      <rects>
        <_>
          1 10 3 11 -1.</_>
        <_>
          2 10 1 11 3.</_></rects>
      <tilted>0</tilted></_>
    <_>
      <rects>
        <_>
          1 14 3 2 -1.</_>
        <_>
          2 14 1 2 3.</_></rects>
      <tilted>0</tilted></_>
    <_>
      <rects>
        <_>
          1 15 4 4 -1.</_>
        <_>
          3 15 2 4 2.</_></rects>
      <tilted>0</tilted></_>
    <_>
      <rects>
        <_>
          1 17 3 28 -1.</_>
        <_>
          2 17 1 28 3.</_></rects>
      <tilted>0</tilted></_>
    <_>
      <rects>
        <_>
          2 9 3 6 -1.</_>
        <_>
          3 9 1 6 3.</_></rects>
      <tilted>0</tilted></_>
    <_>
      <rects>
        <_>
          2 20 4 15 -1.</_>
        <_>
          4 20 2 15 2.</_></rects>
      <tilted>0</tilted></_>
    <_>
      <rects>
        <_>
          2 41 14 4 -1.</_>
        <_>
          2 41 7 2 2.</_>
        <_>
          9 43 7 2 2.</_></rects>
      <tilted>0</tilted></_>
    <_>
      <rects>
        <_>
          3 6 2 7 -1.</_>
        <_>
          4 6 1 7 2.</_></rects>
      <tilted>0</tilted></_>
    <_>
      <rects>
        <_>
          3 6 10 27 -1.</_>
        <_>
          3 15 10 9 3.</_></rects>
      <tilted>0</tilted></_>
    <_>
      <rects>
        <_>
          3 6 11 30 -1.</_>
        <_>
          3 16 11 10 3.</_></rects>
      <tilted>0</tilted></_>
    <_>
      <rects>
        <_>
          3 9 2 24 -1.</_>
        <_>
          3 9 1 12 2.</_>
        <_>
          4 21 1 12 2.</_></rects>
      <tilted>0</tilted></_>
    <_>
      <rects>
        <_>
          3 15 14 18 -1.</_>
        <_>
          3 24 14 9 2.</_></rects>
      <tilted>0</tilted></_>
    <_>
      <rects>
        <_>
          3 21 10 6 -1.</_>
        <_>
          8 21 5 6 2.</_></rects>
      <tilted>0</tilted></_>
    <_>
      <rects>
        <_>
          3 29 3 6 -1.</_>
        <_>
          4 29 1 6 3.</_></rects>
      <tilted>0</tilted></_>
    <_>
      <rects>
        <_>
          4 3 3 24 -1.</_>
        <_>
          5 3 1 24 3.</_></rects>
      <tilted>0</tilted></_>
    <_>
      <rects>
        <_>
          4 3 15 4 -1.</_>
        <_>
          9 3 5 4 3.</_></rects>
      <tilted>0</tilted></_>
    <_>
      <rects>
        <_>
          4 5 15 5 -1.</_>
        <_>
          9 5 5 5 3.</_></rects>
      <tilted>0</tilted></_>
    <_>
      <rects>
        <_>
          4 10 12 18 -1.</_>
        <_>
          4 19 12 9 2.</_></rects>
      <tilted>0</tilted></_>
    <_>
      <rects>
        <_>
          5 7 9 26 -1.</_>
        <_>
          5 20 9 13 2.</_></rects>
      <tilted>0</tilted></_>
    <_>
      <rects>
        <_>
          5 19 8 15 -1.</_>
        <_>
          9 19 4 15 2.</_></rects>
      <tilted>0</tilted></_>
    <_>
      <rects>
        <_>
          5 19 12 8 -1.</_>
        <_>
          11 19 6 8 2.</_></rects>
      <tilted>0</tilted></_>
    <_>
      <rects>
        <_>
          6 3 2 8 -1.</_>
        <_>
          6 3 1 4 2.</_>
        <_>
          7 7 1 4 2.</_></rects>
      <tilted>0</tilted></_>
    <_>
      <rects>
        <_>
          6 6 9 36 -1.</_>
        <_>
          6 24 9 18 2.</_></rects>
      <tilted>0</tilted></_>
    <_>
      <rects>
        <_>
          6 9 8 26 -1.</_>
        <_>
          6 22 8 13 2.</_></rects>
      <tilted>0</tilted></_>
    <_>
      <rects>
        <_>
          6 23 2 4 -1.</_>
        <_>
          6 23 1 2 2.</_>
        <_>
          7 25 1 2 2.</_></rects>
      <tilted>0</tilted></_>
    <_>
      <rects>
        <_>
          7 14 3 9 -1.</_>
        <_>
          8 14 1 9 3.</_></rects>
      <tilted>0</tilted></_>
    <_>
      <rects>
        <_>
          7 15 9 27 -1.</_>
        <_>
          7 24 9 9 3.</_></rects>
      <tilted>0</tilted></_>
    <_>
      <rects>
        <_>
          7 29 1 2 -1.</_>
        <_>
          7 30 1 1 2.</_></rects>
      <tilted>0</tilted></_>
    <_>
      <rects>
        <_>
          8 1 3 2 -1.</_>
        <_>
          9 1 1 2 3.</_></rects>
      <tilted>0</tilted></_>
    <_>
      <rects>
        <_>
          8 9 10 27 -1.</_>
        <_>
          8 18 10 9 3.</_></rects>
      <tilted>0</tilted></_>
    <_>
      <rects>
        <_>
          8 17 4 18 -1.</_>
        <_>
          8 23 4 6 3.</_></rects>
      <tilted>0</tilted></_>
    <_>
      <rects>
        <_>
          8 18 10 3 -1.</_>
        <_>
          8 19 10 1 3.</_></rects>
      <tilted>0</tilted></_>
    <_>
      <rects>
        <_>
          8 24 2 4 -1.</_>
        <_>
          8 26 2 2 2.</_></rects>
      <tilted>0</tilted></_>
    <_>
      <rects>
        <_>
          8 24 2 10 -1.</_>
        <_>
          8 29 2 5 2.</_></rects>
      <tilted>0</tilted></_>
    <_>
      <rects>
        <_>
          8 29 2 3 -1.</_>
        <_>
          8 30 2 1 3.</_></rects>
      <tilted>0</tilted></_>
    <_>
      <rects>
        <_>
          8 31 2 1 -1.</_>
        <_>
          9 31 1 1 2.</_></rects>
      <tilted>0</tilted></_>
    <_>
      <rects>
        <_>
          9 10 6 30 -1.</_>
        <_>
          9 20 6 10 3.</_></rects>
      <tilted>0</tilted></_>
    <_>
      <rects>
        <_>
          9 11 6 28 -1.</_>
        <_>
          9 25 6 14 2.</_></rects>
      <tilted>0</tilted></_>
    <_>
      <rects>
        <_>
          9 13 4 10 -1.</_>
        <_>
          9 13 2 5 2.</_>
        <_>
          11 18 2 5 2.</_></rects>
      <tilted>0</tilted></_>
    <_>
      <rects>
        <_>
          9 24 1 6 -1.</_>
        <_>
          9 26 1 2 3.</_></rects>
      <tilted>0</tilted></_>
    <_>
      <rects>
        <_>
          9 24 2 2 -1.</_>
        <_>
          9 25 2 1 2.</_></rects>
      <tilted>0</tilted></_>
    <_>
      <rects>
        <_>
          9 24 2 10 -1.</_>
        <_>
          9 29 2 5 2.</_></rects>
      <tilted>0</tilted></_>
    <_>
      <rects>
        <_>
          9 25 1 3 -1.</_>
        <_>
          9 26 1 1 3.</_></rects>
      <tilted>0</tilted></_>
    <_>
      <rects>
        <_>
          9 25 2 8 -1.</_>
        <_>
          9 29 2 4 2.</_></rects>
      <tilted>0</tilted></_>
    <_>
      <rects>
        <_>
          9 26 2 3 -1.</_>
        <_>
          10 26 1 3 2.</_></rects>
      <tilted>0</tilted></_>
    <_>
      <rects>
        <_>
          9 42 1 2 -1.</_>
        <_>
          9 43 1 1 2.</_></rects>
      <tilted>0</tilted></_>
    <_>
      <rects>
        <_>
          10 1 2 2 -1.</_>
        <_>
          11 1 1 2 2.</_></rects>
      <tilted>0</tilted></_>
    <_>
      <rects>
        <_>
          10 1 2 8 -1.</_>
        <_>
          10 1 1 4 2.</_>
        <_>
          11 5 1 4 2.</_></rects>
      <tilted>0</tilted></_>
    <_>
      <rects>
        <_>
          10 23 1 6 -1.</_>
        <_>
          10 26 1 3 2.</_></rects>
      <tilted>0</tilted></_>
    <_>
      <rects>
        <_>
          10 25 1 2 -1.</_>
        <_>
          10 26 1 1 2.</_></rects>
      <tilted>0</tilted></_>
    <_>
      <rects>
        <_>
          10 25 1 6 -1.</_>
        <_>
          10 28 1 3 2.</_></rects>
      <tilted>0</tilted></_>
    <_>
      <rects>
        <_>
          10 26 1 10 -1.</_>
        <_>
          10 31 1 5 2.</_></rects>
      <tilted>0</tilted></_>
    <_>
      <rects>
        <_>
          10 28 1 2 -1.</_>
        <_>
          10 29 1 1 2.</_></rects>
      <tilted>0</tilted></_>
    <_>
      <rects>
        <_>
          11 7 4 30 -1.</_>
        <_>
          11 22 4 15 2.</_></rects>
      <tilted>0</tilted></_>
    <_>
      <rects>
        <_>
          12 13 2 18 -1.</_>
        <_>
          12 13 1 9 2.</_>
        <_>
          13 22 1 9 2.</_></rects>
      <tilted>0</tilted></_>
    <_>
      <rects>
        <_>
          13 4 3 14 -1.</_>
        <_>
          14 4 1 14 3.</_></rects>
      <tilted>0</tilted></_>
    <_>
      <rects>
        <_>
          13 5 2 6 -1.</_>
        <_>
          13 5 1 3 2.</_>
        <_>
          14 8 1 3 2.</_></rects>
      <tilted>0</tilted></_>
    <_>
      <rects>
        <_>
          14 3 3 5 -1.</_>
        <_>
          15 3 1 5 3.</_></rects>
      <tilted>0</tilted></_>
    <_>
      <rects>
        <_>
          14 13 3 11 -1.</_>
        <_>
          15 13 1 11 3.</_></rects>
      <tilted>0</tilted></_>
    <_>
      <rects>
        <_>
          15 7 4 6 -1.</_>
        <_>
          17 7 2 6 2.</_></rects>
      <tilted>0</tilted></_>
    <_>
      <rects>
        <_>
          15 9 2 6 -1.</_>
        <_>
          15 9 1 3 2.</_>
        <_>
          16 12 1 3 2.</_></rects>
      <tilted>0</tilted></_>
    <_>
      <rects>
        <_>
          16 1 4 1 -1.</_>
        <_>
          18 1 2 1 2.</_></rects>
      <tilted>0</tilted></_>
    <_>
      <rects>
        <_>
          16 6 3 16 -1.</_>
        <_>
          17 6 1 16 3.</_></rects>
      <tilted>0</tilted></_>
    <_>
      <rects>
        <_>
          16 7 3 12 -1.</_>
        <_>
          17 7 1 12 3.</_></rects>
      <tilted>0</tilted></_>
    <_>
      <rects>
        <_>
          16 13 3 3 -1.</_>
        <_>
          17 13 1 3 3.</_></rects>
      <tilted>0</tilted></_>
    <_>
      <rects>
        <_>
          16 20 3 6 -1.</_>
        <_>
          16 22 3 2 3.</_></rects>
      <tilted>0</tilted></_>
    <_>
      <rects>
        <_>
          17 35 3 1 -1.</_>
        <_>
          18 35 1 1 3.</_></rects>
      <tilted>0</tilted></_></features></cascade>
</opencv_storage>
