<?xml version="1.0"?>
<opencv_storage>
<myhaar type_id="opencv-haar-classifier">
  <size>
    24 24</size>
  <stages>
    <_>
      <trees>
        <_>
          <_>
            <feature>
              <rects>
                <_>
                  5 2 13 9 -1.</_>
                <_>
                  5 5 13 3 3.</_></rects>
              <tilted>0</tilted></feature>
            <threshold>0.0287057496607304</threshold>
            <left_val>-1.</left_val>
            <right_val>0.7345129251480103</right_val></_></_></trees>
      <stage_threshold>0.7345129251480103</stage_threshold>
      <parent>-1</parent>
      <next>-1</next></_>
    <_>
      <trees>
        <_>
          <_>
            <feature>
              <rects>
                <_>
                  0 8 23 12 -1.</_>
                <_>
                  0 12 23 4 3.</_></rects>
              <tilted>0</tilted></feature>
            <threshold>0.0632303506135941</threshold>
            <left_val>-0.8617771267890930</left_val>
            <right_val>0.8028904795646668</right_val></_></_>
        <_>
          <_>
            <feature>
              <rects>
                <_>
                  3 20 21 3 -1.</_>
                <_>
                  10 21 7 1 9.</_></rects>
              <tilted>0</tilted></feature>
            <threshold>0.0106862103566527</threshold>
            <left_val>-0.7549871206283569</left_val>
            <right_val>0.4847132861614227</right_val></_></_></trees>
      <stage_threshold>-0.3770638108253479</stage_threshold>
      <parent>0</parent>
      <next>-1</next></_>
    <_>
      <trees>
        <_>
          <_>
            <feature>
              <rects>
                <_>
                  0 1 16 19 -1.</_>
                <_>
                  4 1 8 19 2.</_></rects>
              <tilted>0</tilted></feature>
            <threshold>0.0514620989561081</threshold>
            <left_val>-1.</left_val>
            <right_val>0.6896548867225647</right_val></_></_></trees>
      <stage_threshold>0.6896548867225647</stage_threshold>
      <parent>1</parent>
      <next>-1</next></_>
    <_>
      <trees>
        <_>
          <_>
            <feature>
              <rects>
                <_>
                  1 9 12 4 -1.</_>
                <_>
                  5 9 4 4 3.</_></rects>
              <tilted>0</tilted></feature>
            <threshold>-0.0148216802626848</threshold>
            <left_val>0.8578199148178101</left_val>
            <right_val>-0.8660287261009216</right_val></_></_>
        <_>
          <_>
            <feature>
              <rects>
                <_>
                  11 11 2 6 -1.</_>
                <_>
                  11 14 2 3 2.</_></rects>
              <tilted>0</tilted></feature>
            <threshold>-1.7773479921743274e-003</threshold>
            <left_val>0.7318114042282105</left_val>
            <right_val>-1.0000029802322388</right_val></_></_></trees>
      <stage_threshold>-0.1342173069715500</stage_threshold>
      <parent>2</parent>
      <next>-1</next></_>
    <_>
      <trees>
        <_>
          <_>
            <feature>
              <rects>
                <_>
                  1 9 12 4 -1.</_>
                <_>
                  5 9 4 4 3.</_></rects>
              <tilted>0</tilted></feature>
            <threshold>-0.0160991996526718</threshold>
            <left_val>0.8391420841217041</left_val>
            <right_val>-0.8646408915519714</right_val></_></_>
        <_>
          <_>
            <feature>
              <rects>
                <_>
                  15 10 3 2 -1.</_>
                <_>
                  16 10 1 2 3.</_></rects>
              <tilted>0</tilted></feature>
            <threshold>4.7075349721126258e-004</threshold>
            <left_val>0.3188203871250153</left_val>
            <right_val>-0.9999998807907105</right_val></_></_>
        <_>
          <_>
            <feature>
              <rects>
                <_>
                  2 12 8 1 -1.</_>
                <_>
                  6 12 4 1 2.</_></rects>
              <tilted>0</tilted></feature>
            <threshold>1.8014289671555161e-003</threshold>
            <left_val>0.5378376245498657</left_val>
            <right_val>-1.</right_val></_></_></trees>
      <stage_threshold>-7.9829096794128418e-003</stage_threshold>
      <parent>3</parent>
      <next>-1</next></_>
    <_>
      <trees>
        <_>
          <_>
            <feature>
              <rects>
                <_>
                  9 6 3 6 -1.</_>
                <_>
                  7 8 3 2 3.</_></rects>
              <tilted>1</tilted></feature>
            <threshold>-0.0218850504606962</threshold>
            <left_val>0.7511168718338013</left_val>
            <right_val>-0.8572468757629395</right_val></_></_>
        <_>
          <_>
            <feature>
              <rects>
                <_>
                  0 2 24 17 -1.</_>
                <_>
                  8 2 8 17 3.</_></rects>
              <tilted>0</tilted></feature>
            <threshold>0.2851373851299286</threshold>
            <left_val>-0.6540443897247315</left_val>
            <right_val>0.8166462182998657</right_val></_></_></trees>
      <stage_threshold>-0.0406007207930088</stage_threshold>
      <parent>4</parent>
      <next>-1</next></_>
    <_>
      <trees>
        <_>
          <_>
            <feature>
              <rects>
                <_>
                  0 5 6 14 -1.</_>
                <_>
                  2 5 2 14 3.</_></rects>
              <tilted>0</tilted></feature>
            <threshold>0.0108537403866649</threshold>
            <left_val>-0.8377482891082764</left_val>
            <right_val>0.5842953920364380</right_val></_></_>
        <_>
          <_>
            <feature>
              <rects>
                <_>
                  14 18 2 4 -1.</_>
                <_>
                  13 19 2 2 2.</_></rects>
              <tilted>1</tilted></feature>
            <threshold>-2.4348939768970013e-003</threshold>
            <left_val>-1.</left_val>
            <right_val>0.1257645040750504</right_val></_></_>
        <_>
          <_>
            <feature>
              <rects>
                <_>
                  3 11 3 6 -1.</_>
                <_>
                  4 13 1 2 9.</_></rects>
              <tilted>0</tilted></feature>
            <threshold>0.0105625502765179</threshold>
            <left_val>-0.7038887739181519</left_val>
            <right_val>0.7573425173759460</right_val></_></_></trees>
      <stage_threshold>6.1711068265140057e-003</stage_threshold>
      <parent>5</parent>
      <next>-1</next></_>
    <_>
      <trees>
        <_>
          <_>
            <feature>
              <rects>
                <_>
                  10 5 3 8 -1.</_>
                <_>
                  11 6 1 8 3.</_></rects>
              <tilted>1</tilted></feature>
            <threshold>-5.1537971012294292e-004</threshold>
            <left_val>0.4848484098911285</left_val>
            <right_val>-1.</right_val></_></_></trees>
      <stage_threshold>0.4848484098911285</stage_threshold>
      <parent>6</parent>
      <next>-1</next></_>
    <_>
      <trees>
        <_>
          <_>
            <feature>
              <rects>
                <_>
                  5 3 14 3 -1.</_>
                <_>
                  5 4 14 1 3.</_></rects>
              <tilted>0</tilted></feature>
            <threshold>1.8850280321203172e-004</threshold>
            <left_val>-1.</left_val>
            <right_val>0.4626863896846771</right_val></_></_></trees>
      <stage_threshold>0.4626863896846771</stage_threshold>
      <parent>7</parent>
      <next>-1</next></_>
    <_>
      <trees>
        <_>
          <_>
            <feature>
              <rects>
                <_>
                  4 2 14 10 -1.</_>
                <_>
                  4 2 7 5 2.</_>
                <_>
                  11 7 7 5 2.</_></rects>
              <tilted>0</tilted></feature>
            <threshold>0.0192334502935410</threshold>
            <left_val>0.4848484992980957</left_val>
            <right_val>-1.</right_val></_></_></trees>
      <stage_threshold>0.4848484992980957</stage_threshold>
      <parent>8</parent>
      <next>-1</next></_>
    <_>
      <trees>
        <_>
          <_>
            <feature>
              <rects>
                <_>
                  4 6 16 16 -1.</_>
                <_>
                  4 6 8 8 2.</_>
                <_>
                  12 14 8 8 2.</_></rects>
              <tilted>0</tilted></feature>
            <threshold>6.7476178519427776e-003</threshold>
            <left_val>0.4411765038967133</left_val>
            <right_val>-1.</right_val></_></_></trees>
      <stage_threshold>0.4411765038967133</stage_threshold>
      <parent>9</parent>
      <next>-1</next></_></stages></myhaar>
</opencv_storage>
