<?xml version="1.0"?>
<opencv_storage>
<cascade>
  <stageType>BOOST</stageType>
  <featureType>HAAR</featureType>
  <height>75</height>
  <width>50</width>
  <stageParams>
    <boostType>GAB</boostType>
    <minHitRate>9.9500000476837158e-01</minHitRate>
    <maxFalseAlarm>5.0000000000000000e-01</maxFalseAlarm>
    <weightTrimRate>9.4999999999999996e-01</weightTrimRate>
    <maxDepth>1</maxDepth>
    <maxWeakCount>100</maxWeakCount></stageParams>
  <featureParams>
    <maxCatCount>0</maxCatCount>
    <featSize>1</featSize>
    <mode>BASIC</mode></featureParams>
  <stageNum>6</stageNum>
  <stages>
    <!-- stage 0 -->
    <_>
      <maxWeakCount>1</maxWeakCount>
      <stageThreshold>6.5079367160797119e-01</stageThreshold>
      <weakClassifiers>
        <_>
          <internalNodes>
            0 -1 4 -4.6568573452532291e-03</internalNodes>
          <leafValues>
            6.5079367160797119e-01 -1.</leafValues></_></weakClassifiers></_>
    <!-- stage 1 -->
    <_>
      <maxWeakCount>2</maxWeakCount>
      <stageThreshold>-3.0083188414573669e-01</stageThreshold>
      <weakClassifiers>
        <_>
          <internalNodes>
            0 -1 0 1.7085080966353416e-02</internalNodes>
          <leafValues>
            -8.8235294818878174e-01 6.6386556625366211e-01</leafValues></_>
        <_>
          <internalNodes>
            0 -1 5 -2.1044608729425818e-04</internalNodes>
          <leafValues>
            6.1799830198287964e-01 -9.6469742059707642e-01</leafValues></_></weakClassifiers></_>
    <!-- stage 2 -->
    <_>
      <maxWeakCount>1</maxWeakCount>
      <stageThreshold>6.5079367160797119e-01</stageThreshold>
      <weakClassifiers>
        <_>
          <internalNodes>
            0 -1 7 -2.0479793602135032e-04</internalNodes>
          <leafValues>
            -1. 6.5079367160797119e-01</leafValues></_></weakClassifiers></_>
    <!-- stage 3 -->
    <_>
      <maxWeakCount>2</maxWeakCount>
      <stageThreshold>-4.0420773625373840e-01</stageThreshold>
      <weakClassifiers>
        <_>
          <internalNodes>
            0 -1 8 1.1077286908403039e-03</internalNodes>
          <leafValues>
            8.2300883531570435e-01 -9.7802197933197021e-01</leafValues></_>
        <_>
          <internalNodes>
            0 -1 6 5.1230564713478088e-04</internalNodes>
          <leafValues>
            5.7381421327590942e-01 -9.8013466596603394e-01</leafValues></_></weakClassifiers></_>
    <!-- stage 4 -->
    <_>
      <maxWeakCount>1</maxWeakCount>
      <stageThreshold>5.6390976905822754e-01</stageThreshold>
      <weakClassifiers>
        <_>
          <internalNodes>
            0 -1 2 -3.2089900923892856e-04</internalNodes>
          <leafValues>
            -1. 5.6390976905822754e-01</leafValues></_></weakClassifiers></_>
    <!-- stage 5 -->
    <_>
      <maxWeakCount>2</maxWeakCount>
      <stageThreshold>-3.3856290578842163e-01</stageThreshold>
      <weakClassifiers>
        <_>
          <internalNodes>
            0 -1 3 5.1857845392078161e-04</internalNodes>
          <leafValues>
            7.4358975887298584e-01 -9.5402300357818604e-01</leafValues></_>
        <_>
          <internalNodes>
            0 -1 1 -2.7990821399725974e-04</internalNodes>
          <leafValues>
            -9.2939805984497070e-01 6.1546009778976440e-01</leafValues></_></weakClassifiers></_></stages>
  <features>
    <_>
      <rects>
        <_>
          12 19 22 54 -1.</_>
        <_>
          12 37 22 18 3.</_></rects>
      <tilted>0</tilted></_>
    <_>
      <rects>
        <_>
          13 44 19 9 -1.</_>
        <_>
          13 47 19 3 3.</_></rects>
      <tilted>0</tilted></_>
    <_>
      <rects>
        <_>
          14 28 2 15 -1.</_>
        <_>
          14 33 2 5 3.</_></rects>
      <tilted>0</tilted></_>
    <_>
      <rects>
        <_>
          15 28 4 15 -1.</_>
        <_>
          15 33 4 5 3.</_></rects>
      <tilted>0</tilted></_>
    <_>
      <rects>
        <_>
          17 25 10 18 -1.</_>
        <_>
          22 25 5 18 2.</_></rects>
      <tilted>0</tilted></_>
    <_>
      <rects>
        <_>
          32 32 6 4 -1.</_>
        <_>
          35 32 3 4 2.</_></rects>
      <tilted>0</tilted></_>
    <_>
      <rects>
        <_>
          33 31 4 15 -1.</_>
        <_>
          33 36 4 5 3.</_></rects>
      <tilted>0</tilted></_>
    <_>
      <rects>
        <_>
          34 28 3 24 -1.</_>
        <_>
          34 36 3 8 3.</_></rects>
      <tilted>0</tilted></_>
    <_>
      <rects>
        <_>
          34 30 3 21 -1.</_>
        <_>
          34 37 3 7 3.</_></rects>
      <tilted>0</tilted></_></features></cascade>
</opencv_storage>
