<?xml version="1.0"?>
<opencv_storage>
<stage1>
  <maxWeakCount>9</maxWeakCount>
  <stageThreshold>-7.4360448122024536e-01</stageThreshold>
  <weakClassifiers>
    <_>
      <internalNodes>
        0 -1 2297280 -5.6762679014354944e-04</internalNodes>
      <leafValues>
        -8.1250000000000000e-01 1.5476191043853760e-01</leafValues></_>
    <_>
      <internalNodes>
        0 -1 3142346 7.5212400406599045e-04</internalNodes>
      <leafValues>
        1.1871824413537979e-01 -7.5803035497665405e-01</leafValues></_>
    <_>
      <internalNodes>
        0 -1 81341 3.1554836779832840e-02</internalNodes>
      <leafValues>
        2.2503092885017395e-01 -5.2478015422821045e-01</leafValues></_>
    <_>
      <internalNodes>
        0 -1 6767759 1.4239252777770162e-04</internalNodes>
      <leafValues>
        1.6208326816558838e-01 -8.3247387409210205e-01</leafValues></_>
    <_>
      <internalNodes>
        0 -1 1287124 1.2421731371432543e-03</internalNodes>
      <leafValues>
        -1.8135976791381836e-01 8.1252658367156982e-01</leafValues></_>
    <_>
      <internalNodes>
        0 -1 6461988 -7.6803284173365682e-05</internalNodes>
      <leafValues>
        -5.4034715890884399e-01 2.1604898571968079e-01</leafValues></_>
    <_>
      <internalNodes>
        0 -1 5642667 -1.5727464051451534e-04</internalNodes>
      <leafValues>
        -7.4426752328872681e-01 1.7290925979614258e-01</leafValues></_>
    <_>
      <internalNodes>
        0 -1 5350852 -4.3217241764068604e-03</internalNodes>
      <leafValues>
        8.3811199665069580e-01 -1.7796128988265991e-01</leafValues></_>
    <_>
      <internalNodes>
        0 -1 2175227 2.8655344620347023e-02</internalNodes>
      <leafValues>
        2.3973692953586578e-01 -5.7506233453750610e-01</leafValues></_></weakClassifiers></stage1>
</opencv_storage>
