<?xml version="1.0"?>
<opencv_storage>
<!-- Automatically converted from guitarcascade_140519D_Alt, window size = 80x30 -->
<guitarcascade-inter_140519D_Alt_140528 type_id="opencv-haar-classifier">
  <size>
    80 30</size>
  <stages>
    <_>
      <!-- stage 0 -->
      <trees>
        <_>
          <!-- tree 0 -->
          <_>
            <!-- root node -->
            <feature>
              <rects>
                <_>
                  13 2 12 14 -1.</_>
                <_>
                  13 9 12 7 2.</_></rects>
              <tilted>0</tilted></feature>
            <threshold>6.7455787211656570e-004</threshold>
            <left_node>1</left_node>
            <right_val>1.0000040531158447</right_val></_>
          <_>
            <!-- node 1 -->
            <feature>
              <rects>
                <_>
                  13 12 23 12 -1.</_>
                <_>
                  13 18 23 6 2.</_></rects>
              <tilted>0</tilted></feature>
            <threshold>9.5336548984050751e-003</threshold>
            <left_val>-0.9531251192092896</left_val>
            <right_val>1.0000009536743164</right_val></_></_>
        <_>
          <!-- tree 1 -->
          <_>
            <!-- root node -->
            <feature>
              <rects>
                <_>
                  18 1 12 3 -1.</_>
                <_>
                  18 1 6 3 2.</_></rects>
              <tilted>1</tilted></feature>
            <threshold>-2.9449560679495335e-003</threshold>
            <left_val>1.</left_val>
            <right_node>1</right_node></_>
          <_>
            <!-- node 1 -->
            <feature>
              <rects>
                <_>
                  20 12 24 12 -1.</_>
                <_>
                  20 18 24 6 2.</_></rects>
              <tilted>0</tilted></feature>
            <threshold>4.2971568182110786e-003</threshold>
            <left_val>-0.9401596784591675</left_val>
            <right_val>0.8922315239906311</right_val></_></_></trees>
      <stage_threshold>0.0468749403953552</stage_threshold>
      <parent>-1</parent>
      <next>-1</next></_>
    <_>
      <!-- stage 1 -->
      <trees>
        <_>
          <!-- tree 0 -->
          <_>
            <!-- root node -->
            <feature>
              <rects>
                <_>
                  7 0 28 30 -1.</_>
                <_>
                  14 0 14 30 2.</_></rects>
              <tilted>0</tilted></feature>
            <threshold>0.0228168107569218</threshold>
            <left_node>1</left_node>
            <right_val>0.7405210137367249</right_val></_>
          <_>
            <!-- node 1 -->
            <feature>
              <rects>
                <_>
                  23 9 57 6 -1.</_>
                <_>
                  42 9 19 6 3.</_></rects>
              <tilted>0</tilted></feature>
            <threshold>0.0463147498667240</threshold>
            <left_val>-0.8918917775154114</left_val>
            <right_val>0.9999967813491821</right_val></_></_>
        <_>
          <!-- tree 1 -->
          <_>
            <!-- root node -->
            <feature>
              <rects>
                <_>
                  35 4 5 14 -1.</_>
                <_>
                  35 4 5 7 2.</_></rects>
              <tilted>1</tilted></feature>
            <threshold>-1.5856520039960742e-003</threshold>
            <left_val>0.6641216874122620</left_val>
            <right_node>1</right_node></_>
          <_>
            <!-- node 1 -->
            <feature>
              <rects>
                <_>
                  31 1 10 12 -1.</_>
                <_>
                  36 1 5 12 2.</_></rects>
              <tilted>0</tilted></feature>
            <threshold>0.0124278198927641</threshold>
            <left_val>-0.9566736817359924</left_val>
            <right_val>1.0000020265579224</right_val></_></_>
        <_>
          <!-- tree 2 -->
          <_>
            <!-- root node -->
            <feature>
              <rects>
                <_>
                  11 12 24 2 -1.</_>
                <_>
                  17 12 12 2 2.</_></rects>
              <tilted>0</tilted></feature>
            <threshold>3.1417729333043098e-003</threshold>
            <left_node>1</left_node>
            <right_val>0.5727704763412476</right_val></_>
          <_>
            <!-- node 1 -->
            <feature>
              <rects>
                <_>
                  22 9 56 7 -1.</_>
                <_>
                  36 9 28 7 2.</_></rects>
              <tilted>0</tilted></feature>
            <threshold>0.0273686498403549</threshold>
            <left_val>-0.8673728108406067</left_val>
            <right_val>0.9374502897262573</right_val></_></_>
        <_>
          <!-- tree 3 -->
          <_>
            <!-- root node -->
            <feature>
              <rects>
                <_>
                  29 0 10 10 -1.</_>
                <_>
                  29 0 5 5 2.</_>
                <_>
                  34 5 5 5 2.</_></rects>
              <tilted>0</tilted></feature>
            <threshold>-1.4133719960227609e-003</threshold>
            <left_val>0.7748097777366638</left_val>
            <right_node>1</right_node></_>
          <_>
            <!-- node 1 -->
            <feature>
              <rects>
                <_>
                  13 7 40 6 -1.</_>
                <_>
                  13 7 20 3 2.</_>
                <_>
                  33 10 20 3 2.</_></rects>
              <tilted>0</tilted></feature>
            <threshold>7.9460786655545235e-003</threshold>
            <left_val>-1.</left_val>
            <right_val>1.0000230073928833</right_val></_></_></trees>
      <stage_threshold>-0.3203330039978027</stage_threshold>
      <parent>0</parent>
      <next>-1</next></_>
    <_>
      <!-- stage 2 -->
      <trees>
        <_>
          <!-- tree 0 -->
          <_>
            <!-- root node -->
            <feature>
              <rects>
                <_>
                  8 3 12 24 -1.</_>
                <_>
                  14 3 6 24 2.</_></rects>
              <tilted>0</tilted></feature>
            <threshold>0.0131824398413301</threshold>
            <left_node>1</left_node>
            <right_val>0.8283287882804871</right_val></_>
          <_>
            <!-- node 1 -->
            <feature>
              <rects>
                <_>
                  32 3 2 8 -1.</_>
                <_>
                  32 3 2 4 2.</_></rects>
              <tilted>1</tilted></feature>
            <threshold>-3.8442988879978657e-003</threshold>
            <left_val>1.</left_val>
            <right_val>-0.8297880291938782</right_val></_></_>
        <_>
          <!-- tree 1 -->
          <_>
            <!-- root node -->
            <feature>
              <rects>
                <_>
                  8 6 28 20 -1.</_>
                <_>
                  15 6 14 20 2.</_></rects>
              <tilted>0</tilted></feature>
            <threshold>0.0116105200722814</threshold>
            <left_val>-0.9687585234642029</left_val>
            <right_node>1</right_node></_>
          <_>
            <!-- node 1 -->
            <feature>
              <rects>
                <_>
                  4 11 52 13 -1.</_>
                <_>
                  17 11 26 13 2.</_></rects>
              <tilted>0</tilted></feature>
            <threshold>6.0885067796334624e-004</threshold>
            <left_val>-0.9409865140914917</left_val>
            <right_val>0.8013445734977722</right_val></_></_>
        <_>
          <!-- tree 2 -->
          <_>
            <!-- root node -->
            <feature>
              <rects>
                <_>
                  28 0 8 20 -1.</_>
                <_>
                  30 2 4 20 2.</_></rects>
              <tilted>1</tilted></feature>
            <threshold>9.1420859098434448e-004</threshold>
            <left_node>1</left_node>
            <right_val>0.6573842167854309</right_val></_>
          <_>
            <!-- node 1 -->
            <feature>
              <rects>
                <_>
                  0 5 26 24 -1.</_>
                <_>
                  0 5 13 12 2.</_>
                <_>
                  13 17 13 12 2.</_></rects>
              <tilted>0</tilted></feature>
            <threshold>0.0737807676196098</threshold>
            <left_val>-1.</left_val>
            <right_val>1.</right_val></_></_>
        <_>
          <!-- tree 3 -->
          <_>
            <!-- root node -->
            <feature>
              <rects>
                <_>
                  8 10 34 12 -1.</_>
                <_>
                  8 10 17 6 2.</_>
                <_>
                  25 16 17 6 2.</_></rects>
              <tilted>0</tilted></feature>
            <threshold>0.0122839901596308</threshold>
            <left_val>-0.9990646839141846</left_val>
            <right_node>1</right_node></_>
          <_>
            <!-- node 1 -->
            <feature>
              <rects>
                <_>
                  33 10 8 16 -1.</_>
                <_>
                  37 10 4 16 2.</_></rects>
              <tilted>0</tilted></feature>
            <threshold>1.0377100261393934e-004</threshold>
            <left_val>-1.</left_val>
            <right_val>0.9999955296516419</right_val></_></_>
        <_>
          <!-- tree 4 -->
          <_>
            <!-- root node -->
            <feature>
              <rects>
                <_>
                  0 0 2 1 -1.</_>
                <_>
                  1 0 1 1 2.</_></rects>
              <tilted>0</tilted></feature>
            <threshold>0.</threshold>
            <left_val>0.</left_val>
            <right_val>-1.</right_val></_></_>
        <_>
          <!-- tree 5 -->
          <_>
            <!-- root node -->
            <feature>
              <rects>
                <_>
                  15 5 18 21 -1.</_>
                <_>
                  21 5 6 21 3.</_></rects>
              <tilted>0</tilted></feature>
            <threshold>3.0073209927650169e-005</threshold>
            <left_node>1</left_node>
            <right_val>1.</right_val></_>
          <_>
            <!-- node 1 -->
            <feature>
              <rects>
                <_>
                  0 0 2 1 -1.</_>
                <_>
                  1 0 1 1 2.</_></rects>
              <tilted>0</tilted></feature>
            <threshold>6.2985582189867273e-006</threshold>
            <left_val>0.</left_val>
            <right_val>1.</right_val></_></_>
        <_>
          <!-- tree 6 -->
          <_>
            <!-- root node -->
            <feature>
              <rects>
                <_>
                  0 0 2 1 -1.</_>
                <_>
                  1 0 1 1 2.</_></rects>
              <tilted>0</tilted></feature>
            <threshold>0.</threshold>
            <left_val>0.</left_val>
            <right_val>-1.</right_val></_></_>
        <_>
          <!-- tree 7 -->
          <_>
            <!-- root node -->
            <feature>
              <rects>
                <_>
                  16 10 16 16 -1.</_>
                <_>
                  20 10 8 16 2.</_></rects>
              <tilted>0</tilted></feature>
            <threshold>3.7090291152708232e-004</threshold>
            <left_node>1</left_node>
            <right_val>0.8899335861206055</right_val></_>
          <_>
            <!-- node 1 -->
            <feature>
              <rects>
                <_>
                  0 0 2 1 -1.</_>
                <_>
                  1 0 1 1 2.</_></rects>
              <tilted>0</tilted></feature>
            <threshold>-4.2499021219555289e-005</threshold>
            <left_val>-1.</left_val>
            <right_val>0.9999998807907105</right_val></_></_>
        <_>
          <!-- tree 8 -->
          <_>
            <!-- root node -->
            <feature>
              <rects>
                <_>
                  0 0 2 1 -1.</_>
                <_>
                  1 0 1 1 2.</_></rects>
              <tilted>0</tilted></feature>
            <threshold>0.</threshold>
            <left_val>0.</left_val>
            <right_val>-1.</right_val></_></_>
        <_>
          <!-- tree 9 -->
          <_>
            <!-- root node -->
            <feature>
              <rects>
                <_>
                  29 0 11 16 -1.</_>
                <_>
                  29 0 11 8 2.</_></rects>
              <tilted>1</tilted></feature>
            <threshold>-3.6702919169329107e-004</threshold>
            <left_node>1</left_node>
            <right_val>-0.9839056134223938</right_val></_>
          <_>
            <!-- node 1 -->
            <feature>
              <rects>
                <_>
                  47 5 20 3 -1.</_>
                <_>
                  46 6 20 1 3.</_></rects>
              <tilted>1</tilted></feature>
            <threshold>2.3628689814358950e-003</threshold>
            <left_val>1.</left_val>
            <right_val>-0.9999982118606567</right_val></_></_>
        <_>
          <!-- tree 10 -->
          <_>
            <!-- root node -->
            <feature>
              <rects>
                <_>
                  8 9 30 7 -1.</_>
                <_>
                  18 9 10 7 3.</_></rects>
              <tilted>0</tilted></feature>
            <threshold>2.5764899328351021e-004</threshold>
            <left_node>1</left_node>
            <right_val>0.9030308723449707</right_val></_>
          <_>
            <!-- node 1 -->
            <feature>
              <rects>
                <_>
                  0 0 2 1 -1.</_>
                <_>
                  1 0 1 1 2.</_></rects>
              <tilted>0</tilted></feature>
            <threshold>-2.5576740881660953e-005</threshold>
            <left_val>-1.</left_val>
            <right_val>1.</right_val></_></_>
        <_>
          <!-- tree 11 -->
          <_>
            <!-- root node -->
            <feature>
              <rects>
                <_>
                  0 3 30 26 -1.</_>
                <_>
                  0 3 15 13 2.</_>
                <_>
                  15 16 15 13 2.</_></rects>
              <tilted>0</tilted></feature>
            <threshold>-0.0256100501865149</threshold>
            <left_val>1.</left_val>
            <right_node>1</right_node></_>
          <_>
            <!-- node 1 -->
            <feature>
              <rects>
                <_>
                  0 0 2 1 -1.</_>
                <_>
                  1 0 1 1 2.</_></rects>
              <tilted>0</tilted></feature>
            <threshold>-1.1579790152609348e-003</threshold>
            <left_val>0.</left_val>
            <right_val>-1.</right_val></_></_></trees>
      <stage_threshold>-0.6623116731643677</stage_threshold>
      <parent>1</parent>
      <next>-1</next></_>
    <_>
      <!-- stage 3 -->
      <trees>
        <_>
          <!-- tree 0 -->
          <_>
            <!-- root node -->
            <feature>
              <rects>
                <_>
                  7 2 12 28 -1.</_>
                <_>
                  13 2 6 28 2.</_></rects>
              <tilted>0</tilted></feature>
            <threshold>0.0149953197687864</threshold>
            <left_node>1</left_node>
            <right_val>0.6747987270355225</right_val></_>
          <_>
            <!-- node 1 -->
            <feature>
              <rects>
                <_>
                  21 4 16 2 -1.</_>
                <_>
                  21 5 16 1 2.</_></rects>
              <tilted>0</tilted></feature>
            <threshold>7.1982608642429113e-004</threshold>
            <left_val>-0.8750001192092896</left_val>
            <right_val>0.5833305120468140</right_val></_></_>
        <_>
          <!-- tree 1 -->
          <_>
            <!-- root node -->
            <feature>
              <rects>
                <_>
                  19 1 18 20 -1.</_>
                <_>
                  19 11 18 10 2.</_></rects>
              <tilted>0</tilted></feature>
            <threshold>0.0244303308427334</threshold>
            <left_node>1</left_node>
            <right_val>0.7209448218345642</right_val></_>
          <_>
            <!-- node 1 -->
            <feature>
              <rects>
                <_>
                  11 2 58 18 -1.</_>
                <_>
                  11 2 29 9 2.</_>
                <_>
                  40 11 29 9 2.</_></rects>
              <tilted>0</tilted></feature>
            <threshold>0.0356526300311089</threshold>
            <left_val>-0.7328295111656189</left_val>
            <right_val>0.9146388173103333</right_val></_></_>
        <_>
          <!-- tree 2 -->
          <_>
            <!-- root node -->
            <feature>
              <rects>
                <_>
                  67 7 6 15 -1.</_>
                <_>
                  70 7 3 15 2.</_></rects>
              <tilted>0</tilted></feature>
            <threshold>-3.6067809560336173e-004</threshold>
            <left_val>0.5731528997421265</left_val>
            <right_node>1</right_node></_>
          <_>
            <!-- node 1 -->
            <feature>
              <rects>
                <_>
                  2 1 72 5 -1.</_>
                <_>
                  38 1 36 5 2.</_></rects>
              <tilted>0</tilted></feature>
            <threshold>0.0853021368384361</threshold>
            <left_val>-0.9639484882354736</left_val>
            <right_val>0.8598834872245789</right_val></_></_>
        <_>
          <!-- tree 3 -->
          <_>
            <!-- root node -->
            <feature>
              <rects>
                <_>
                  0 2 27 22 -1.</_>
                <_>
                  0 13 27 11 2.</_></rects>
              <tilted>0</tilted></feature>
            <threshold>0.0323221608996391</threshold>
            <left_node>1</left_node>
            <right_val>0.6202576160430908</right_val></_>
          <_>
            <!-- node 1 -->
            <feature>
              <rects>
                <_>
                  17 23 18 2 -1.</_>
                <_>
                  17 24 18 1 2.</_></rects>
              <tilted>0</tilted></feature>
            <threshold>-1.1341259814798832e-003</threshold>
            <left_val>1.</left_val>
            <right_val>-0.9833648204803467</right_val></_></_>
        <_>
          <!-- tree 4 -->
          <_>
            <!-- root node -->
            <feature>
              <rects>
                <_>
                  6 7 32 3 -1.</_>
                <_>
                  14 7 16 3 2.</_></rects>
              <tilted>0</tilted></feature>
            <threshold>8.3488668315112591e-004</threshold>
            <left_val>-1.</left_val>
            <right_node>1</right_node></_>
          <_>
            <!-- node 1 -->
            <feature>
              <rects>
                <_>
                  0 0 20 24 -1.</_>
                <_>
                  5 0 10 24 2.</_></rects>
              <tilted>0</tilted></feature>
            <threshold>-1.1917549418285489e-003</threshold>
            <left_val>1.</left_val>
            <right_val>-1.</right_val></_></_>
        <_>
          <!-- tree 5 -->
          <_>
            <!-- root node -->
            <feature>
              <rects>
                <_>
                  20 15 4 5 -1.</_>
                <_>
                  22 15 2 5 2.</_></rects>
              <tilted>0</tilted></feature>
            <threshold>8.0213958426611498e-006</threshold>
            <left_node>1</left_node>
            <right_val>0.8000640273094177</right_val></_>
          <_>
            <!-- node 1 -->
            <feature>
              <rects>
                <_>
                  0 5 24 14 -1.</_>
                <_>
                  0 5 12 7 2.</_>
                <_>
                  12 12 12 7 2.</_></rects>
              <tilted>0</tilted></feature>
            <threshold>0.0456798188388348</threshold>
            <left_val>-1.</left_val>
            <right_val>1.0000029802322388</right_val></_></_>
        <_>
          <!-- tree 6 -->
          <_>
            <!-- root node -->
            <feature>
              <rects>
                <_>
                  0 0 2 1 -1.</_>
                <_>
                  1 0 1 1 2.</_></rects>
              <tilted>0</tilted></feature>
            <threshold>0.</threshold>
            <left_val>0.</left_val>
            <right_val>-1.</right_val></_></_>
        <_>
          <!-- tree 7 -->
          <_>
            <!-- root node -->
            <feature>
              <rects>
                <_>
                  19 8 6 4 -1.</_>
                <_>
                  19 10 6 2 2.</_></rects>
              <tilted>0</tilted></feature>
            <threshold>7.2768839345371816e-006</threshold>
            <left_node>1</left_node>
            <right_val>0.8378608226776123</right_val></_>
          <_>
            <!-- node 1 -->
            <feature>
              <rects>
                <_>
                  0 5 18 3 -1.</_>
                <_>
                  0 6 18 1 3.</_></rects>
              <tilted>0</tilted></feature>
            <threshold>1.4692809781990945e-004</threshold>
            <left_val>-1.</left_val>
            <right_val>1.</right_val></_></_>
        <_>
          <!-- tree 8 -->
          <_>
            <!-- root node -->
            <feature>
              <rects>
                <_>
                  0 0 2 1 -1.</_>
                <_>
                  1 0 1 1 2.</_></rects>
              <tilted>0</tilted></feature>
            <threshold>-2.5147100677713752e-004</threshold>
            <left_val>0.</left_val>
            <right_val>-1.</right_val></_></_>
        <_>
          <!-- tree 9 -->
          <_>
            <!-- root node -->
            <feature>
              <rects>
                <_>
                  25 0 16 30 -1.</_>
                <_>
                  29 0 8 30 2.</_></rects>
              <tilted>0</tilted></feature>
            <threshold>-5.9816869907081127e-005</threshold>
            <left_val>0.9238327741622925</left_val>
            <right_node>1</right_node></_>
          <_>
            <!-- node 1 -->
            <feature>
              <rects>
                <_>
                  0 2 12 5 -1.</_>
                <_>
                  3 2 6 5 2.</_></rects>
              <tilted>0</tilted></feature>
            <threshold>8.8179811427835375e-005</threshold>
            <left_val>-1.</left_val>
            <right_val>1.0000590085983276</right_val></_></_>
        <_>
          <!-- tree 10 -->
          <_>
            <!-- root node -->
            <feature>
              <rects>
                <_>
                  0 0 2 1 -1.</_>
                <_>
                  1 0 1 1 2.</_></rects>
              <tilted>0</tilted></feature>
            <threshold>-8.8913657236844301e-004</threshold>
            <left_val>0.</left_val>
            <right_val>-1.</right_val></_></_>
        <_>
          <!-- tree 11 -->
          <_>
            <!-- root node -->
            <feature>
              <rects>
                <_>
                  7 0 20 30 -1.</_>
                <_>
                  17 0 10 30 2.</_></rects>
              <tilted>0</tilted></feature>
            <threshold>8.7851349962875247e-004</threshold>
            <left_node>1</left_node>
            <right_val>0.9533312916755676</right_val></_>
          <_>
            <!-- node 1 -->
            <feature>
              <rects>
                <_>
                  0 0 2 1 -1.</_>
                <_>
                  1 0 1 1 2.</_></rects>
              <tilted>0</tilted></feature>
            <threshold>2.7812079679279123e-006</threshold>
            <left_val>-1.</left_val>
            <right_val>1.</right_val></_></_>
        <_>
          <!-- tree 12 -->
          <_>
            <!-- root node -->
            <feature>
              <rects>
                <_>
                  0 0 2 14 -1.</_>
                <_>
                  1 0 1 14 2.</_></rects>
              <tilted>0</tilted></feature>
            <threshold>8.1735688581829891e-006</threshold>
            <left_val>-1.</left_val>
            <right_node>1</right_node></_>
          <_>
            <!-- node 1 -->
            <feature>
              <rects>
                <_>
                  0 0 2 14 -1.</_>
                <_>
                  1 0 1 14 2.</_></rects>
              <tilted>0</tilted></feature>
            <threshold>8.1735688581829891e-006</threshold>
            <left_val>-1.</left_val>
            <right_val>1.0000139474868774</right_val></_></_>
        <_>
          <!-- tree 13 -->
          <_>
            <!-- root node -->
            <feature>
              <rects>
                <_>
                  0 0 2 1 -1.</_>
                <_>
                  1 0 1 1 2.</_></rects>
              <tilted>0</tilted></feature>
            <threshold>0.</threshold>
            <left_val>0.</left_val>
            <right_val>-1.</right_val></_></_>
        <_>
          <!-- tree 14 -->
          <_>
            <!-- root node -->
            <feature>
              <rects>
                <_>
                  24 0 18 17 -1.</_>
                <_>
                  30 0 6 17 3.</_></rects>
              <tilted>0</tilted></feature>
            <threshold>-1.4475689386017621e-004</threshold>
            <left_val>1.</left_val>
            <right_node>1</right_node></_>
          <_>
            <!-- node 1 -->
            <feature>
              <rects>
                <_>
                  0 0 4 16 -1.</_>
                <_>
                  0 0 2 8 2.</_>
                <_>
                  2 8 2 8 2.</_></rects>
              <tilted>0</tilted></feature>
            <threshold>2.8343509256956168e-005</threshold>
            <left_val>-1.</left_val>
            <right_val>1.0000640153884888</right_val></_></_>
        <_>
          <!-- tree 15 -->
          <_>
            <!-- root node -->
            <feature>
              <rects>
                <_>
                  0 0 2 1 -1.</_>
                <_>
                  1 0 1 1 2.</_></rects>
              <tilted>0</tilted></feature>
            <threshold>0.</threshold>
            <left_val>0.</left_val>
            <right_val>-1.</right_val></_></_>
        <_>
          <!-- tree 16 -->
          <_>
            <!-- root node -->
            <feature>
              <rects>
                <_>
                  30 6 8 8 -1.</_>
                <_>
                  30 6 8 4 2.</_></rects>
              <tilted>1</tilted></feature>
            <threshold>-8.4354833234101534e-005</threshold>
            <left_val>0.9705408811569214</left_val>
            <right_node>1</right_node></_>
          <_>
            <!-- node 1 -->
            <feature>
              <rects>
                <_>
                  0 7 68 5 -1.</_>
                <_>
                  34 7 34 5 2.</_></rects>
              <tilted>0</tilted></feature>
            <threshold>0.0313699692487717</threshold>
            <left_val>-1.</left_val>
            <right_val>1.0001879930496216</right_val></_></_>
        <_>
          <!-- tree 17 -->
          <_>
            <!-- root node -->
            <feature>
              <rects>
                <_>
                  0 0 2 1 -1.</_>
                <_>
                  1 0 1 1 2.</_></rects>
              <tilted>0</tilted></feature>
            <threshold>0.</threshold>
            <left_val>0.</left_val>
            <right_val>-1.</right_val></_></_>
        <_>
          <!-- tree 18 -->
          <_>
            <!-- root node -->
            <feature>
              <rects>
                <_>
                  15 10 18 15 -1.</_>
                <_>
                  21 10 6 15 3.</_></rects>
              <tilted>0</tilted></feature>
            <threshold>6.0013792244717479e-004</threshold>
            <left_val>-1.</left_val>
            <right_node>1</right_node></_>
          <_>
            <!-- node 1 -->
            <feature>
              <rects>
                <_>
                  47 4 9 14 -1.</_>
                <_>
                  50 7 3 14 3.</_></rects>
              <tilted>1</tilted></feature>
            <threshold>1.7295369616476819e-005</threshold>
            <left_val>-0.9959365725517273</left_val>
            <right_val>0.9999939799308777</right_val></_></_>
        <_>
          <!-- tree 19 -->
          <_>
            <!-- root node -->
            <feature>
              <rects>
                <_>
                  0 0 12 16 -1.</_>
                <_>
                  6 0 6 16 2.</_></rects>
              <tilted>0</tilted></feature>
            <threshold>3.8322089239954948e-003</threshold>
            <left_val>-1.</left_val>
            <right_node>1</right_node></_>
          <_>
            <!-- node 1 -->
            <feature>
              <rects>
                <_>
                  0 0 2 6 -1.</_>
                <_>
                  0 0 1 3 2.</_>
                <_>
                  1 3 1 3 2.</_></rects>
              <tilted>0</tilted></feature>
            <threshold>1.3884810323361307e-004</threshold>
            <left_val>-1.</left_val>
            <right_val>1.0001239776611328</right_val></_></_>
        <_>
          <!-- tree 20 -->
          <_>
            <!-- root node -->
            <feature>
              <rects>
                <_>
                  0 0 3 4 -1.</_>
                <_>
                  1 0 1 4 3.</_></rects>
              <tilted>0</tilted></feature>
            <threshold>6.2228809838416055e-006</threshold>
            <left_val>-1.</left_val>
            <right_val>1.</right_val></_></_>
        <_>
          <!-- tree 21 -->
          <_>
            <!-- root node -->
            <feature>
              <rects>
                <_>
                  0 0 2 1 -1.</_>
                <_>
                  1 0 1 1 2.</_></rects>
              <tilted>0</tilted></feature>
            <threshold>0.</threshold>
            <left_val>0.</left_val>
            <right_val>-1.</right_val></_></_>
        <_>
          <!-- tree 22 -->
          <_>
            <!-- root node -->
            <feature>
              <rects>
                <_>
                  21 6 12 17 -1.</_>
                <_>
                  25 6 4 17 3.</_></rects>
              <tilted>0</tilted></feature>
            <threshold>1.0342629684600979e-004</threshold>
            <left_node>1</left_node>
            <right_val>1.0000009536743164</right_val></_>
          <_>
            <!-- node 1 -->
            <feature>
              <rects>
                <_>
                  0 0 2 1 -1.</_>
                <_>
                  1 0 1 1 2.</_></rects>
              <tilted>0</tilted></feature>
            <threshold>6.1250393628142774e-005</threshold>
            <left_val>0.</left_val>
            <right_val>1.</right_val></_></_>
        <_>
          <!-- tree 23 -->
          <_>
            <!-- root node -->
            <feature>
              <rects>
                <_>
                  0 0 2 1 -1.</_>
                <_>
                  1 0 1 1 2.</_></rects>
              <tilted>0</tilted></feature>
            <threshold>0.</threshold>
            <left_val>0.</left_val>
            <right_val>-1.</right_val></_></_>
        <_>
          <!-- tree 24 -->
          <_>
            <!-- root node -->
            <feature>
              <rects>
                <_>
                  25 11 16 11 -1.</_>
                <_>
                  29 11 8 11 2.</_></rects>
              <tilted>0</tilted></feature>
            <threshold>-4.0671890019439161e-005</threshold>
            <left_val>1.</left_val>
            <right_node>1</right_node></_>
          <_>
            <!-- node 1 -->
            <feature>
              <rects>
                <_>
                  0 0 2 1 -1.</_>
                <_>
                  1 0 1 1 2.</_></rects>
              <tilted>0</tilted></feature>
            <threshold>0.</threshold>
            <left_val>0.</left_val>
            <right_val>-1.</right_val></_></_>
        <_>
          <!-- tree 25 -->
          <_>
            <!-- root node -->
            <feature>
              <rects>
                <_>
                  11 6 8 21 -1.</_>
                <_>
                  15 6 4 21 2.</_></rects>
              <tilted>0</tilted></feature>
            <threshold>2.6537000667303801e-004</threshold>
            <left_node>1</left_node>
            <right_val>0.9461324810981751</right_val></_>
          <_>
            <!-- node 1 -->
            <feature>
              <rects>
                <_>
                  0 0 1 2 -1.</_>
                <_>
                  0 1 1 1 2.</_></rects>
              <tilted>0</tilted></feature>
            <threshold>2.5403901236131787e-004</threshold>
            <left_val>1.</left_val>
            <right_val>-1.</right_val></_></_>
        <_>
          <!-- tree 26 -->
          <_>
            <!-- root node -->
            <feature>
              <rects>
                <_>
                  0 1 17 20 -1.</_>
                <_>
                  0 6 17 10 2.</_></rects>
              <tilted>0</tilted></feature>
            <threshold>0.0143516603857279</threshold>
            <left_val>-1.</left_val>
            <right_node>1</right_node></_>
          <_>
            <!-- node 1 -->
            <feature>
              <rects>
                <_>
                  0 0 2 6 -1.</_>
                <_>
                  0 0 1 3 2.</_>
                <_>
                  1 3 1 3 2.</_></rects>
              <tilted>0</tilted></feature>
            <threshold>3.1114400371734519e-006</threshold>
            <left_val>-1.</left_val>
            <right_val>0.9999905824661255</right_val></_></_>
        <_>
          <!-- tree 27 -->
          <_>
            <!-- root node -->
            <feature>
              <rects>
                <_>
                  0 0 2 1 -1.</_>
                <_>
                  1 0 1 1 2.</_></rects>
              <tilted>0</tilted></feature>
            <threshold>0.</threshold>
            <left_val>0.</left_val>
            <right_val>-1.</right_val></_></_>
        <_>
          <!-- tree 28 -->
          <_>
            <!-- root node -->
            <feature>
              <rects>
                <_>
                  35 1 5 24 -1.</_>
                <_>
                  29 7 5 12 2.</_></rects>
              <tilted>1</tilted></feature>
            <threshold>2.6604949962347746e-003</threshold>
            <left_val>-1.</left_val>
            <right_node>1</right_node></_>
          <_>
            <!-- node 1 -->
            <feature>
              <rects>
                <_>
                  10 8 14 20 -1.</_>
                <_>
                  17 8 7 20 2.</_></rects>
              <tilted>0</tilted></feature>
            <threshold>5.2722328109666705e-004</threshold>
            <left_val>-1.</left_val>
            <right_val>1.0000009536743164</right_val></_></_>
        <_>
          <!-- tree 29 -->
          <_>
            <!-- root node -->
            <feature>
              <rects>
                <_>
                  0 1 3 25 -1.</_>
                <_>
                  1 1 1 25 3.</_></rects>
              <tilted>0</tilted></feature>
            <threshold>1.8668639313546009e-005</threshold>
            <left_val>-1.</left_val>
            <right_node>1</right_node></_>
          <_>
            <!-- node 1 -->
            <feature>
              <rects>
                <_>
                  0 0 45 15 -1.</_>
                <_>
                  15 5 15 5 9.</_></rects>
              <tilted>0</tilted></feature>
            <threshold>0.0208902098238468</threshold>
            <left_val>-1.</left_val>
            <right_val>1.0000230073928833</right_val></_></_>
        <_>
          <!-- tree 30 -->
          <_>
            <!-- root node -->
            <feature>
              <rects>
                <_>
                  0 0 2 24 -1.</_>
                <_>
                  0 0 1 12 2.</_>
                <_>
                  1 12 1 12 2.</_></rects>
              <tilted>0</tilted></feature>
            <threshold>7.1242837293539196e-005</threshold>
            <left_val>-1.</left_val>
            <right_node>1</right_node></_>
          <_>
            <!-- node 1 -->
            <feature>
              <rects>
                <_>
                  0 0 2 24 -1.</_>
                <_>
                  0 0 1 12 2.</_>
                <_>
                  1 12 1 12 2.</_></rects>
              <tilted>0</tilted></feature>
            <threshold>7.1242837293539196e-005</threshold>
            <left_val>-1.</left_val>
            <right_val>1.0000280141830444</right_val></_></_>
        <_>
          <!-- tree 31 -->
          <_>
            <!-- root node -->
            <feature>
              <rects>
                <_>
                  0 0 2 1 -1.</_>
                <_>
                  1 0 1 1 2.</_></rects>
              <tilted>0</tilted></feature>
            <threshold>0.</threshold>
            <left_val>0.</left_val>
            <right_val>-1.</right_val></_></_>
        <_>
          <!-- tree 32 -->
          <_>
            <!-- root node -->
            <feature>
              <rects>
                <_>
                  0 11 76 5 -1.</_>
                <_>
                  19 11 38 5 2.</_></rects>
              <tilted>0</tilted></feature>
            <threshold>4.4127699220553041e-004</threshold>
            <left_val>-1.</left_val>
            <right_node>1</right_node></_>
          <_>
            <!-- node 1 -->
            <feature>
              <rects>
                <_>
                  0 11 76 5 -1.</_>
                <_>
                  19 11 38 5 2.</_></rects>
              <tilted>0</tilted></feature>
            <threshold>4.4127699220553041e-004</threshold>
            <left_val>-1.</left_val>
            <right_val>1.</right_val></_></_>
        <_>
          <!-- tree 33 -->
          <_>
            <!-- root node -->
            <feature>
              <rects>
                <_>
                  0 0 2 1 -1.</_>
                <_>
                  1 0 1 1 2.</_></rects>
              <tilted>0</tilted></feature>
            <threshold>0.</threshold>
            <left_val>0.</left_val>
            <right_val>-1.</right_val></_></_>
        <_>
          <!-- tree 34 -->
          <_>
            <!-- root node -->
            <feature>
              <rects>
                <_>
                  8 9 30 18 -1.</_>
                <_>
                  18 9 10 18 3.</_></rects>
              <tilted>0</tilted></feature>
            <threshold>6.0349312843754888e-004</threshold>
            <left_val>-1.</left_val>
            <right_node>1</right_node></_>
          <_>
            <!-- node 1 -->
            <feature>
              <rects>
                <_>
                  8 9 30 18 -1.</_>
                <_>
                  18 9 10 18 3.</_></rects>
              <tilted>0</tilted></feature>
            <threshold>6.0349312843754888e-004</threshold>
            <left_val>-1.</left_val>
            <right_val>1.</right_val></_></_>
        <_>
          <!-- tree 35 -->
          <_>
            <!-- root node -->
            <feature>
              <rects>
                <_>
                  0 0 3 2 -1.</_>
                <_>
                  1 0 1 2 3.</_></rects>
              <tilted>0</tilted></feature>
            <threshold>3.1114400371734519e-006</threshold>
            <left_val>-1.</left_val>
            <right_node>1</right_node></_>
          <_>
            <!-- node 1 -->
            <feature>
              <rects>
                <_>
                  0 0 3 2 -1.</_>
                <_>
                  1 0 1 2 3.</_></rects>
              <tilted>0</tilted></feature>
            <threshold>3.1114400371734519e-006</threshold>
            <left_val>-1.</left_val>
            <right_val>1.</right_val></_></_>
        <_>
          <!-- tree 36 -->
          <_>
            <!-- root node -->
            <feature>
              <rects>
                <_>
                  0 0 2 1 -1.</_>
                <_>
                  1 0 1 1 2.</_></rects>
              <tilted>0</tilted></feature>
            <threshold>0.</threshold>
            <left_val>0.</left_val>
            <right_val>-1.</right_val></_></_>
        <_>
          <!-- tree 37 -->
          <_>
            <!-- root node -->
            <feature>
              <rects>
                <_>
                  0 17 30 6 -1.</_>
                <_>
                  15 17 15 6 2.</_></rects>
              <tilted>0</tilted></feature>
            <threshold>1.3700549970963039e-005</threshold>
            <left_val>-1.</left_val>
            <right_val>1.</right_val></_></_>
        <_>
          <!-- tree 38 -->
          <_>
            <!-- root node -->
            <feature>
              <rects>
                <_>
                  0 0 2 1 -1.</_>
                <_>
                  1 0 1 1 2.</_></rects>
              <tilted>0</tilted></feature>
            <threshold>0.</threshold>
            <left_val>0.</left_val>
            <right_val>-1.</right_val></_></_>
        <_>
          <!-- tree 39 -->
          <_>
            <!-- root node -->
            <feature>
              <rects>
                <_>
                  14 1 21 20 -1.</_>
                <_>
                  21 1 7 20 3.</_></rects>
              <tilted>0</tilted></feature>
            <threshold>5.1246577640995383e-004</threshold>
            <left_val>-1.</left_val>
            <right_node>1</right_node></_>
          <_>
            <!-- node 1 -->
            <feature>
              <rects>
                <_>
                  14 1 21 20 -1.</_>
                <_>
                  21 1 7 20 3.</_></rects>
              <tilted>0</tilted></feature>
            <threshold>5.1246577640995383e-004</threshold>
            <left_val>-1.</left_val>
            <right_val>1.0000009536743164</right_val></_></_>
        <_>
          <!-- tree 40 -->
          <_>
            <!-- root node -->
            <feature>
              <rects>
                <_>
                  0 0 9 1 -1.</_>
                <_>
                  3 0 3 1 3.</_></rects>
              <tilted>0</tilted></feature>
            <threshold>7.7655231507378630e-006</threshold>
            <left_val>-1.</left_val>
            <right_node>1</right_node></_>
          <_>
            <!-- node 1 -->
            <feature>
              <rects>
                <_>
                  0 0 9 1 -1.</_>
                <_>
                  3 0 3 1 3.</_></rects>
              <tilted>0</tilted></feature>
            <threshold>7.7655231507378630e-006</threshold>
            <left_val>-1.</left_val>
            <right_val>1.0000400543212891</right_val></_></_>
        <_>
          <!-- tree 41 -->
          <_>
            <!-- root node -->
            <feature>
              <rects>
                <_>
                  0 0 2 1 -1.</_>
                <_>
                  1 0 1 1 2.</_></rects>
              <tilted>0</tilted></feature>
            <threshold>0.</threshold>
            <left_val>0.</left_val>
            <right_val>-1.</right_val></_></_>
        <_>
          <!-- tree 42 -->
          <_>
            <!-- root node -->
            <feature>
              <rects>
                <_>
                  4 8 6 6 -1.</_>
                <_>
                  6 10 2 2 9.</_></rects>
              <tilted>0</tilted></feature>
            <threshold>7.2370392445009202e-005</threshold>
            <left_val>-1.</left_val>
            <right_node>1</right_node></_>
          <_>
            <!-- node 1 -->
            <feature>
              <rects>
                <_>
                  0 0 56 20 -1.</_>
                <_>
                  0 0 28 10 2.</_>
                <_>
                  28 10 28 10 2.</_></rects>
              <tilted>0</tilted></feature>
            <threshold>1.1092779459431767e-003</threshold>
            <left_val>-1.</left_val>
            <right_val>1.0000109672546387</right_val></_></_>
        <_>
          <!-- tree 43 -->
          <_>
            <!-- root node -->
            <feature>
              <rects>
                <_>
                  0 0 5 18 -1.</_>
                <_>
                  0 9 5 9 2.</_></rects>
              <tilted>0</tilted></feature>
            <threshold>2.0270459936000407e-004</threshold>
            <left_val>-1.</left_val>
            <right_node>1</right_node></_>
          <_>
            <!-- node 1 -->
            <feature>
              <rects>
                <_>
                  0 0 6 15 -1.</_>
                <_>
                  2 5 2 5 9.</_></rects>
              <tilted>0</tilted></feature>
            <threshold>-2.9377470127656125e-006</threshold>
            <left_val>1.</left_val>
            <right_val>-1.</right_val></_></_>
        <_>
          <!-- tree 44 -->
          <_>
            <!-- root node -->
            <feature>
              <rects>
                <_>
                  37 7 16 5 -1.</_>
                <_>
                  41 11 8 5 2.</_></rects>
              <tilted>1</tilted></feature>
            <threshold>4.4226349564269185e-004</threshold>
            <left_node>1</left_node>
            <right_val>1.0000040531158447</right_val></_>
          <_>
            <!-- node 1 -->
            <feature>
              <rects>
                <_>
                  0 0 2 1 -1.</_>
                <_>
                  1 0 1 1 2.</_></rects>
              <tilted>0</tilted></feature>
            <threshold>2.4267339540529065e-005</threshold>
            <left_val>0.</left_val>
            <right_val>1.</right_val></_></_>
        <_>
          <!-- tree 45 -->
          <_>
            <!-- root node -->
            <feature>
              <rects>
                <_>
                  0 0 2 1 -1.</_>
                <_>
                  1 0 1 1 2.</_></rects>
              <tilted>0</tilted></feature>
            <threshold>0.</threshold>
            <left_val>0.</left_val>
            <right_val>-1.</right_val></_></_>
        <_>
          <!-- tree 46 -->
          <_>
            <!-- root node -->
            <feature>
              <rects>
                <_>
                  35 0 1 28 -1.</_>
                <_>
                  28 7 1 14 2.</_></rects>
              <tilted>1</tilted></feature>
            <threshold>1.9131219596602023e-004</threshold>
            <left_val>-1.</left_val>
            <right_node>1</right_node></_>
          <_>
            <!-- node 1 -->
            <feature>
              <rects>
                <_>
                  35 0 1 28 -1.</_>
                <_>
                  28 7 1 14 2.</_></rects>
              <tilted>1</tilted></feature>
            <threshold>1.9131219596602023e-004</threshold>
            <left_val>-1.</left_val>
            <right_val>1.</right_val></_></_>
        <_>
          <!-- tree 47 -->
          <_>
            <!-- root node -->
            <feature>
              <rects>
                <_>
                  0 0 2 1 -1.</_>
                <_>
                  1 0 1 1 2.</_></rects>
              <tilted>0</tilted></feature>
            <threshold>0.</threshold>
            <left_val>0.</left_val>
            <right_val>-1.</right_val></_></_>
        <_>
          <!-- tree 48 -->
          <_>
            <!-- root node -->
            <feature>
              <rects>
                <_>
                  0 0 27 23 -1.</_>
                <_>
                  9 0 9 23 3.</_></rects>
              <tilted>0</tilted></feature>
            <threshold>-9.1425591381266713e-004</threshold>
            <left_val>1.</left_val>
            <right_node>1</right_node></_>
          <_>
            <!-- node 1 -->
            <feature>
              <rects>
                <_>
                  0 0 2 1 -1.</_>
                <_>
                  1 0 1 1 2.</_></rects>
              <tilted>0</tilted></feature>
            <threshold>0.</threshold>
            <left_val>0.</left_val>
            <right_val>-1.</right_val></_></_>
        <_>
          <!-- tree 49 -->
          <_>
            <!-- root node -->
            <feature>
              <rects>
                <_>
                  16 9 7 12 -1.</_>
                <_>
                  13 12 7 6 2.</_></rects>
              <tilted>1</tilted></feature>
            <threshold>1.6421229811385274e-003</threshold>
            <left_val>-1.</left_val>
            <right_node>1</right_node></_>
          <_>
            <!-- node 1 -->
            <feature>
              <rects>
                <_>
                  0 8 16 16 -1.</_>
                <_>
                  0 8 8 8 2.</_>
                <_>
                  8 16 8 8 2.</_></rects>
              <tilted>0</tilted></feature>
            <threshold>1.3856829900760204e-004</threshold>
            <left_val>-1.</left_val>
            <right_val>1.</right_val></_></_>
        <_>
          <!-- tree 50 -->
          <_>
            <!-- root node -->
            <feature>
              <rects>
                <_>
                  0 0 2 1 -1.</_>
                <_>
                  1 0 1 1 2.</_></rects>
              <tilted>0</tilted></feature>
            <threshold>0.</threshold>
            <left_val>0.</left_val>
            <right_val>-1.</right_val></_></_>
        <_>
          <!-- tree 51 -->
          <_>
            <!-- root node -->
            <feature>
              <rects>
                <_>
                  0 0 3 27 -1.</_>
                <_>
                  1 9 1 9 9.</_></rects>
              <tilted>0</tilted></feature>
            <threshold>-6.4771360484883189e-004</threshold>
            <left_val>1.</left_val>
            <right_node>1</right_node></_>
          <_>
            <!-- node 1 -->
            <feature>
              <rects>
                <_>
                  0 0 2 1 -1.</_>
                <_>
                  1 0 1 1 2.</_></rects>
              <tilted>0</tilted></feature>
            <threshold>0.</threshold>
            <left_val>0.</left_val>
            <right_val>0.</right_val></_></_>
        <_>
          <!-- tree 52 -->
          <_>
            <!-- root node -->
            <feature>
              <rects>
                <_>
                  0 0 2 1 -1.</_>
                <_>
                  1 0 1 1 2.</_></rects>
              <tilted>0</tilted></feature>
            <threshold>0.</threshold>
            <left_val>0.</left_val>
            <right_val>-1.</right_val></_></_>
        <_>
          <!-- tree 53 -->
          <_>
            <!-- root node -->
            <feature>
              <rects>
                <_>
                  0 0 2 1 -1.</_>
                <_>
                  1 0 1 1 2.</_></rects>
              <tilted>0</tilted></feature>
            <threshold>0.</threshold>
            <left_val>0.</left_val>
            <right_val>-1.</right_val></_></_>
        <_>
          <!-- tree 54 -->
          <_>
            <!-- root node -->
            <feature>
              <rects>
                <_>
                  0 0 10 4 -1.</_>
                <_>
                  0 0 5 2 2.</_>
                <_>
                  5 2 5 2 2.</_></rects>
              <tilted>0</tilted></feature>
            <threshold>1.5509440345340408e-005</threshold>
            <left_val>-1.</left_val>
            <right_node>1</right_node></_>
          <_>
            <!-- node 1 -->
            <feature>
              <rects>
                <_>
                  0 0 15 2 -1.</_>
                <_>
                  5 0 5 2 3.</_></rects>
              <tilted>0</tilted></feature>
            <threshold>-1.2258329661563039e-004</threshold>
            <left_val>1.</left_val>
            <right_val>-1.</right_val></_></_>
        <_>
          <!-- tree 55 -->
          <_>
            <!-- root node -->
            <feature>
              <rects>
                <_>
                  19 12 6 9 -1.</_>
                <_>
                  22 12 3 9 2.</_></rects>
              <tilted>0</tilted></feature>
            <threshold>5.7459030358586460e-005</threshold>
            <left_node>1</left_node>
            <right_val>0.9999997019767761</right_val></_>
          <_>
            <!-- node 1 -->
            <feature>
              <rects>
                <_>
                  0 0 2 1 -1.</_>
                <_>
                  1 0 1 1 2.</_></rects>
              <tilted>0</tilted></feature>
            <threshold>6.1250393628142774e-005</threshold>
            <left_val>0.</left_val>
            <right_val>1.</right_val></_></_>
        <_>
          <!-- tree 56 -->
          <_>
            <!-- root node -->
            <feature>
              <rects>
                <_>
                  0 0 2 1 -1.</_>
                <_>
                  1 0 1 1 2.</_></rects>
              <tilted>0</tilted></feature>
            <threshold>0.</threshold>
            <left_val>0.</left_val>
            <right_val>-1.</right_val></_></_>
        <_>
          <!-- tree 57 -->
          <_>
            <!-- root node -->
            <feature>
              <rects>
                <_>
                  5 25 15 3 -1.</_>
                <_>
                  5 26 15 1 3.</_></rects>
              <tilted>0</tilted></feature>
            <threshold>2.0430550648598000e-005</threshold>
            <left_val>-1.</left_val>
            <right_node>1</right_node></_>
          <_>
            <!-- node 1 -->
            <feature>
              <rects>
                <_>
                  5 25 15 3 -1.</_>
                <_>
                  5 26 15 1 3.</_></rects>
              <tilted>0</tilted></feature>
            <threshold>2.0430550648598000e-005</threshold>
            <left_val>-1.</left_val>
            <right_val>1.0000009536743164</right_val></_></_>
        <_>
          <!-- tree 58 -->
          <_>
            <!-- root node -->
            <feature>
              <rects>
                <_>
                  0 0 2 1 -1.</_>
                <_>
                  1 0 1 1 2.</_></rects>
              <tilted>0</tilted></feature>
            <threshold>0.</threshold>
            <left_val>0.</left_val>
            <right_val>-1.</right_val></_></_>
        <_>
          <!-- tree 59 -->
          <_>
            <!-- root node -->
            <feature>
              <rects>
                <_>
                  0 0 20 10 -1.</_>
                <_>
                  0 0 10 5 2.</_>
                <_>
                  10 5 10 5 2.</_></rects>
              <tilted>0</tilted></feature>
            <threshold>5.4149782044987660e-006</threshold>
            <left_val>-1.</left_val>
            <right_val>1.</right_val></_></_>
        <_>
          <!-- tree 60 -->
          <_>
            <!-- root node -->
            <feature>
              <rects>
                <_>
                  0 0 2 1 -1.</_>
                <_>
                  1 0 1 1 2.</_></rects>
              <tilted>0</tilted></feature>
            <threshold>0.</threshold>
            <left_val>0.</left_val>
            <right_val>-1.</right_val></_></_>
        <_>
          <!-- tree 61 -->
          <_>
            <!-- root node -->
            <feature>
              <rects>
                <_>
                  0 0 1 12 -1.</_>
                <_>
                  0 3 1 6 2.</_></rects>
              <tilted>0</tilted></feature>
            <threshold>4.5914919610368088e-005</threshold>
            <left_val>-1.</left_val>
            <right_val>1.</right_val></_></_>
        <_>
          <!-- tree 62 -->
          <_>
            <!-- root node -->
            <feature>
              <rects>
                <_>
                  13 12 21 10 -1.</_>
                <_>
                  20 12 7 10 3.</_></rects>
              <tilted>0</tilted></feature>
            <threshold>4.9758609384298325e-004</threshold>
            <left_val>-1.</left_val>
            <right_node>1</right_node></_>
          <_>
            <!-- node 1 -->
            <feature>
              <rects>
                <_>
                  13 12 21 10 -1.</_>
                <_>
                  20 12 7 10 3.</_></rects>
              <tilted>0</tilted></feature>
            <threshold>4.9758609384298325e-004</threshold>
            <left_val>-1.</left_val>
            <right_val>0.9999997019767761</right_val></_></_>
        <_>
          <!-- tree 63 -->
          <_>
            <!-- root node -->
            <feature>
              <rects>
                <_>
                  0 0 2 1 -1.</_>
                <_>
                  1 0 1 1 2.</_></rects>
              <tilted>0</tilted></feature>
            <threshold>0.</threshold>
            <left_val>0.</left_val>
            <right_val>-1.</right_val></_></_>
        <_>
          <!-- tree 64 -->
          <_>
            <!-- root node -->
            <feature>
              <rects>
                <_>
                  0 2 30 6 -1.</_>
                <_>
                  0 2 15 3 2.</_>
                <_>
                  15 5 15 3 2.</_></rects>
              <tilted>0</tilted></feature>
            <threshold>7.0454676460940391e-005</threshold>
            <left_val>-1.</left_val>
            <right_node>1</right_node></_>
          <_>
            <!-- node 1 -->
            <feature>
              <rects>
                <_>
                  0 2 30 6 -1.</_>
                <_>
                  0 2 15 3 2.</_>
                <_>
                  15 5 15 3 2.</_></rects>
              <tilted>0</tilted></feature>
            <threshold>7.0454676460940391e-005</threshold>
            <left_val>-1.</left_val>
            <right_val>1.0000009536743164</right_val></_></_>
        <_>
          <!-- tree 65 -->
          <_>
            <!-- root node -->
            <feature>
              <rects>
                <_>
                  0 0 2 1 -1.</_>
                <_>
                  1 0 1 1 2.</_></rects>
              <tilted>0</tilted></feature>
            <threshold>0.</threshold>
            <left_val>0.</left_val>
            <right_val>-1.</right_val></_></_>
        <_>
          <!-- tree 66 -->
          <_>
            <!-- root node -->
            <feature>
              <rects>
                <_>
                  0 0 26 8 -1.</_>
                <_>
                  0 0 13 4 2.</_>
                <_>
                  13 4 13 4 2.</_></rects>
              <tilted>0</tilted></feature>
            <threshold>-1.8303919932805002e-004</threshold>
            <left_val>1.</left_val>
            <right_node>1</right_node></_>
          <_>
            <!-- node 1 -->
            <feature>
              <rects>
                <_>
                  0 0 2 1 -1.</_>
                <_>
                  1 0 1 1 2.</_></rects>
              <tilted>0</tilted></feature>
            <threshold>0.</threshold>
            <left_val>0.</left_val>
            <right_val>-1.</right_val></_></_>
        <_>
          <!-- tree 67 -->
          <_>
            <!-- root node -->
            <feature>
              <rects>
                <_>
                  0 13 18 3 -1.</_>
                <_>
                  6 14 6 1 9.</_></rects>
              <tilted>0</tilted></feature>
            <threshold>-3.2739411108195782e-004</threshold>
            <left_val>1.</left_val>
            <right_node>1</right_node></_>
          <_>
            <!-- node 1 -->
            <feature>
              <rects>
                <_>
                  0 0 2 1 -1.</_>
                <_>
                  1 0 1 1 2.</_></rects>
              <tilted>0</tilted></feature>
            <threshold>0.</threshold>
            <left_val>0.</left_val>
            <right_val>-1.</right_val></_></_>
        <_>
          <!-- tree 68 -->
          <_>
            <!-- root node -->
            <feature>
              <rects>
                <_>
                  0 3 17 3 -1.</_>
                <_>
                  0 4 17 1 3.</_></rects>
              <tilted>0</tilted></feature>
            <threshold>1.1805569556599949e-005</threshold>
            <left_val>-1.</left_val>
            <right_node>1</right_node></_>
          <_>
            <!-- node 1 -->
            <feature>
              <rects>
                <_>
                  0 3 17 3 -1.</_>
                <_>
                  0 4 17 1 3.</_></rects>
              <tilted>0</tilted></feature>
            <threshold>1.1805569556599949e-005</threshold>
            <left_val>-1.</left_val>
            <right_val>0.9999986290931702</right_val></_></_>
        <_>
          <!-- tree 69 -->
          <_>
            <!-- root node -->
            <feature>
              <rects>
                <_>
                  0 0 2 1 -1.</_>
                <_>
                  1 0 1 1 2.</_></rects>
              <tilted>0</tilted></feature>
            <threshold>0.</threshold>
            <left_val>0.</left_val>
            <right_val>-1.</right_val></_></_>
        <_>
          <!-- tree 70 -->
          <_>
            <!-- root node -->
            <feature>
              <rects>
                <_>
                  0 0 6 8 -1.</_>
                <_>
                  0 2 6 4 2.</_></rects>
              <tilted>0</tilted></feature>
            <threshold>-1.2566920304379892e-005</threshold>
            <left_val>1.</left_val>
            <right_node>1</right_node></_>
          <_>
            <!-- node 1 -->
            <feature>
              <rects>
                <_>
                  0 0 2 1 -1.</_>
                <_>
                  1 0 1 1 2.</_></rects>
              <tilted>0</tilted></feature>
            <threshold>0.</threshold>
            <left_val>0.</left_val>
            <right_val>0.</right_val></_></_>
        <_>
          <!-- tree 71 -->
          <_>
            <!-- root node -->
            <feature>
              <rects>
                <_>
                  0 0 2 1 -1.</_>
                <_>
                  1 0 1 1 2.</_></rects>
              <tilted>0</tilted></feature>
            <threshold>0.</threshold>
            <left_val>0.</left_val>
            <right_val>-1.</right_val></_></_>
        <_>
          <!-- tree 72 -->
          <_>
            <!-- root node -->
            <feature>
              <rects>
                <_>
                  0 0 2 1 -1.</_>
                <_>
                  1 0 1 1 2.</_></rects>
              <tilted>0</tilted></feature>
            <threshold>0.</threshold>
            <left_val>0.</left_val>
            <right_val>-1.</right_val></_></_>
        <_>
          <!-- tree 73 -->
          <_>
            <!-- root node -->
            <feature>
              <rects>
                <_>
                  18 12 27 9 -1.</_>
                <_>
                  27 12 9 9 3.</_></rects>
              <tilted>0</tilted></feature>
            <threshold>-7.1513361763209105e-004</threshold>
            <left_val>1.</left_val>
            <right_node>1</right_node></_>
          <_>
            <!-- node 1 -->
            <feature>
              <rects>
                <_>
                  0 0 2 1 -1.</_>
                <_>
                  1 0 1 1 2.</_></rects>
              <tilted>0</tilted></feature>
            <threshold>0.</threshold>
            <left_val>0.</left_val>
            <right_val>-1.</right_val></_></_>
        <_>
          <!-- tree 74 -->
          <_>
            <!-- root node -->
            <feature>
              <rects>
                <_>
                  0 0 26 14 -1.</_>
                <_>
                  0 0 13 7 2.</_>
                <_>
                  13 7 13 7 2.</_></rects>
              <tilted>0</tilted></feature>
            <threshold>1.3828440569341183e-004</threshold>
            <left_val>-1.</left_val>
            <right_val>1.</right_val></_></_>
        <_>
          <!-- tree 75 -->
          <_>
            <!-- root node -->
            <feature>
              <rects>
                <_>
                  0 0 2 1 -1.</_>
                <_>
                  1 0 1 1 2.</_></rects>
              <tilted>0</tilted></feature>
            <threshold>0.</threshold>
            <left_val>0.</left_val>
            <right_val>-1.</right_val></_></_>
        <_>
          <!-- tree 76 -->
          <_>
            <!-- root node -->
            <feature>
              <rects>
                <_>
                  0 0 1 16 -1.</_>
                <_>
                  0 4 1 8 2.</_></rects>
              <tilted>0</tilted></feature>
            <threshold>1.5304969565477222e-005</threshold>
            <left_val>-1.</left_val>
            <right_node>1</right_node></_>
          <_>
            <!-- node 1 -->
            <feature>
              <rects>
                <_>
                  0 0 2 1 -1.</_>
                <_>
                  1 0 1 1 2.</_></rects>
              <tilted>0</tilted></feature>
            <threshold>0.</threshold>
            <left_val>0.</left_val>
            <right_val>1.</right_val></_></_>
        <_>
          <!-- tree 77 -->
          <_>
            <!-- root node -->
            <feature>
              <rects>
                <_>
                  15 7 18 22 -1.</_>
                <_>
                  21 7 6 22 3.</_></rects>
              <tilted>0</tilted></feature>
            <threshold>1.4801610086578876e-004</threshold>
            <left_val>-1.</left_val>
            <right_node>1</right_node></_>
          <_>
            <!-- node 1 -->
            <feature>
              <rects>
                <_>
                  15 7 18 22 -1.</_>
                <_>
                  21 7 6 22 3.</_></rects>
              <tilted>0</tilted></feature>
            <threshold>1.4801610086578876e-004</threshold>
            <left_val>-1.</left_val>
            <right_val>1.</right_val></_></_>
        <_>
          <!-- tree 78 -->
          <_>
            <!-- root node -->
            <feature>
              <rects>
                <_>
                  0 0 2 1 -1.</_>
                <_>
                  1 0 1 1 2.</_></rects>
              <tilted>0</tilted></feature>
            <threshold>0.</threshold>
            <left_val>0.</left_val>
            <right_val>-1.</right_val></_></_>
        <_>
          <!-- tree 79 -->
          <_>
            <!-- root node -->
            <feature>
              <rects>
                <_>
                  0 0 40 29 -1.</_>
                <_>
                  10 0 20 29 2.</_></rects>
              <tilted>0</tilted></feature>
            <threshold>6.0867570573464036e-004</threshold>
            <left_val>-1.</left_val>
            <right_node>1</right_node></_>
          <_>
            <!-- node 1 -->
            <feature>
              <rects>
                <_>
                  0 0 2 1 -1.</_>
                <_>
                  1 0 1 1 2.</_></rects>
              <tilted>0</tilted></feature>
            <threshold>0.</threshold>
            <left_val>0.</left_val>
            <right_val>1.</right_val></_></_>
        <_>
          <!-- tree 80 -->
          <_>
            <!-- root node -->
            <feature>
              <rects>
                <_>
                  13 1 12 3 -1.</_>
                <_>
                  17 2 4 1 9.</_></rects>
              <tilted>0</tilted></feature>
            <threshold>-2.7635749574983492e-005</threshold>
            <left_val>1.</left_val>
            <right_val>-1.</right_val></_></_>
        <_>
          <!-- tree 81 -->
          <_>
            <!-- root node -->
            <feature>
              <rects>
                <_>
                  10 9 25 21 -1.</_>
                <_>
                  10 16 25 7 3.</_></rects>
              <tilted>0</tilted></feature>
            <threshold>6.4663507509976625e-004</threshold>
            <left_node>1</left_node>
            <right_val>1.</right_val></_>
          <_>
            <!-- node 1 -->
            <feature>
              <rects>
                <_>
                  0 0 2 1 -1.</_>
                <_>
                  1 0 1 1 2.</_></rects>
              <tilted>0</tilted></feature>
            <threshold>0.</threshold>
            <left_val>0.</left_val>
            <right_val>1.</right_val></_></_>
        <_>
          <!-- tree 82 -->
          <_>
            <!-- root node -->
            <feature>
              <rects>
                <_>
                  0 0 2 1 -1.</_>
                <_>
                  1 0 1 1 2.</_></rects>
              <tilted>0</tilted></feature>
            <threshold>0.</threshold>
            <left_val>0.</left_val>
            <right_val>-1.</right_val></_></_>
        <_>
          <!-- tree 83 -->
          <_>
            <!-- root node -->
            <feature>
              <rects>
                <_>
                  6 6 18 6 -1.</_>
                <_>
                  4 8 18 2 3.</_></rects>
              <tilted>1</tilted></feature>
            <threshold>1.4739070320501924e-004</threshold>
            <left_val>-1.</left_val>
            <right_val>1.</right_val></_></_>
        <_>
          <!-- tree 84 -->
          <_>
            <!-- root node -->
            <feature>
              <rects>
                <_>
                  0 0 2 1 -1.</_>
                <_>
                  1 0 1 1 2.</_></rects>
              <tilted>0</tilted></feature>
            <threshold>0.</threshold>
            <left_val>0.</left_val>
            <right_val>-1.</right_val></_></_>
        <_>
          <!-- tree 85 -->
          <_>
            <!-- root node -->
            <feature>
              <rects>
                <_>
                  0 1 19 9 -1.</_>
                <_>
                  0 4 19 3 3.</_></rects>
              <tilted>0</tilted></feature>
            <threshold>-1.0845839824469294e-005</threshold>
            <left_val>1.</left_val>
            <right_node>1</right_node></_>
          <_>
            <!-- node 1 -->
            <feature>
              <rects>
                <_>
                  0 0 2 1 -1.</_>
                <_>
                  1 0 1 1 2.</_></rects>
              <tilted>0</tilted></feature>
            <threshold>0.</threshold>
            <left_val>0.</left_val>
            <right_val>-1.</right_val></_></_>
        <_>
          <!-- tree 86 -->
          <_>
            <!-- root node -->
            <feature>
              <rects>
                <_>
                  0 0 1 24 -1.</_>
                <_>
                  0 12 1 12 2.</_></rects>
              <tilted>0</tilted></feature>
            <threshold>-1.6363490431103855e-005</threshold>
            <left_val>1.</left_val>
            <right_val>-1.</right_val></_></_>
        <_>
          <!-- tree 87 -->
          <_>
            <!-- root node -->
            <feature>
              <rects>
                <_>
                  0 0 2 1 -1.</_>
                <_>
                  1 0 1 1 2.</_></rects>
              <tilted>0</tilted></feature>
            <threshold>0.</threshold>
            <left_val>0.</left_val>
            <right_val>-1.</right_val></_></_>
        <_>
          <!-- tree 88 -->
          <_>
            <!-- root node -->
            <feature>
              <rects>
                <_>
                  0 0 16 17 -1.</_>
                <_>
                  8 0 8 17 2.</_></rects>
              <tilted>0</tilted></feature>
            <threshold>5.9652109484886751e-005</threshold>
            <left_val>-1.</left_val>
            <right_node>1</right_node></_>
          <_>
            <!-- node 1 -->
            <feature>
              <rects>
                <_>
                  0 0 2 1 -1.</_>
                <_>
                  1 0 1 1 2.</_></rects>
              <tilted>0</tilted></feature>
            <threshold>0.</threshold>
            <left_val>0.</left_val>
            <right_val>1.</right_val></_></_>
        <_>
          <!-- tree 89 -->
          <_>
            <!-- root node -->
            <feature>
              <rects>
                <_>
                  0 26 23 2 -1.</_>
                <_>
                  0 27 23 1 2.</_></rects>
              <tilted>0</tilted></feature>
            <threshold>-3.4453340049367398e-005</threshold>
            <left_val>1.</left_val>
            <right_node>1</right_node></_>
          <_>
            <!-- node 1 -->
            <feature>
              <rects>
                <_>
                  0 0 2 1 -1.</_>
                <_>
                  1 0 1 1 2.</_></rects>
              <tilted>0</tilted></feature>
            <threshold>0.</threshold>
            <left_val>0.</left_val>
            <right_val>-1.</right_val></_></_>
        <_>
          <!-- tree 90 -->
          <_>
            <!-- root node -->
            <feature>
              <rects>
                <_>
                  0 7 30 19 -1.</_>
                <_>
                  15 7 15 19 2.</_></rects>
              <tilted>0</tilted></feature>
            <threshold>3.8736130227334797e-004</threshold>
            <left_val>-1.</left_val>
            <right_val>1.</right_val></_></_>
        <_>
          <!-- tree 91 -->
          <_>
            <!-- root node -->
            <feature>
              <rects>
                <_>
                  0 0 2 1 -1.</_>
                <_>
                  1 0 1 1 2.</_></rects>
              <tilted>0</tilted></feature>
            <threshold>0.</threshold>
            <left_val>0.</left_val>
            <right_val>-1.</right_val></_></_>
        <_>
          <!-- tree 92 -->
          <_>
            <!-- root node -->
            <feature>
              <rects>
                <_>
                  0 0 2 1 -1.</_>
                <_>
                  1 0 1 1 2.</_></rects>
              <tilted>0</tilted></feature>
            <threshold>4.1889738895406481e-006</threshold>
            <left_val>-1.</left_val>
            <right_val>1.</right_val></_></_>
        <_>
          <!-- tree 93 -->
          <_>
            <!-- root node -->
            <feature>
              <rects>
                <_>
                  20 13 27 2 -1.</_>
                <_>
                  29 13 9 2 3.</_></rects>
              <tilted>0</tilted></feature>
            <threshold>-1.6695770682417788e-005</threshold>
            <left_val>1.</left_val>
            <right_node>1</right_node></_>
          <_>
            <!-- node 1 -->
            <feature>
              <rects>
                <_>
                  0 0 2 1 -1.</_>
                <_>
                  1 0 1 1 2.</_></rects>
              <tilted>0</tilted></feature>
            <threshold>0.</threshold>
            <left_val>0.</left_val>
            <right_val>-1.</right_val></_></_>
        <_>
          <!-- tree 94 -->
          <_>
            <!-- root node -->
            <feature>
              <rects>
                <_>
                  0 14 21 10 -1.</_>
                <_>
                  0 19 21 5 2.</_></rects>
              <tilted>0</tilted></feature>
            <threshold>-1.4357359614223242e-003</threshold>
            <left_val>1.</left_val>
            <right_node>1</right_node></_>
          <_>
            <!-- node 1 -->
            <feature>
              <rects>
                <_>
                  0 0 2 1 -1.</_>
                <_>
                  1 0 1 1 2.</_></rects>
              <tilted>0</tilted></feature>
            <threshold>0.</threshold>
            <left_val>0.</left_val>
            <right_val>-1.</right_val></_></_>
        <_>
          <!-- tree 95 -->
          <_>
            <!-- root node -->
            <feature>
              <rects>
                <_>
                  0 1 6 20 -1.</_>
                <_>
                  0 1 3 10 2.</_>
                <_>
                  3 11 3 10 2.</_></rects>
              <tilted>0</tilted></feature>
            <threshold>1.0845839824469294e-005</threshold>
            <left_val>-1.</left_val>
            <right_val>1.</right_val></_></_>
        <_>
          <!-- tree 96 -->
          <_>
            <!-- root node -->
            <feature>
              <rects>
                <_>
                  0 0 2 1 -1.</_>
                <_>
                  1 0 1 1 2.</_></rects>
              <tilted>0</tilted></feature>
            <threshold>0.</threshold>
            <left_val>0.</left_val>
            <right_val>-1.</right_val></_></_>
        <_>
          <!-- tree 97 -->
          <_>
            <!-- root node -->
            <feature>
              <rects>
                <_>
                  8 16 12 6 -1.</_>
                <_>
                  8 16 6 3 2.</_>
                <_>
                  14 19 6 3 2.</_></rects>
              <tilted>0</tilted></feature>
            <threshold>5.4673109843861312e-005</threshold>
            <left_val>-1.</left_val>
            <right_val>1.</right_val></_></_>
        <_>
          <!-- tree 98 -->
          <_>
            <!-- root node -->
            <feature>
              <rects>
                <_>
                  0 0 2 1 -1.</_>
                <_>
                  1 0 1 1 2.</_></rects>
              <tilted>0</tilted></feature>
            <threshold>0.</threshold>
            <left_val>0.</left_val>
            <right_val>-1.</right_val></_></_>
        <_>
          <!-- tree 99 -->
          <_>
            <!-- root node -->
            <feature>
              <rects>
                <_>
                  0 1 36 6 -1.</_>
                <_>
                  0 3 36 2 3.</_></rects>
              <tilted>0</tilted></feature>
            <threshold>-2.4695650790818036e-004</threshold>
            <left_val>1.</left_val>
            <right_node>1</right_node></_>
          <_>
            <!-- node 1 -->
            <feature>
              <rects>
                <_>
                  0 0 2 1 -1.</_>
                <_>
                  1 0 1 1 2.</_></rects>
              <tilted>0</tilted></feature>
            <threshold>0.</threshold>
            <left_val>0.</left_val>
            <right_val>-1.</right_val></_></_>
        <_>
          <!-- tree 100 -->
          <_>
            <!-- root node -->
            <feature>
              <rects>
                <_>
                  0 0 2 8 -1.</_>
                <_>
                  0 0 1 4 2.</_>
                <_>
                  1 4 1 4 2.</_></rects>
              <tilted>0</tilted></feature>
            <threshold>-7.7655231507378630e-006</threshold>
            <left_val>1.</left_val>
            <right_node>1</right_node></_>
          <_>
            <!-- node 1 -->
            <feature>
              <rects>
                <_>
                  0 0 2 1 -1.</_>
                <_>
                  1 0 1 1 2.</_></rects>
              <tilted>0</tilted></feature>
            <threshold>0.</threshold>
            <left_val>0.</left_val>
            <right_val>-1.</right_val></_></_>
        <_>
          <!-- tree 101 -->
          <_>
            <!-- root node -->
            <feature>
              <rects>
                <_>
                  0 0 4 21 -1.</_>
                <_>
                  2 0 2 21 2.</_></rects>
              <tilted>0</tilted></feature>
            <threshold>8.4355724538909271e-006</threshold>
            <left_val>-1.</left_val>
            <right_val>1.</right_val></_></_>
        <_>
          <!-- tree 102 -->
          <_>
            <!-- root node -->
            <feature>
              <rects>
                <_>
                  22 0 24 20 -1.</_>
                <_>
                  30 0 8 20 3.</_></rects>
              <tilted>0</tilted></feature>
            <threshold>-8.6231081513687968e-004</threshold>
            <left_val>1.</left_val>
            <right_node>1</right_node></_>
          <_>
            <!-- node 1 -->
            <feature>
              <rects>
                <_>
                  0 0 2 1 -1.</_>
                <_>
                  1 0 1 1 2.</_></rects>
              <tilted>0</tilted></feature>
            <threshold>0.</threshold>
            <left_val>0.</left_val>
            <right_val>-1.</right_val></_></_>
        <_>
          <!-- tree 103 -->
          <_>
            <!-- root node -->
            <feature>
              <rects>
                <_>
                  0 0 8 23 -1.</_>
                <_>
                  2 0 4 23 2.</_></rects>
              <tilted>0</tilted></feature>
            <threshold>-4.7855690354481339e-005</threshold>
            <left_val>1.</left_val>
            <right_val>-1.</right_val></_></_>
        <_>
          <!-- tree 104 -->
          <_>
            <!-- root node -->
            <feature>
              <rects>
                <_>
                  0 0 1 3 -1.</_>
                <_>
                  0 1 1 1 3.</_></rects>
              <tilted>0</tilted></feature>
            <threshold>3.1114400371734519e-006</threshold>
            <left_val>-1.</left_val>
            <right_val>1.</right_val></_></_>
        <_>
          <!-- tree 105 -->
          <_>
            <!-- root node -->
            <feature>
              <rects>
                <_>
                  0 0 2 1 -1.</_>
                <_>
                  1 0 1 1 2.</_></rects>
              <tilted>0</tilted></feature>
            <threshold>0.</threshold>
            <left_val>0.</left_val>
            <right_val>-1.</right_val></_></_>
        <_>
          <!-- tree 106 -->
          <_>
            <!-- root node -->
            <feature>
              <rects>
                <_>
                  0 0 28 15 -1.</_>
                <_>
                  7 0 14 15 2.</_></rects>
              <tilted>0</tilted></feature>
            <threshold>-6.1247410485520959e-004</threshold>
            <left_val>1.</left_val>
            <right_val>-1.</right_val></_></_>
        <_>
          <!-- tree 107 -->
          <_>
            <!-- root node -->
            <feature>
              <rects>
                <_>
                  0 0 2 1 -1.</_>
                <_>
                  1 0 1 1 2.</_></rects>
              <tilted>0</tilted></feature>
            <threshold>0.</threshold>
            <left_val>0.</left_val>
            <right_val>-1.</right_val></_></_>
        <_>
          <!-- tree 108 -->
          <_>
            <!-- root node -->
            <feature>
              <rects>
                <_>
                  0 0 4 12 -1.</_>
                <_>
                  1 0 2 12 2.</_></rects>
              <tilted>0</tilted></feature>
            <threshold>-1.5304969565477222e-005</threshold>
            <left_val>1.</left_val>
            <right_val>-1.</right_val></_></_>
        <_>
          <!-- tree 109 -->
          <_>
            <!-- root node -->
            <feature>
              <rects>
                <_>
                  0 0 2 1 -1.</_>
                <_>
                  1 0 1 1 2.</_></rects>
              <tilted>0</tilted></feature>
            <threshold>0.</threshold>
            <left_val>0.</left_val>
            <right_val>-1.</right_val></_></_>
        <_>
          <!-- tree 110 -->
          <_>
            <!-- root node -->
            <feature>
              <rects>
                <_>
                  0 0 8 15 -1.</_>
                <_>
                  2 0 4 15 2.</_></rects>
              <tilted>0</tilted></feature>
            <threshold>-2.9377470127656125e-006</threshold>
            <left_val>1.</left_val>
            <right_val>-1.</right_val></_></_>
        <_>
          <!-- tree 111 -->
          <_>
            <!-- root node -->
            <feature>
              <rects>
                <_>
                  0 0 2 1 -1.</_>
                <_>
                  1 0 1 1 2.</_></rects>
              <tilted>0</tilted></feature>
            <threshold>0.</threshold>
            <left_val>0.</left_val>
            <right_val>-1.</right_val></_></_>
        <_>
          <!-- tree 112 -->
          <_>
            <!-- root node -->
            <feature>
              <rects>
                <_>
                  0 0 2 15 -1.</_>
                <_>
                  1 0 1 15 2.</_></rects>
              <tilted>0</tilted></feature>
            <threshold>3.2577199817751534e-006</threshold>
            <left_val>-1.</left_val>
            <right_val>1.</right_val></_></_>
        <_>
          <!-- tree 113 -->
          <_>
            <!-- root node -->
            <feature>
              <rects>
                <_>
                  18 11 30 6 -1.</_>
                <_>
                  28 11 10 6 3.</_></rects>
              <tilted>0</tilted></feature>
            <threshold>-1.2974709970876575e-003</threshold>
            <left_val>1.</left_val>
            <right_node>1</right_node></_>
          <_>
            <!-- node 1 -->
            <feature>
              <rects>
                <_>
                  0 0 2 1 -1.</_>
                <_>
                  1 0 1 1 2.</_></rects>
              <tilted>0</tilted></feature>
            <threshold>0.</threshold>
            <left_val>0.</left_val>
            <right_val>-1.</right_val></_></_>
        <_>
          <!-- tree 114 -->
          <_>
            <!-- root node -->
            <feature>
              <rects>
                <_>
                  1 6 15 1 -1.</_>
                <_>
                  6 11 5 1 3.</_></rects>
              <tilted>1</tilted></feature>
            <threshold>-4.6663539251312613e-005</threshold>
            <left_val>1.</left_val>
            <right_node>1</right_node></_>
          <_>
            <!-- node 1 -->
            <feature>
              <rects>
                <_>
                  0 0 2 1 -1.</_>
                <_>
                  1 0 1 1 2.</_></rects>
              <tilted>0</tilted></feature>
            <threshold>0.</threshold>
            <left_val>0.</left_val>
            <right_val>-1.</right_val></_></_>
        <_>
          <!-- tree 115 -->
          <_>
            <!-- root node -->
            <feature>
              <rects>
                <_>
                  0 0 8 27 -1.</_>
                <_>
                  0 9 8 9 3.</_></rects>
              <tilted>0</tilted></feature>
            <threshold>1.6885709555936046e-005</threshold>
            <left_val>-1.</left_val>
            <right_val>1.</right_val></_></_>
        <_>
          <!-- tree 116 -->
          <_>
            <!-- root node -->
            <feature>
              <rects>
                <_>
                  1 1 72 24 -1.</_>
                <_>
                  25 9 24 8 9.</_></rects>
              <tilted>0</tilted></feature>
            <threshold>1.0620170505717397e-003</threshold>
            <left_val>-1.</left_val>
            <right_val>1.</right_val></_></_>
        <_>
          <!-- tree 117 -->
          <_>
            <!-- root node -->
            <feature>
              <rects>
                <_>
                  0 0 3 3 -1.</_>
                <_>
                  1 1 1 1 9.</_></rects>
              <tilted>0</tilted></feature>
            <threshold>3.0373948902706616e-006</threshold>
            <left_val>-1.</left_val>
            <right_val>1.</right_val></_></_>
        <_>
          <!-- tree 118 -->
          <_>
            <!-- root node -->
            <feature>
              <rects>
                <_>
                  22 11 18 10 -1.</_>
                <_>
                  28 11 6 10 3.</_></rects>
              <tilted>0</tilted></feature>
            <threshold>-6.5334740793332458e-004</threshold>
            <left_val>1.</left_val>
            <right_node>1</right_node></_>
          <_>
            <!-- node 1 -->
            <feature>
              <rects>
                <_>
                  0 0 2 1 -1.</_>
                <_>
                  1 0 1 1 2.</_></rects>
              <tilted>0</tilted></feature>
            <threshold>-1.3602769467979670e-004</threshold>
            <left_val>0.</left_val>
            <right_val>-1.</right_val></_></_>
        <_>
          <!-- tree 119 -->
          <_>
            <!-- root node -->
            <feature>
              <rects>
                <_>
                  0 10 40 9 -1.</_>
                <_>
                  0 13 40 3 3.</_></rects>
              <tilted>0</tilted></feature>
            <threshold>-1.9382180471438915e-004</threshold>
            <left_val>1.</left_val>
            <right_node>1</right_node></_>
          <_>
            <!-- node 1 -->
            <feature>
              <rects>
                <_>
                  0 0 2 1 -1.</_>
                <_>
                  1 0 1 1 2.</_></rects>
              <tilted>0</tilted></feature>
            <threshold>-1.5821309352759272e-004</threshold>
            <left_val>0.</left_val>
            <right_val>-1.</right_val></_></_>
        <_>
          <!-- tree 120 -->
          <_>
            <!-- root node -->
            <feature>
              <rects>
                <_>
                  9 0 56 4 -1.</_>
                <_>
                  9 0 28 2 2.</_>
                <_>
                  37 2 28 2 2.</_></rects>
              <tilted>0</tilted></feature>
            <threshold>-5.1848378461727407e-006</threshold>
            <left_val>1.</left_val>
            <right_node>1</right_node></_>
          <_>
            <!-- node 1 -->
            <feature>
              <rects>
                <_>
                  0 0 2 1 -1.</_>
                <_>
                  1 0 1 1 2.</_></rects>
              <tilted>0</tilted></feature>
            <threshold>-2.5147100677713752e-004</threshold>
            <left_val>0.</left_val>
            <right_val>-1.</right_val></_></_>
        <_>
          <!-- tree 121 -->
          <_>
            <!-- root node -->
            <feature>
              <rects>
                <_>
                  0 12 16 6 -1.</_>
                <_>
                  0 12 8 3 2.</_>
                <_>
                  8 15 8 3 2.</_></rects>
              <tilted>0</tilted></feature>
            <threshold>7.4183983088005334e-005</threshold>
            <left_val>-1.</left_val>
            <right_val>1.</right_val></_></_>
        <_>
          <!-- tree 122 -->
          <_>
            <!-- root node -->
            <feature>
              <rects>
                <_>
                  0 0 2 1 -1.</_>
                <_>
                  1 0 1 1 2.</_></rects>
              <tilted>0</tilted></feature>
            <threshold>0.</threshold>
            <left_val>0.</left_val>
            <right_val>-1.</right_val></_></_>
        <_>
          <!-- tree 123 -->
          <_>
            <!-- root node -->
            <feature>
              <rects>
                <_>
                  0 0 6 8 -1.</_>
                <_>
                  2 0 2 8 3.</_></rects>
              <tilted>0</tilted></feature>
            <threshold>-3.0373948902706616e-006</threshold>
            <left_val>1.</left_val>
            <right_val>-1.</right_val></_></_>
        <_>
          <!-- tree 124 -->
          <_>
            <!-- root node -->
            <feature>
              <rects>
                <_>
                  0 0 2 1 -1.</_>
                <_>
                  1 0 1 1 2.</_></rects>
              <tilted>0</tilted></feature>
            <threshold>0.</threshold>
            <left_val>0.</left_val>
            <right_val>-1.</right_val></_></_>
        <_>
          <!-- tree 125 -->
          <_>
            <!-- root node -->
            <feature>
              <rects>
                <_>
                  0 0 28 15 -1.</_>
                <_>
                  7 0 14 15 2.</_></rects>
              <tilted>0</tilted></feature>
            <threshold>-6.1247410485520959e-004</threshold>
            <left_val>1.</left_val>
            <right_val>-1.</right_val></_></_>
        <_>
          <!-- tree 126 -->
          <_>
            <!-- root node -->
            <feature>
              <rects>
                <_>
                  0 0 2 1 -1.</_>
                <_>
                  1 0 1 1 2.</_></rects>
              <tilted>0</tilted></feature>
            <threshold>0.</threshold>
            <left_val>0.</left_val>
            <right_val>-1.</right_val></_></_>
        <_>
          <!-- tree 127 -->
          <_>
            <!-- root node -->
            <feature>
              <rects>
                <_>
                  0 0 3 8 -1.</_>
                <_>
                  1 0 1 8 3.</_></rects>
              <tilted>0</tilted></feature>
            <threshold>-2.5194229237968102e-005</threshold>
            <left_val>1.</left_val>
            <right_val>-1.</right_val></_></_>
        <_>
          <!-- tree 128 -->
          <_>
            <!-- root node -->
            <feature>
              <rects>
                <_>
                  0 0 2 1 -1.</_>
                <_>
                  1 0 1 1 2.</_></rects>
              <tilted>0</tilted></feature>
            <threshold>0.</threshold>
            <left_val>0.</left_val>
            <right_val>-1.</right_val></_></_>
        <_>
          <!-- tree 129 -->
          <_>
            <!-- root node -->
            <feature>
              <rects>
                <_>
                  0 0 28 17 -1.</_>
                <_>
                  7 0 14 17 2.</_></rects>
              <tilted>0</tilted></feature>
            <threshold>-3.0507429619319737e-004</threshold>
            <left_val>1.</left_val>
            <right_val>-1.</right_val></_></_>
        <_>
          <!-- tree 130 -->
          <_>
            <!-- root node -->
            <feature>
              <rects>
                <_>
                  0 0 2 1 -1.</_>
                <_>
                  1 0 1 1 2.</_></rects>
              <tilted>0</tilted></feature>
            <threshold>0.</threshold>
            <left_val>0.</left_val>
            <right_val>-1.</right_val></_></_>
        <_>
          <!-- tree 131 -->
          <_>
            <!-- root node -->
            <feature>
              <rects>
                <_>
                  0 0 4 11 -1.</_>
                <_>
                  1 0 2 11 2.</_></rects>
              <tilted>0</tilted></feature>
            <threshold>-2.6380690542282537e-005</threshold>
            <left_val>1.</left_val>
            <right_val>-1.</right_val></_></_>
        <_>
          <!-- tree 132 -->
          <_>
            <!-- root node -->
            <feature>
              <rects>
                <_>
                  0 0 2 1 -1.</_>
                <_>
                  1 0 1 1 2.</_></rects>
              <tilted>0</tilted></feature>
            <threshold>0.</threshold>
            <left_val>0.</left_val>
            <right_val>-1.</right_val></_></_>
        <_>
          <!-- tree 133 -->
          <_>
            <!-- root node -->
            <feature>
              <rects>
                <_>
                  9 1 42 6 -1.</_>
                <_>
                  9 1 21 3 2.</_>
                <_>
                  30 4 21 3 2.</_></rects>
              <tilted>0</tilted></feature>
            <threshold>-6.5154403273481876e-005</threshold>
            <left_val>1.</left_val>
            <right_node>1</right_node></_>
          <_>
            <!-- node 1 -->
            <feature>
              <rects>
                <_>
                  0 0 2 1 -1.</_>
                <_>
                  1 0 1 1 2.</_></rects>
              <tilted>0</tilted></feature>
            <threshold>0.</threshold>
            <left_val>0.</left_val>
            <right_val>-1.</right_val></_></_>
        <_>
          <!-- tree 134 -->
          <_>
            <!-- root node -->
            <feature>
              <rects>
                <_>
                  0 0 2 8 -1.</_>
                <_>
                  0 2 2 4 2.</_></rects>
              <tilted>0</tilted></feature>
            <threshold>9.1185984274488874e-006</threshold>
            <left_val>-1.</left_val>
            <right_val>1.</right_val></_></_>
        <_>
          <!-- tree 135 -->
          <_>
            <!-- root node -->
            <feature>
              <rects>
                <_>
                  6 12 24 9 -1.</_>
                <_>
                  18 12 12 9 2.</_></rects>
              <tilted>0</tilted></feature>
            <threshold>9.7430858295410872e-004</threshold>
            <left_val>-1.</left_val>
            <right_val>1.</right_val></_></_>
        <_>
          <!-- tree 136 -->
          <_>
            <!-- root node -->
            <feature>
              <rects>
                <_>
                  0 0 1 3 -1.</_>
                <_>
                  0 1 1 1 3.</_></rects>
              <tilted>0</tilted></feature>
            <threshold>3.1114400371734519e-006</threshold>
            <left_val>-1.</left_val>
            <right_val>1.</right_val></_></_>
        <_>
          <!-- tree 137 -->
          <_>
            <!-- root node -->
            <feature>
              <rects>
                <_>
                  0 0 2 1 -1.</_>
                <_>
                  1 0 1 1 2.</_></rects>
              <tilted>0</tilted></feature>
            <threshold>0.</threshold>
            <left_val>0.</left_val>
            <right_val>-1.</right_val></_></_>
        <_>
          <!-- tree 138 -->
          <_>
            <!-- root node -->
            <feature>
              <rects>
                <_>
                  0 0 27 18 -1.</_>
                <_>
                  9 0 9 18 3.</_></rects>
              <tilted>0</tilted></feature>
            <threshold>-2.9294329578988254e-004</threshold>
            <left_val>1.</left_val>
            <right_val>-1.</right_val></_></_>
        <_>
          <!-- tree 139 -->
          <_>
            <!-- root node -->
            <feature>
              <rects>
                <_>
                  0 0 2 1 -1.</_>
                <_>
                  1 0 1 1 2.</_></rects>
              <tilted>0</tilted></feature>
            <threshold>0.</threshold>
            <left_val>0.</left_val>
            <right_val>-1.</right_val></_></_>
        <_>
          <!-- tree 140 -->
          <_>
            <!-- root node -->
            <feature>
              <rects>
                <_>
                  0 0 3 18 -1.</_>
                <_>
                  1 6 1 6 9.</_></rects>
              <tilted>0</tilted></feature>
            <threshold>-1.5746389181003906e-005</threshold>
            <left_val>1.</left_val>
            <right_val>-1.</right_val></_></_>
        <_>
          <!-- tree 141 -->
          <_>
            <!-- root node -->
            <feature>
              <rects>
                <_>
                  0 0 2 1 -1.</_>
                <_>
                  1 0 1 1 2.</_></rects>
              <tilted>0</tilted></feature>
            <threshold>0.</threshold>
            <left_val>0.</left_val>
            <right_val>-1.</right_val></_></_>
        <_>
          <!-- tree 142 -->
          <_>
            <!-- root node -->
            <feature>
              <rects>
                <_>
