<?xml version="1.0"?>
<opencv_storage>
<stage6>
  <maxWeakCount>14</maxWeakCount>
  <stageThreshold>-8.9815282821655273e-01</stageThreshold>
  <weakClassifiers>
    <_>
      <internalNodes>
        0 -1 57440 2.2134847939014435e-02</internalNodes>
      <leafValues>
        4.4543972611427307e-01 -7.9508197307586670e-01</leafValues></_>
    <_>
      <internalNodes>
        0 -1 24403 1.1844782158732414e-02</internalNodes>
      <leafValues>
        -6.6273504495620728e-01 2.7005970478057861e-01</leafValues></_>
    <_>
      <internalNodes>
        0 -1 74309 -1.2698005884885788e-02</internalNodes>
      <leafValues>
        2.6214626431465149e-01 -4.4181361794471741e-01</leafValues></_>
    <_>
      <internalNodes>
        0 -1 20940 9.5421276986598969e-02</internalNodes>
      <leafValues>
        -1.5212813019752502e-01 7.8484475612640381e-01</leafValues></_>
    <_>
      <internalNodes>
        0 -1 44295 -2.4747778661549091e-03</internalNodes>
      <leafValues>
        4.8188713192939758e-01 -3.1996941566467285e-01</leafValues></_>
    <_>
      <internalNodes>
        0 -1 61636 6.1359844403341413e-04</internalNodes>
      <leafValues>
        -4.4668263196945190e-01 2.7038523554801941e-01</leafValues></_>
    <_>
      <internalNodes>
        0 -1 56152 2.0069098100066185e-03</internalNodes>
      <leafValues>
        -3.0163529515266418e-01 3.8172391057014465e-01</leafValues></_>
    <_>
      <internalNodes>
        0 -1 32964 7.3591908439993858e-03</internalNodes>
      <leafValues>
        1.2604343891143799e-01 -7.8458791971206665e-01</leafValues></_>
    <_>
      <internalNodes>
        0 -1 44093 -1.0956458572763950e-04</internalNodes>
      <leafValues>
        9.5108680427074432e-02 -8.6909002065658569e-01</leafValues></_>
    <_>
      <internalNodes>
        0 -1 39692 -4.4283322058618069e-03</internalNodes>
      <leafValues>
        3.2361105084419250e-01 -2.9652789235115051e-01</leafValues></_>
    <_>
      <internalNodes>
        0 -1 74297 6.6091571934521198e-03</internalNodes>
      <leafValues>
        -2.1966248750686646e-01 5.4894018173217773e-01</leafValues></_>
    <_>
      <internalNodes>
        0 -1 57954 -2.8387145139276981e-03</internalNodes>
      <leafValues>
        -8.6485457420349121e-01 1.2624350190162659e-01</leafValues></_>
    <_>
      <internalNodes>
        0 -1 54070 7.5207715854048729e-03</internalNodes>
      <leafValues>
        9.9062725901603699e-02 -8.0063813924789429e-01</leafValues></_>
    <_>
      <internalNodes>
        0 -1 16442 -4.1360766626894474e-03</internalNodes>
      <leafValues>
        3.4387898445129395e-01 -2.8610321879386902e-01</leafValues></_></weakClassifiers></stage6>
</opencv_storage>
