<?xml version="1.0"?>
<opencv_storage>
<stage2>
  <maxWeakCount>9</maxWeakCount>
  <stageThreshold>-7.2813153266906738e-01</stageThreshold>
  <weakClassifiers>
    <_>
      <internalNodes>
        0 -1 27555 -1.0517980903387070e-02</internalNodes>
      <leafValues>
        7.1394801139831543e-01 -3.0555555224418640e-01</leafValues></_>
    <_>
      <internalNodes>
        0 -1 2801 2.5608252733945847e-02</internalNodes>
      <leafValues>
        -3.2259717583656311e-01 6.5822792053222656e-01</leafValues></_>
    <_>
      <internalNodes>
        0 -1 47105 3.7483302876353264e-03</internalNodes>
      <leafValues>
        -6.3442558050155640e-01 2.7895161509513855e-01</leafValues></_>
    <_>
      <internalNodes>
        0 -1 26641 -7.8332826495170593e-02</internalNodes>
      <leafValues>
        3.6522632837295532e-01 -5.4524391889572144e-01</leafValues></_>
    <_>
      <internalNodes>
        0 -1 26856 -2.1599685773253441e-02</internalNodes>
      <leafValues>
        7.9722356796264648e-01 -2.2332963347434998e-01</leafValues></_>
    <_>
      <internalNodes>
        0 -1 26970 2.5674264878034592e-02</internalNodes>
      <leafValues>
        -3.9493760466575623e-01 5.8155071735382080e-01</leafValues></_>
    <_>
      <internalNodes>
        0 -1 26198 -1.9964329898357391e-02</internalNodes>
      <leafValues>
        5.3408062458038330e-01 -2.9153510928153992e-01</leafValues></_>
    <_>
      <internalNodes>
        0 -1 66506 1.2122081592679024e-02</internalNodes>
      <leafValues>
        -2.7114734053611755e-01 6.0102891921997070e-01</leafValues></_>
    <_>
      <internalNodes>
        0 -1 34932 -1.0714244097471237e-02</internalNodes>
      <leafValues>
        5.2164745330810547e-01 -3.2019361853599548e-01</leafValues></_></weakClassifiers></stage2>
</opencv_storage>
