<?xml version="1.0"?>
<opencv_storage>
<stage3>
  <maxWeakCount>9</maxWeakCount>
  <stageThreshold>-7.3098611831665039e-01</stageThreshold>
  <weakClassifiers>
    <_>
      <internalNodes>
        0 -1 48769 -1.9909283146262169e-03</internalNodes>
      <leafValues>
        5.3046596050262451e-01 -6.0683763027191162e-01</leafValues></_>
    <_>
      <internalNodes>
        0 -1 2157 1.0119809769093990e-02</internalNodes>
      <leafValues>
        -3.4885552525520325e-01 5.4623997211456299e-01</leafValues></_>
    <_>
      <internalNodes>
        0 -1 43546 -8.7255361722782254e-04</internalNodes>
      <leafValues>
        3.6381188035011292e-01 -4.4975981116294861e-01</leafValues></_>
    <_>
      <internalNodes>
        0 -1 34007 -7.2613451629877090e-03</internalNodes>
      <leafValues>
        4.9663600325584412e-01 -3.3222758769989014e-01</leafValues></_>
    <_>
      <internalNodes>
        0 -1 32997 -1.2875818647444248e-02</internalNodes>
      <leafValues>
        5.8812612295150757e-01 -2.8624635934829712e-01</leafValues></_>
    <_>
      <internalNodes>
        0 -1 32674 1.0165615007281303e-02</internalNodes>
      <leafValues>
        -3.6205604672431946e-01 6.1865270137786865e-01</leafValues></_>
    <_>
      <internalNodes>
        0 -1 26502 1.9921017810702324e-02</internalNodes>
      <leafValues>
        2.0705553889274597e-01 -8.5154569149017334e-01</leafValues></_>
    <_>
      <internalNodes>
        0 -1 26185 -4.4463966041803360e-03</internalNodes>
      <leafValues>
        -7.4978512525558472e-01 1.6582490503787994e-01</leafValues></_>
    <_>
      <internalNodes>
        0 -1 69850 4.9770791083574295e-03</internalNodes>
      <leafValues>
        -3.0085107684135437e-01 4.5325279235839844e-01</leafValues></_></weakClassifiers></stage3>
</opencv_storage>
